tree
version=v2
num_class=1
num_tree_per_iteration=1
label_index=0
max_feature_idx=59
objective=binary sigmoid:1
feature_names=Column_0 Column_1 Column_2 Column_3 Column_4 Column_5 Column_6 Column_7 Column_8 Column_9 Column_10 Column_11 Column_12 Column_13 Column_14 Column_15 Column_16 Column_17 Column_18 Column_19 Column_20 Column_21 Column_22 Column_23 Column_24 Column_25 Column_26 Column_27 Column_28 Column_29 Column_30 Column_31 Column_32 Column_33 Column_34 Column_35 Column_36 Column_37 Column_38 Column_39 Column_40 Column_41 Column_42 Column_43 Column_44 Column_45 Column_46 Column_47 Column_48 Column_49 Column_50 Column_51 Column_52 Column_53 Column_54 Column_55 Column_56 Column_57 Column_58 Column_59
feature_infos=[-0.19259300778162317:47.250017643597566] [-2.4582703175093763:36.519623420299425] [-1.4152589083089249:4.1555257078714982] [-16.698693022352877:19.831212106710982] [-2.3985582532973702:36.703688430199044] [-1.4309799278434034:4.2242210519498817] [-12.705545351866251:20.927644448257869] [-2.3899103911303126:37.842128858656686] [-1.75245686150841:3.9474387808263502] [-1.6096463624426784:9.2646975345763689] [-1.6726252591329032:35.581386325220066] [-1.1373693065561381:9.1179442884500528] [-0.30806004633805684:15.024121648197745] [-2.2049565646222118:40.788817640253264] [-4.2160058578532738:2.7068013061022271] [-1.0928775750911996:4.7534406392870068] [-2.3905361757918451:40.421662781947056] [-3.8342035074251335:2.7835541553941106] [-3.0249958101202923:4.9852049579852222] [-2.2217788877155806:40.78289682712618] [-4.0248064739751772:2.7085134659052024] [-1.0928775750911996:4.7534406392870068] [-1.3171147987971403:24.688586522887718] [-2.9866048644101548:4.3357983476025819] [-0.27151019132985033:24.758305913186575] [-2.3656833955470269:36.553904482488171] [-2.1086895170640623:5.1402939769459977] [-9.6904104822850829:8.3949042162700263] [-2.3955351881814382:36.727201272844319] [-2.1040377499455842:5.0347172814057171] [-9.8721590828403407:8.6464704969794894] [-2.3931776680221706:38.841354660041283] [-2.4049858417672367:4.8773275454971898] [-1.678212586286322:18.601489134630796] [-1.7217971359238762:32.101121354074998] [-2.4807688641240646:7.9359455524106801] [-7.6475010153594001:11.671993005875461] [-13.084952217880165:10.189071956087659] [-15.777695470476017:19.397339406945164] [-10.212023854596799:11.46638073122441] [-2.2401601250772196:3.9799605241810121] [-7.3430066017914122:14.369269041498812] [-27.657531135405335:25.532644497977437] [-3.8924077692962942:7.0234415713113192] [-7.7400016801606295:15.212997172714031] [-1.9298386625738573:5.4355371495814797] [-3.6145370136710375:8.0013124826668864] [-3.0161972228478087:18.93733791770158] [-0.33158944051575245:23.279938717148269] [-0.86748560472559821:26.926715500851756] [-0.46513094707012892:69.737219022168233] [-0.573425158903622:10.136286442586298] [-1.9342437117281104:2.7298378510428982] [-0.37626566767018405:34.253304832296152] [-0.88538674611118751:46.049166502770731] [-2.1347585951526309:5.7891512775730511] [-0.32923073027641148:34.334651007111276] [-0.68928799915753225:8.9978547628014098] [-0.87829321458378085:15.705213845885927] [-1.3193952771351314:46.831210449251898]
tree_sizes=804 824 827 820 828 826 824 834 825 830 826 830 820 833 828 828 826 831 830 830 835 835 829 836 835 829 834 832 833 835 835 817 839 830 832 830 838 839 812 835 833 812 835 842 837 830 835 838 836 752 844 811 839 820 836 833 837 835 835 836 837 811 816 815

Tree=0
num_leaves=9
num_cat=0
split_feature=52 34 44 52 52 26 44 20
split_gain=564.648 497.718 179.034 130.745 92.2425 82.5656 69.3127 46.0995
threshold=1.225607960995148 1.8649678998384296 -0.81147961455425077 0.0093909442058000125 1.9099111188354319 -1.1680617135892015 0.24951258155077494 1.5225964246793817
decision_type=2 2 2 2 2 2 2 2
left_child=1 2 -1 6 -2 -3 -4 -5
right_child=4 5 3 7 -6 -7 -8 -9
leaf_value=-1.186011007689608 -1.0330468331042968 -0.79392896166206883 -1.1498523452626641 -1.0941110555412037 -0.93955287251192221 -0.99070886114934764 -1.1095331596889235 -1.0102042836468654
leaf_count=1618 1498 189 3931 4531 620 183 3134 281
internal_value=0 -0.169838 -0.243088 -0.144222 1.11078 2.45682 -0.344526 0.148852
internal_count=15985 13867 13495 11877 2118 372 7065 4812
shrinkage=1


Tree=1
num_leaves=9
num_cat=0
split_feature=40 43 10 41 40 40 46 17
split_gain=425.146 418.545 143.737 121.066 90.0108 65.2142 55.5093 50.1403
threshold=-1.0301029014496188 1.7523790237556449 1.2090930862605938 -0.98394870777288845 0.11561123221911215 -1.511997242451929 -0.25928095790919531 1.5583084794330084
decision_type=2 2 2 2 2 2 2 2
left_child=5 3 -3 -2 7 -1 -6 -5
right_child=1 2 -4 4 6 -7 -8 -9
leaf_value=0.12260445903514497 -0.083133198647497589 0.0544724341754107 0.22989061879534917 -0.0038953598854971358 -0.054679545832072705 0.052606580744874537 -0.013326388406054128 0.083981282742356556
leaf_count=768 1289 477 295 5783 2943 1658 2508 264
internal_value=0 -0.164256 1.45286 -0.267246 -0.192173 0.868776 -0.409938 0.000385359
internal_count=15985 13559 772 12787 11498 2426 5451 6047
shrinkage=0.0870857


Tree=2
num_leaves=9
num_cat=0
split_feature=43 44 54 55 26 19 55 56
split_gain=272.776 169.833 162.399 90.5356 89.634 70.3881 31.6336 30.5373
threshold=1.8997845698742142 -0.72505230051833547 -0.37699019062141875 1.0747993586491853 -0.94371478177769663 -0.059164556529099251 -0.054043392407069901 0.057288262043624208
decision_type=2 2 2 2 2 2 2 2
left_child=1 7 6 5 -2 -4 -3 -1
right_child=4 2 3 -5 -6 -7 -8 -9
leaf_value=-0.039818408701837997 0.1978834101029 -0.045049559323897641 -0.011264455242392184 0.059893314001228541 0.055196245853321467 0.028010355122987069 -0.0092044057166967234 -0.092295022993864689
leaf_count=1216 278 2560 3825 1570 404 3550 1727 855
internal_value=0 -0.068637 0.024959 0.199943 1.35833 0.089343 -0.349521 -0.703707
internal_count=15985 15303 13232 8945 682 7375 4287 2071
shrinkage=0.0870857


Tree=3
num_leaves=9
num_cat=0
split_feature=52 40 44 52 54 52 2 43
split_gain=358.815 303.869 123.754 82.0053 57.831 56.388 35.1231 32.7899
threshold=0.81891876654648699 2.1680713283261102 -0.27351868059074863 1.5949195272866981 -0.2650770716355807 -0.32899160699715835 -0.89759297421949213 1.3264449127078619
decision_type=2 2 2 2 2 2 2 2
left_child=1 2 5 6 -4 -1 -2 -6
right_child=3 -3 4 -5 7 -7 -8 -9
leaf_value=-0.0800268012046879 0.10711781664759572 0.13603183797096477 -0.026312492160380868 0.094993724373851451 0.0018144860382824863 -0.028503685772576524 0.023843564196244633 0.067652665313711002
leaf_count=1964 219 434 4321 1178 3664 1783 2107 315
internal_value=0 -0.193641 -0.269685 0.62571 -0.112729 -0.631908 0.368188 0.086061
internal_count=15985 12481 12047 3504 8300 3747 2326 3979
shrinkage=0.0870857


Tree=4
num_leaves=9
num_cat=0
split_feature=52 34 44 52 22 50 52 5
split_gain=294.793 238.318 110.791 67.5131 67.078 58.2324 37.9544 29.3842
threshold=0.81891876654648699 1.8649678998384296 -0.83159259017138976 1.8724801810459124 -0.28557392262409681 0.20927883271161898 -0.62575557556124273 -0.86439146062070271
decision_type=2 2 2 2 2 2 2 2
left_child=1 2 -1 7 6 -6 -4 -2
right_child=3 -3 4 -5 5 -7 -8 -9
leaf_value=-0.078697274049609342 0.095054793851297947 0.12642657891647166 -0.054798584354508455 0.10044492023508697 -0.0068124855397287591 0.056678802501898336 -0.017830218019845339 0.027550358257577082
leaf_count=1423 268 371 1932 682 4894 659 3202 2554
internal_value=0 -0.179136 -0.244076 0.558177 -0.16605 0.00996818 -0.360947 0.395249
internal_count=15985 12481 12110 3504 10687 5553 5134 2822
shrinkage=0.0870857


Tree=5
num_leaves=9
num_cat=0
split_feature=52 43 41 29 52 54 43 23
split_gain=243.5 207.816 84.6483 70.6927 66.9862 48.7401 36.2064 32.4507
threshold=0.61785854926533434 1.7523790237556449 -0.67654864314928564 -1.2585331265148187 1.5949195272866981 -0.13697415455909576 -0.12990762041120471 -0.94792781186620056
decision_type=2 2 2 2 2 2 2 2
left_child=1 2 -1 -3 6 7 -2 -4
right_child=4 3 5 -5 -6 -7 -8 -9
leaf_value=-0.069176601908234839 0.0045418469438972212 0.16539260151898372 -0.057931682431096539 0.03787539345298379 0.075252801264647604 0.0048465682180837549 0.047784145861289727 -0.019713169411152809
leaf_count=1722 1860 209 1211 482 1178 2886 1285 5152
internal_value=0 -0.188459 -0.277224 0.937383 0.439398 -0.19155 0.256609 -0.309674
internal_count=15985 11662 10971 691 4323 9249 3145 6363
shrinkage=0.0870857


Tree=6
num_leaves=9
num_cat=0
split_feature=52 43 44 10 52 52 46 43
split_gain=203.153 180.23 83.0874 75.8731 45.6387 36.2598 35.077 30.1824
threshold=0.81891876654648699 1.3264449127078619 -0.27351868059074863 0.67000379966026913 1.9546619644149217 -0.32899160699715835 -0.8189269017240085 0.44737470452602213
decision_type=2 2 2 2 2 2 2 2
left_child=1 2 5 -3 7 -1 -4 -2
right_child=4 3 6 -5 -6 -7 -8 -9
leaf_value=-0.071681842295569648 0.018616688583284885 0.011660244339343189 -0.043017129951305112 0.11134927528449004 0.08624417654430562 -0.027280147627421644 -0.0045710011160116281 0.066428278825825041
leaf_count=1882 2318 654 1237 486 558 1665 6557 628
internal_value=0 -0.153934 -0.253034 0.669263 0.452134 -0.572979 -0.120567 0.333574
internal_count=15985 12481 11341 1140 3504 3547 7794 2946
shrinkage=0.0870857


Tree=7
num_leaves=9
num_cat=0
split_feature=52 40 44 52 22 32 52 22
split_gain=173.313 166.957 91.9792 46.5981 38.604 36.3918 29.9244 25.4089
threshold=0.57749676503669278 2.1680713283261102 -0.26467044267578871 1.6609616312185274 -0.25653201479429028 -1.323709998422185 -0.32899160699715835 -0.27031030944545548
decision_type=2 2 2 2 2 2 2 2
left_child=1 2 6 7 -4 -6 -1 -2
right_child=3 -3 4 -5 5 -7 -8 -9
leaf_value=-0.069615828957074827 -0.00081022116058632003 0.094245961597324054 -0.022424532607723806 0.063527710773154014 0.088189666006583664 0.0015065449620973771 -0.027612926507829216 0.032928461523983196
leaf_count=1991 1427 434 4050 1054 193 3361 1444 2031
internal_value=0 -0.168262 -0.235125 0.353441 -0.0957909 0.0784689 -0.584312 0.217881
internal_count=15985 11473 11039 4512 7604 3554 3435 3458
shrinkage=0.0870857


Tree=8
num_leaves=9
num_cat=0
split_feature=52 34 44 44 14 52 43 50
split_gain=144.498 133.537 83.5416 43.923 45.1751 39.7257 25.0302 23.4066
threshold=0.5364638530727609 1.8649678998384296 -0.83159259017138976 0.24188637452490197 1.1395043248847789 1.5716602281200831 -0.12990762041120471 0.7349304718381281
decision_type=2 2 2 2 2 2 2 2
left_child=1 2 -1 4 -4 6 -2 -5
right_child=5 -3 3 7 -6 -7 -8 -9
leaf_value=-0.076212673859526708 0.0011284195082978707 0.090403240970173063 -0.032235520547476797 -0.0030728073982094414 0.03036240949939454 0.054289664838342466 0.034996714508309164 0.043534940361927094
leaf_count=1285 2025 369 4917 3685 534 1240 1436 494
internal_value=0 -0.159977 -0.217466 -0.148346 -0.294505 0.311296 0.178326 0.0289387
internal_count=15985 11284 10915 9630 5451 4701 3461 4179
shrinkage=0.0870857


Tree=9
num_leaves=9
num_cat=0
split_feature=52 40 41 54 52 6 5 18
split_gain=121.373 125.502 66.3391 42.4337 36.3113 27.5248 24.8338 27.5458
threshold=0.45851120307946663 2.1680713283261102 -0.67654864314928564 -0.50072939202152678 1.9099111188354319 0.014449831449533497 -0.85702184742891918 -0.041347248923576427
decision_type=2 2 2 2 2 2 2 2
left_child=1 2 -1 -4 6 -5 -2 -8
right_child=4 -3 3 5 -6 -7 7 -9
leaf_value=-0.063594403183543563 0.058363306629497728 0.080109644386547108 -0.041702042024080524 0.027458650577882222 0.063020028089426319 -0.01049664106828245 -0.0075676251058453903 0.025012905851209223
leaf_count=1626 462 434 1894 921 620 6031 1664 2333
internal_value=0 -0.156169 -0.219168 -0.144356 0.268786 -0.0607352 0.190998 0.131646
internal_count=15985 10906 10472 8846 5079 6952 4459 3997
shrinkage=0.0870857


Tree=10
num_leaves=9
num_cat=0
split_feature=22 26 14 44 44 54 33 30
split_gain=100.686 98.5503 59.1543 74.0179 38.9969 36.991 24.0494 21.2685
threshold=-0.42064100067715054 -1.3517226770201292 1.3881716320989332 -0.35516784296471693 0.18971794309096154 -0.50411491537088404 -0.27949981224746834 -0.64771879181903813
decision_type=2 2 2 2 2 2 2 2
left_child=4 -2 3 7 -1 -5 -4 -3
right_child=1 2 6 5 -6 -7 -8 -9
leaf_value=-0.0432170750146166 0.10649761564640146 -0.075335806255760945 0.01127639923088548 -0.027232801018228933 -0.0051357485177175475 0.016628606636973357 0.081077846005482054 -0.021231219325974503
leaf_count=2759 350 469 326 972 2104 6361 540 2104
internal_value=0 0.115744 0.0721203 0.0190987 -0.296079 0.13106 0.638802 -0.344748
internal_count=15985 11122 10772 9906 4863 7333 866 2573
shrinkage=0.0870857


Tree=11
num_leaves=9
num_cat=0
split_feature=52 32 23 22 14 13 26 2
split_gain=103.747 89.1957 75.6097 49.4107 36.6893 36.129 22.7336 20.6805
threshold=1.225607960995148 -1.4892121300122576 -0.9651605254811193 -0.42064100067715054 1.1395043248847789 -0.064331405937417527 -0.38877542296839079 -0.39181220530709721
decision_type=2 2 2 2 2 2 2 2
left_child=1 5 6 -4 -5 -1 -3 -2
right_child=7 2 3 4 -6 -7 -8 -9
leaf_value=0.022517547961932505 0.064581042205324513 -0.02557016913603918 -0.027521345017465944 -0.0017550153821304011 0.037618893677305226 0.12901076448955529 -0.070245573124090036 0.024403406377533451
leaf_count=288 620 1077 3112 6863 1122 203 1202 1498
internal_value=0 -0.0873603 -0.12815 -0.0493971 0.0453634 0.826347 -0.547316 0.420647
internal_count=15985 13867 13376 11097 7985 491 2279 2118
shrinkage=0.0870857


Tree=12
num_leaves=9
num_cat=0
split_feature=44 10 40 40 17 56 17 5
split_gain=79.5401 68.3896 78.1838 43.5937 36.4111 30.7658 20.1596 17.698
threshold=-0.43190938401931717 1.407196116653973 -0.50288683764166631 0.13665173863711208 1.162406784240904 0.15359650291981 1.6286908383308276 -1.0743077954687759
decision_type=2 2 2 2 2 2 2 2
left_child=3 2 7 6 5 -4 -1 -2
right_child=1 -3 4 -5 -6 -7 -8 -9
leaf_value=-0.017387834769757818 0.072057595876760902 0.085958550544841111 -0.016504752410825198 -0.060385248363236332 0.047523429542934849 0.02989635573393571 0.050799170001181219 0.021503082608422767
leaf_count=1908 266 352 6854 1652 424 617 187 3725
internal_value=0 0.0815106 0.0481096 -0.331054 -0.0985031 -0.140059 -0.122227 0.288382
internal_count=15985 12238 11886 3747 7895 7471 2095 3991
shrinkage=0.0870857


Tree=13
num_leaves=9
num_cat=0
split_feature=23 29 27 44 14 44 13 8
split_gain=81.0681 58.8671 43.6669 39.4402 37.7766 34.2174 13.9475 13.8961
threshold=-0.9651605254811193 -1.3561842920564142 -1.1014015098925773 0.29858199834594951 1.8439878190105639 -0.33395660139897804 0.16458693137479416 -0.35939424104969991
decision_type=2 2 2 2 2 2 2 2
left_child=3 -2 7 6 5 -4 -1 -3
right_child=1 2 4 -5 -6 -7 -8 -9
leaf_value=-0.067132985603654827 0.081532826008321277 -0.0049160263293494579 -0.014981594733518027 -0.0047362568577226814 0.077657783556428273 0.010514711644632503 -0.0015666151493961005 -0.068015311905415529
leaf_count=1433 359 258 3114 994 260 8786 193 588
internal_value=0 0.0673735 0.039259 -0.40729 0.0715959 0.0506183 -0.676998 -0.535235
internal_count=15985 13365 13006 2620 12160 11900 1626 846
shrinkage=0.0870857


Tree=14
num_leaves=9
num_cat=0
split_feature=22 32 40 18 54 2 17 38
split_gain=71.4441 70.1327 56.5238 45.506 24.4756 23.9588 23.6924 35.115
threshold=-0.28557392262409681 -1.323709998422185 -0.21993523348931479 -0.041347248923576427 -0.50411491537088404 0.98724147756725278 1.5940140114854302 -0.4877311557514023
decision_type=2 2 2 2 2 2 2 2
left_child=2 -2 -1 4 -3 -4 7 -5
right_child=1 3 5 6 -6 -7 -8 -9
leaf_value=0.0033242676771290734 0.085301992028228621 -0.047029667144471897 -0.02754745367959931 -0.014581307823085558 -0.0018054298971881637 -0.081359886494672476 0.071795397550827547 0.027921476148748126
leaf_count=3040 422 701 3639 1146 3249 641 305 2842
internal_value=0 0.135577 -0.183204 0.0836301 -0.101037 -0.387905 0.244075 0.192245
internal_count=15985 8665 7320 8243 3950 4280 4293 3988
shrinkage=0.0870857


Tree=15
num_leaves=9
num_cat=0
split_feature=52 43 52 10 29 22 22 8
split_gain=74.0154 72.453 49.2816 33.1936 28.4927 28.5707 25.104 22.91
threshold=1.225607960995148 1.3264449127078619 -0.70040376810048399 0.59912021750909428 -0.88733278694713813 -0.42064100067715054 0.53466516706969636 -0.95927935041939294
decision_type=2 2 2 2 2 2 2 2
left_child=1 2 6 -3 -4 -6 -1 -2
right_child=7 3 4 -5 5 -7 -8 -9
leaf_value=-0.043165838190647579 0.089057768078333474 0.0075630901886454428 0.022917617722933811 0.071505778736989267 -0.030598106459513514 -0.0014998987810461717 0.007218942237614945 0.024176668600509429
leaf_count=3132 192 697 1319 534 2143 5541 501 1926
internal_value=0 -0.0757294 -0.136787 0.427813 -0.0472342 -0.105684 -0.399762 0.351541
internal_count=15985 13867 12636 1231 9003 7684 3633 2118
shrinkage=0.0870857


Tree=16
num_leaves=9
num_cat=0
split_feature=23 52 32 44 8 16 46 42
split_gain=63.0934 50.8285 53.5635 38.991 33.582 31.1154 17.2109 13.4261
threshold=-0.9651605254811193 1.4336267769959299 -1.4892121300122576 -1.2383791150874728 -0.22771109264604839 0.11964084795419491 -0.30698720509812455 -0.096639380090024984
decision_type=2 2 2 2 2 2 2 2
left_child=4 2 -2 -4 6 -5 -1 -8
right_child=1 -3 3 5 -6 -7 7 -9
leaf_value=-0.041906874699053825 0.078593202946320245 0.036275510858856989 -0.067291350052918641 -0.003660234021674637 -0.062782642967857252 0.034541801761736393 -0.02335342523022799 0.028186680083782941
leaf_count=562 304 1437 562 10139 1223 923 353 482
internal_value=0 0.0584134 0 -0.0281354 -0.367918 -0.00189853 -0.126992 0.0684554
internal_count=15985 13365 11928 11624 2620 11062 1397 835
shrinkage=0.0870857


Tree=17
num_leaves=9
num_cat=0
split_feature=30 16 40 6 32 44 32 17
split_gain=59.4751 48.2352 42.0843 35.5563 27.6205 26.2428 20.6435 13.134
threshold=-0.89718158654678815 0.11964084795419491 -1.0301029014496188 0.014449831449533497 -1.0975860906529913 -1.0700551735164103 0.10814021614324497 -0.62910099609502546
decision_type=2 2 2 2 2 2 2 2
left_child=6 2 -2 7 -3 -5 -1 -4
right_child=1 4 3 5 -6 -7 -8 -9
leaf_value=-0.021796710230643834 0.02138497532745667 0.10394483556290846 0.059047790681223199 -0.061726863983237443 0.026104674404824651 -0.0083179646155291179 -0.077690994234904276 0.011036809211099648
leaf_count=901 2300 207 380 648 1024 9097 699 729
internal_value=0 0.0401551 -0.00284571 -0.0746635 0.466384 -0.123692 -0.496775 0.321352
internal_count=15985 14385 13154 10854 1231 9745 1600 1109
shrinkage=0.0870857


Tree=18
num_leaves=9
num_cat=0
split_feature=52 16 8 52 22 9 16 8
split_gain=53.2011 57.3747 33.8234 23.5072 21.958 21.6473 25.822 23.2135
threshold=0.0093909442058000125 0.23282085838512981 -0.33712838175604692 1.9546619644149217 -0.41034791889987898 0.73993614040085176 0.063216798664073884 -0.22771109264604839
decision_type=2 2 2 2 2 2 2 2
left_child=1 2 -1 5 -4 6 7 -2
right_child=3 -3 4 -5 -6 -7 -8 -9
leaf_value=-0.0042117177678524971 0.012638336565779212 0.06358785503213242 -0.060161732985461146 0.045257428255811069 -0.021673495109576727 0.034537445680057989 0.029824965287301188 -0.014995866815586029
leaf_count=4044 1977 353 1391 558 2724 1001 1082 2855
internal_value=0 -0.147736 -0.19727 0.127301 -0.379788 0.0861732 0.0337066 -0.0374644
internal_count=15985 8512 8159 7473 4115 6915 5914 4832
shrinkage=0.0870857


Tree=19
num_leaves=9
num_cat=0
split_feature=23 8 52 13 14 18 44 32
split_gain=51.1325 38.2025 36.7027 32.535 25.4992 35.0282 23.1514 21.237
threshold=-1.2130182133937024 -0.99402615134015837 -0.10701704229873027 -0.066935617179581977 1.3675818723275968 0.4617888359765881 -1.0700551735164103 -1.0459333830292719
decision_type=2 2 2 2 2 2 2 2
left_child=7 3 6 -2 -4 -6 -3 -1
right_child=1 2 4 -5 5 -7 -8 -9
leaf_value=0.0012918781163340064 0.0080338344782511176 -0.075864510115273065 0.0028449011031508754 0.059005127152741692 0.00027543133801095416 0.080453736931204653 -0.01228960397912093 -0.055119731333753134
leaf_count=374 1300 493 6185 756 435 373 4779 1290
internal_value=0 0.0389216 -0.0136277 0.319171 0.0845793 0.448084 -0.185721 -0.444778
internal_count=15985 14321 12265 2056 6993 808 5272 1664
shrinkage=0.0870857


Tree=20
num_leaves=9
num_cat=0
split_feature=23 32 52 8 38 17 52 25
split_gain=44.4246 34.5469 34.4286 25.8288 23.8079 25.9761 12.3686 10.2256
threshold=-0.9651605254811193 -1.4892121300122576 1.4336267769959299 -0.22771109264604839 -1.6806077337142835 1.5583084794330084 -0.72338962162832143 -0.042144096348723771
decision_type=2 2 2 2 2 2 2 2
left_child=3 -2 4 6 -3 -6 7 -1
right_child=1 2 -4 -5 5 -7 -8 -9
leaf_value=0.0062374303494360872 0.067743744207477197 -0.06273614687563317 0.027944671121439224 -0.056441309941680909 -0.0026562789249880803 0.043638990654237216 0.0073053417811329464 -0.050958974676425427
leaf_count=183 309 435 1432 1223 10722 467 738 476
internal_value=0 0.0481718 0.0281744 -0.317542 -0.0213086 -0.003916 -0.108711 -0.372002
internal_count=15985 13365 13056 2620 11624 11189 1397 659
shrinkage=0.0870857


Tree=21
num_leaves=9
num_cat=0
split_feature=30 16 44 17 7 26 43 26
split_gain=43.0602 31.1232 28.6785 25.9007 40.1343 20.5491 15.5878 15.5673
threshold=-0.92636481930473724 0.11964084795419491 -1.4053432368591505 0.57839755406941229 -0.091649355753007325 -1.1512098516623825 -0.74081726505452028 0.098674939749141891
decision_type=2 2 2 2 2 2 2 2
left_child=7 2 -2 4 -4 -3 -5 -1
right_child=1 5 3 6 -6 -7 -8 -9
leaf_value=-0.02029010441088662 -0.067858453375416836 0.094761282100615324 0.01546284364794615 -0.0058029045437214153 -0.014688998818479338 0.021513608645950248 0.022098051428844478 -0.072691751852766065
leaf_count=876 469 180 2594 1010 6277 1056 2863 660
internal_value=0 0.0325091 -0.00223128 0.013051 -0.0601866 0.373726 0.16566 -0.448937
internal_count=15985 14449 13213 12744 8871 1236 3873 1536
shrinkage=0.0870857


Tree=22
num_leaves=9
num_cat=0
split_feature=22 29 52 23 48 44 2 52
split_gain=42.1245 38.4302 31.3007 24.1033 28.538 21.1545 18.5992 11.9916
threshold=-0.50225520084755837 -1.3561842920564142 0.45851120307946663 0.020627779914000985 0.45110979923110867 0.086542208843732857 0.3799329899548855 1.8724801810459124
decision_type=2 2 2 2 2 2 2 2
left_child=5 -2 3 6 -5 -1 -3 -4
right_child=1 2 7 4 -6 -7 -8 -9
leaf_value=-0.043413584754365409 0.064602977703579992 -0.010661427686557487 0.01064834301950892 0.0011308657252641356 0.073654389524039535 -0.0072169223409017016 -0.049923461453208695 0.038688126032571123
leaf_count=1642 390 3474 3726 3300 270 1709 911 563
internal_value=0 0.0564628 0.0313464 -0.069133 0.0772808 -0.260559 -0.19706 0.172683
internal_count=15985 12634 12244 7955 3570 3351 4385 4289
shrinkage=0.0870857


Tree=23
num_leaves=9
num_cat=0
split_feature=22 26 18 40 20 41 36 32
split_gain=36.55 34.8722 30.7894 28.9729 18.5067 21.9288 15.7264 15.1929
threshold=-0.28557392262409681 -1.0220714083287346 -0.041347248923576427 0.45643466272696004 0.24985662858956012 -0.40986821277545182 -0.51004036816231191 -0.77244774289626361
decision_type=2 2 2 2 2 2 2 2
left_child=3 6 -3 7 -4 -6 -2 -1
right_child=1 2 4 -5 5 -7 -8 -9
leaf_value=0.016064937465766212 0.0019242375471426733 -0.010359117817056196 -0.0019066271470468321 -0.035960262280115236 0.00093672510799890985 0.038951193775335048 0.062702245155191003 -0.010438934003967221
leaf_count=1137 239 3650 1598 2293 1030 1551 597 3890
internal_value=0 0.0963928 0.0450976 -0.135649 0.175593 0.290714 0.527066 -0.0455263
internal_count=15985 8665 7829 7320 4179 2581 836 5027
shrinkage=0.0870857


Tree=24
num_leaves=9
num_cat=0
split_feature=30 22 32 55 18 32 14 30
split_gain=33.7132 28.3597 29.2238 25.4817 23.2925 17.1205 15.1964 14.8037
threshold=-0.89718158654678815 -0.28557392262409681 -1.1791562608785033 -0.77518807287479208 -0.18137455707113606 0.10814021614324497 0.53013586716027994 -0.009177447545298251
decision_type=2 2 2 2 2 2 2 2
left_child=5 3 7 -2 -4 -1 -6 -3
right_child=1 2 4 -5 6 -7 -8 -9
leaf_value=-0.015069909549967671 -0.045875593343932312 0.075270141169654484 -0.0084125274695633443 -0.003380716703756947 0.003811785328480294 -0.069624670417771678 0.026696963493664731 0.0078478871648831969
leaf_count=901 939 375 2797 5460 2460 699 2160 194
internal_value=0 0.0290932 0.117377 -0.0956597 0.0763526 -0.395833 0.172565 0.599392
internal_count=15985 14385 7986 6399 7417 1600 4620 569
shrinkage=0.0870857


Tree=25
num_leaves=9
num_cat=0
split_feature=44 54 43 30 10 30 50 20
split_gain=31.645 27.6996 27.2509 19.1284 17.8791 15.4851 15.8953 14.1337
threshold=-1.3549066259811233 -0.50411491537088404 1.131835428211585 0.51565492371786237 0.59912021750909428 -0.92636481930473724 -0.049647643071136137 1.8453393711036588
decision_type=2 2 2 2 2 2 2 2
left_child=-1 -2 5 4 -4 6 -3 -7
right_child=1 2 3 -5 -6 7 -8 -9
leaf_value=-0.058275470750720142 -0.023342786733623562 -0.054318495338890528 0.020082517752928408 -0.019570496745506583 0.069079267353629042 0.0016687209038529645 0.0090385738343669152 0.05132195626837039
leaf_count=768 2219 613 787 250 467 10396 288 197
internal_value=0 0.0154067 0.0518909 0.332173 0.443952 0.0107818 -0.335198 0.0325768
internal_count=15985 15217 12998 1504 1254 11494 901 10593
shrinkage=0.0870857


Tree=26
num_leaves=9
num_cat=0
split_feature=44 22 17 54 17 55 8 8
split_gain=29.0734 25.2425 24.4562 23.9845 17.0593 13.5708 12.4291 9.29589
threshold=-1.7708390665653784 -0.50225520084755837 -2.349662134436219 -0.59005553086192952 1.8542814237150631 0.15243799167642577 -0.1977506446440446 -0.83017483039250062
decision_type=2 2 2 2 2 2 2 2
left_child=-1 5 -3 -4 -5 6 -2 -7
right_child=1 2 3 4 -6 7 -8 -9
leaf_value=-0.080052942573287059 -0.019286671734922201 0.080258652017549018 -0.041870711181833532 0.0042615146909473212 0.057183357260307016 0.023070975718084294 -0.066060473661112368 -0.013617314562267196
leaf_count=448 1130 183 658 11310 212 364 613 1067
internal_value=0 0.0098467 0.0549654 0.0418925 0.0629962 -0.196496 -0.373523 -0.0340093
internal_count=15985 15537 12363 12180 11522 3174 1743 1431
shrinkage=0.0870857


Tree=27
num_leaves=9
num_cat=0
split_feature=23 44 0 14 33 30 16 14
split_gain=31.378 24.1499 24.1509 20.1147 18.8203 16.8102 16.5408 15.4645
threshold=-1.2130182133937024 0.14172289064880902 -0.11876483698510376 1.8439878190105639 -0.9252461176544492 -0.96252523883169983 0.12485908787924789 0.085762409165321504
decision_type=2 2 2 2 2 2 2 2
left_child=-1 2 -2 5 -3 -4 7 -6
right_child=1 4 3 -5 6 -7 -8 -9
leaf_value=-0.031945715143115283 0.069544839753308219 0.049120591202651984 -0.048997927513801422 0.046734296323274568 -0.0030148624615248046 -0.0066339159534010914 0.044876459759610389 0.019611905124531502
leaf_count=1664 182 470 747 238 3435 7070 422 1757
internal_value=0 0.0295745 -0.0599264 -0.0809904 0.135634 -0.105755 0.0966503 0.0585273
internal_count=15985 14321 8237 8055 6084 7817 5614 5192
shrinkage=0.0870857


Tree=28
num_leaves=9
num_cat=0
split_feature=23 44 33 20 51 32 56 43
split_gain=26.8204 20.7511 17.7792 20.5489 16.5495 15.7654 15.3653 13.2482
threshold=-1.2647211936810059 -0.43190938401931717 -0.9252461176544492 0.59951971109658653 0.94328599487979725 -1.0594504406248475 0.25863960762530597 0.9057625181111314
decision_type=2 2 2 2 2 2 2 2
left_child=5 6 -3 4 -4 -1 -2 -5
right_child=1 2 3 7 -6 -7 -8 -9
leaf_value=0.0034266459546424275 -0.010072560890567329 0.039197576840803453 0.0012097292199077883 0.011448354339931386 -0.032726973822927434 -0.049516097700441249 -0.077148576402992677 0.046469327914774178
leaf_count=343 2934 577 7361 2221 588 1129 358 474
internal_value=0 0.0251323 0.0682341 0.0453526 -0.0181014 -0.367603 -0.163632 0.207968
internal_count=15985 14513 11221 10644 7949 1472 3292 2695
shrinkage=0.0870857


Tree=29
num_leaves=9
num_cat=0
split_feature=22 26 54 33 54 14 8 53
split_gain=22.3074 21.7473 18.6301 19.0796 17.2399 17.1347 13.8595 11.2028
threshold=-0.50225520084755837 -1.3517226770201292 -0.59581838418872268 -0.20255442227504919 -0.14100512675152557 1.1395043248847789 -0.1977506446440446 -0.097567356884135578
decision_type=2 2 2 2 2 2 2 2
left_child=6 -2 -3 4 -4 -5 -1 -8
right_child=1 2 3 5 -6 -7 7 -9
leaf_value=-0.0055246865788106088 0.049772040624989682 -0.040517210850525363 -0.017184675576241943 0.0063610147434407698 0.0053063578127824536 0.0352924174842075 -0.025687714872886517 -0.08608143418255601
leaf_count=1899 387 631 2749 5022 2900 945 1081 371
internal_value=0 0.0404152 0.0217935 0.0396939 -0.0566065 0.133367 -0.19559 -0.41823
internal_count=15985 12634 12247 11616 5649 5967 3351 1452
shrinkage=0.0870857


Tree=30
num_leaves=9
num_cat=0
split_feature=12 52 22 38 14 52 43 32
split_gain=23.5115 30.1288 27.3623 20.6216 18.2869 16.1518 15.7464 14.3637
threshold=-0.27328321775486047 -0.70040376810048399 0.7475717804636911 -0.54928578388593774 0.8973505428398435 1.225607960995148 0.82824152215736035 -0.099115139388915169
decision_type=2 2 2 2 2 2 2 2
left_child=1 -1 4 -3 5 7 -6 -2
right_child=2 3 -4 -5 6 -7 -8 -9
leaf_value=-0.033563861694172754 -0.00061612853230169889 -0.028253658318073624 0.03709539952398002 0.0051470524495884724 0.011062592793564904 0.018902888187036036 0.061588538028178465 -0.025335111404643614
leaf_count=2388 3225 1144 1035 3834 1461 837 275 1786
internal_value=0 -0.107717 0.0793586 -0.0148421 0.0277728 -0.0380241 0.230656 -0.100428
internal_count=15985 7366 8619 4978 7584 5848 1736 5011
shrinkage=0.0870857


Tree=31
num_leaves=9
num_cat=0
split_feature=23 52 17 44 3 8 16 13
split_gain=22.0728 19.6268 19.4161 16.0153 16.5406 15.9288 8.93563 7.61912
threshold=-0.9651605254811193 2.1516169460875756 -1.8084276943885325 -1.3549066259811233 -0.86909819306145286 -0.22771109264604839 0.025747667232563162 0.11267872895899488
decision_type=2 2 2 2 2 2 2 2
left_child=5 2 -2 -4 -5 6 -1 -7
right_child=1 -3 3 4 -6 7 -8 -9
leaf_value=-0.014616604844585383 0.052664269737233899 0.04854463184674989 -0.052304796313261126 0.037817957599116256 -0.00025981138967917189 -0.056168252387339926 0.030407767170670671 -0
leaf_count=1177 340 278 492 484 11771 1039 220 184
internal_value=0 0.0330683 0.0169073 0.00219692 0.0143699 -0.235841 -0.0730679 -0.525561
internal_count=15985 13365 13087 12747 12255 2620 1397 1223
shrinkage=0.0870857


Tree=32
num_leaves=9
num_cat=0
split_feature=23 44 43 12 59 14 33 42
split_gain=20.3625 18.6372 17.3297 12.0749 11.5752 10.3051 9.98131 9.62085
threshold=0.020627779914000985 0.081134509456807793 1.8997845698742142 -0.23427489863059023 -0.74747656956646624 0.24917162033900778 -0.9252461176544492 -0.37024552410111289
decision_type=2 2 2 2 2 2 2 2
left_child=1 3 4 -1 -2 6 -3 -6
right_child=2 5 -4 -5 7 -7 -8 -9
leaf_value=-0.028645026956569036 -0.037432498935271528 0.022181131834760125 0.047547912060751624 -0.0013526569667943174 0.019100634747090683 0.019202601822880517 -0.0087423039157026108 0.0017249367665587575
leaf_count=2916 290 458 382 1204 1873 907 3183 4772
internal_value=0 -0.0856696 0.0872522 -0.224951 0.0578633 0.00909122 -0.0488536 0.0773487
internal_count=15985 8668 7317 4120 6935 4548 3641 6645
shrinkage=0.0870857


Tree=33
num_leaves=9
num_cat=0
split_feature=52 12 43 52 49 30 10 26
split_gain=19.237 18.8041 20.5396 19.6624 17.7406 15.4996 14.7667 14.7581
threshold=1.5949195272866981 -0.27328321775486047 0.76565310185744395 -0.8171563917039798 0.30610809355803631 0.16062959382636791 1.563601449957835 1.010867418383369
decision_type=2 2 2 2 2 2 2 2
left_child=1 3 4 -1 -3 6 -4 -5
right_child=-2 2 5 7 -6 -7 -8 -9
leaf_value=-0.033438289013923442 0.021186117232286156 -0.0067458627011288972 0.025099271595199105 -0.00052091139117739916 0.023880981000440615 -0.0029654953876313596 0.084781100404403148 -0.036382420819729033
leaf_count=2027 1178 5232 871 4209 934 546 243 745
internal_value=0 -0.0301801 0.0475824 -0.129146 -0.0189665 0.272272 0.429744 -0.0558906
internal_count=15985 14807 7826 6981 6166 1660 1114 4954
shrinkage=0.0870857


Tree=34
num_leaves=9
num_cat=0
split_feature=44 52 23 3 34 33 23 15
split_gain=19.2023 16.299 16.6542 13.1662 13.1294 12.8312 10.2753 10.165
threshold=-1.7708390665653784 2.1516169460875756 0.020627779914000985 -1.0700045996203202 0.1004984801204252 -0.91035858717973162 -1.2832253979051276 -0.63491591503552003
decision_type=2 2 2 2 2 2 2 2
left_child=-1 2 5 -4 -5 7 -7 -2
right_child=1 -3 3 4 -6 6 -8 -9
leaf_value=-0.073550338676989041 0.00066370027334206722 0.040137494404633114 0.05616443253254895 -0.0017919021265997159 0.016773660179354916 -0.034281875891925183 -0.0073413892025636493 0.054578905757393388
leaf_count=448 463 310 207 4280 2490 1048 6536 203
internal_value=0 0.00716897 -0.00585311 0.0754503 0.0563965 -0.0842961 -0.11632 0.217942
internal_count=15985 15537 15227 6977 6770 8250 7584 666
shrinkage=0.0870857


Tree=35
num_leaves=9
num_cat=0
split_feature=44 0 2 12 34 40 52 6
split_gain=17.1648 15.9768 20.3971 19.1467 16.6847 16.2546 14.577 12.4602
threshold=-1.7708390665653784 -0.13762286307931682 -0.95395835437872811 -0.28479378751936896 0.13196082675194451 1.0618547611276423 1.225607960995148 -1.1064548557319005
decision_type=2 2 2 2 2 2 2 2
left_child=-1 2 -2 5 6 7 -5 -3
right_child=1 3 -4 4 -6 -7 -8 -9
leaf_value=-0.071717878384302866 0.0069883649687622141 0.04269288734879325 0.090210312500041384 -0.0065162213483506547 0.01713554915434802 -0.049048179950088498 0.014743815261101714 -0.010805338980290669
leaf_count=448 403 192 182 5994 2894 743 1370 3759
internal_value=0 0.00656143 0.381899 -0.00895548 0.0453306 -0.145266 -0.0140375 -0.0905146
internal_count=15985 15537 585 14952 10258 4694 7364 3951
shrinkage=0.0870857


Tree=36
num_leaves=9
num_cat=0
split_feature=7 22 33 45 17 40 36 27
split_gain=15.4664 19.2917 15.4707 19.6819 26.6345 18.9376 14.5172 12.8238
threshold=-0.085039139315536805 -0.56309565870330036 -0.20255442227504919 -0.45360074894616648 1.4236587233789544 1.0618547611276423 -0.57696386935693822 0.58236290282441805
decision_type=2 2 2 2 2 2 2 2
left_child=7 -2 6 5 -5 -4 -3 -1
right_child=1 2 3 4 -6 -7 -8 -9
leaf_value=0.016419656963419297 -0.031696987698826028 -0.037593008045137044 0.033097581484710058 -0.0085927879110675193 0.044579318626631712 -0.028663895530825548 -0.0051144355488315554 -0.01469753708198481
leaf_count=3169 1401 822 1640 3418 382 353 4097 703
internal_value=0 -0.0458454 -0.0149954 0.0695299 -0.0244288 0.279525 -0.114796 0.126777
internal_count=15985 12113 10712 5793 3800 1993 4919 3872
shrinkage=0.0870857


Tree=37
num_leaves=9
num_cat=0
split_feature=27 6 17 40 48 17 16 5
split_gain=15.0753 15.9438 14.8534 13.5377 13.5808 8.92131 8.60765 7.97775
threshold=-1.1014015098925773 -1.1064548557319005 -2.349662134436219 -1.2388368160790317 -0.30242357599732922 -0.34984367744902706 0.018277038844166361 -0.44136510540187085
decision_type=2 2 2 2 2 2 2 2
left_child=5 7 -3 6 -5 -1 -4 -2
right_child=1 2 3 4 -6 -7 -8 -9
leaf_value=-0.0065856843224191067 0.067520155693287967 0.055000202077652417 0.0064677427602829992 -0.019030742974930074 -0.00035609061079694686 -0.053405996905584494 0.037955086797065198 0.015196816591309701
leaf_count=598 194 238 1164 2266 10116 662 375 372
internal_value=0 0.0158173 -0.000213079 -0.0101381 -0.0420431 -0.329246 0.166277 0.394181
internal_count=15985 14725 14159 13921 12382 1260 1539 566
shrinkage=0.0870857


Tree=38
num_leaves=9
num_cat=0
split_feature=44 0 5 23 33 15 22 32
split_gain=14.8492 13.3801 16.0866 12.7046 12.708 12.2807 10.9033 9.7327
threshold=-1.7708390665653784 -0.13762286307931682 -0.93446006997511877 0.15700477437082913 -0.91035858717973162 -0.6413012762629835 -0.64923300429236763 -0.89739518265314344
decision_type=2 2 2 2 2 2 2 2
left_child=-1 2 -2 4 5 -3 -6 -5
right_child=1 3 -4 7 6 -7 -8 -9
leaf_value=-0.069415115862659707 0.0068447409228223994 0 0.080548277212906624 0.031569032960024564 -0.039556142046164894 0.058569823818507498 -0.006340282612605796 0.0036212428039341348
leaf_count=448 405 434 180 565 647 210 7902 5194
internal_value=0 0.00582364 0.347797 -0.00846352 -0.0681871 0.240577 -0.0959364 0.0745353
internal_count=15985 15537 585 14952 9193 644 8549 5759
shrinkage=0.0870857


Tree=39
num_leaves=9
num_cat=0
split_feature=52 8 16 0 9 26 51 53
split_gain=14.1273 16.6539 20.9222 15.4855 13.9253 14.8633 16.085 13.7122
threshold=0.0093909442058000125 -0.31091086233070775 0.31934288237786729 -0.1351768962030809 0.73993614040085176 -0.81894125603172563 -0.50852203383273464 -0.10663423755348696
decision_type=2 2 2 2 2 2 2 2
left_child=1 2 -1 -2 5 -5 -7 -6
right_child=3 -3 -4 4 7 6 -8 -9
leaf_value=-0.0019220957918447443 0.050609228369900262 -0.019657050213175875 0.069948054332491433 0.026992887997441661 0.039234564442502375 -0.036018070571236127 0.00014544599611529413 -0.0091129683755823143
leaf_count=4193 255 4120 199 662 730 555 4964 307
internal_value=0 -0.0817004 0.0134274 0.0640107 0.0431604 0.00206771 -0.0364715 0.283663
internal_count=15985 8512 4392 7473 7218 6181 5519 1037
shrinkage=0.0870857


Tree=40
num_leaves=9
num_cat=0
split_feature=52 16 41 3 55 33 17 7
split_gain=12.4454 12.2541 13.3832 12.1373 11.3091 10.6747 9.5282 8.54738
threshold=2.2677759028812163 0.11964084795419491 -1.5211302073737978 1.0000000180025095e-35 -1.619274804776597 -0.20255442227504919 0.94097757820190842 0.065857944699957885
decision_type=2 2 2 2 2 2 2 2
left_child=1 2 -1 -4 -3 -5 7 -6
right_child=-2 4 3 5 6 -7 -8 -9
leaf_value=-0.056834201676263969 0.044874978528287569 0.067814519301918508 0.017993941723499912 -0.010420003841176048 0.022285885857829455 0.001803270349397534 0.037477693496684956 -0.020143756369123793
leaf_count=582 186 194 1112 5915 302 6886 333 475
internal_value=0 -0.00986299 -0.0318627 -0.0224462 0.203727 -0.0451173 0.116353 -0.0204559
internal_count=15985 15799 14495 13913 1304 12801 1110 777
shrinkage=0.0870857


Tree=41
num_leaves=9
num_cat=0
split_feature=23 0 54 14 38 36 32 48
split_gain=12.9863 12.0996 11.7915 10.3081 14.9846 9.79057 9.5211 7.2492
threshold=-1.2647211936810059 -0.13762286307931682 -0.57521492424311427 1.8439878190105639 -0.54928578388593774 -0.31053395867926464 -1.0594504406248475 -0.24392179319485952
decision_type=2 2 2 2 2 2 2 2
left_child=6 5 7 4 -4 -2 -1 -3
right_child=1 2 3 -5 -6 -7 -8 -9
leaf_value=0.0034845756160537212 -0 -0.0049445972960868237 -0.013665373172510421 0.036515337124363098 0.00416349982996267 0.055961032220544438 -0.038975118409848922 -0.052019266665322847
leaf_count=343 213 533 3049 291 9742 268 1129 417
internal_value=0 0.017152 0.0030575 0.0185042 0.00696268 0.368084 -0.271298 -0.319503
internal_count=15985 14513 14032 13082 12791 481 1472 950
shrinkage=0.0870857


Tree=42
num_leaves=9
num_cat=0
split_feature=27 30 32 6 12 34 40 55
split_gain=11.8287 12.1574 12.9294 11.6525 12.1285 12.919 10.3739 8.65239
threshold=2.5022475145168923 -0.89718158654678815 0.10814021614324497 -1.1064548557319005 -0.27328321775486047 0.13196082675194451 0.92090747952520857 -0.21733185348773601
decision_type=2 2 2 2 2 2 2 2
left_child=1 2 -1 7 6 -6 -5 -3
right_child=-2 3 -4 4 5 -7 -8 -9
leaf_value=-0.0052088620819697581 -0.068131312266248301 0.059973296288131347 -0.05781484539065334 -0.0034866072481494884 0.00050967702393084227 0.019019379351942655 -0.032894389074284693 0.0075233433463411086
leaf_count=901 186 239 699 5146 5416 2229 867 302
internal_value=0 0.0049041 -0.251399 0.0230443 0.00823612 0.0684292 -0.0763394 0.348402
internal_count=15985 15799 1600 14199 13658 7645 6013 541
shrinkage=0.0870857


Tree=43
num_leaves=9
num_cat=0
split_feature=22 52 17 15 44 7 22 33
split_gain=11.393 10.4496 10.9781 10.9517 10.5258 10.1481 9.2228 8.54347
threshold=-0.56309565870330036 1.6609616312185274 -2.349662134436219 -0.71443528086762764 0.19669476926032026 -0.069638371552750072 -0.64267890115196724 -0.33003942617934628
decision_type=2 2 2 2 2 2 2 2
left_child=5 2 -2 -4 -5 6 7 -1
right_child=1 -3 3 4 -6 -7 -8 -9
leaf_value=0.00022246531656049299 0.055364420987207549 0.019586891689052793 -0.019841977583127154 -0.0040788597729360465 0.0089859201299949659 -0.033106295059328314 0.020047821193405702 -0.054811019831702563
leaf_count=316 186 943 1468 6905 4203 1221 481 262
internal_value=0 0.0225188 0.000324199 -0.00730079 0.0157243 -0.183365 -0.00709042 -0.244605
internal_count=15985 13705 12762 12576 11108 2280 1059 578
shrinkage=0.0870857


Tree=44
num_leaves=9
num_cat=0
split_feature=44 14 51 14 44 54 0 43
split_gain=10.9565 9.6742 10.4984 15.0893 12.5444 12.1385 11.0591 8.72784
threshold=-1.7708390665653784 1.8439878190105639 0.98089772934237673 0.44017450602169583 0.16533041075587965 -0.2650770716355807 -0.12252412914126999 0.35378850266540895
decision_type=2 2 2 2 2 2 2 2
left_child=-1 2 4 -4 6 -6 -2 -5
right_child=1 -3 3 7 5 -7 -8 -9
leaf_value=-0.064511578723952162 0.046187479507361399 0.034170735329244854 -0.040618535234354672 -0.014098052049276059 -0.0035774250610270115 0.015230643208353021 -0.0060565132435808529 0.024240382935550652
leaf_count=448 192 281 607 673 2378 3591 7483 332
internal_value=0 0.00480108 -0.00425739 -0.176685 0.0189242 0.0955118 -0.0527391 -0.00467165
internal_count=15985 15537 15256 1612 13644 5969 7675 1005
shrinkage=0.0870857


Tree=45
num_leaves=9
num_cat=0
split_feature=52 37 7 19 40 2 12 3
split_gain=10.7143 12.733 11.4826 11.1294 9.75254 9.71228 11.6882 10.8044
threshold=0.32811278404809913 -0.13106708981672988 -0.18765931625339349 -0.23825012153548117 -0.41510917179898749 0.93405778894822178 1.4537759761205844 -1.0700045996203202
decision_type=2 2 2 2 2 2 2 2
left_child=1 3 -2 -1 -4 6 7 -3
right_child=2 5 4 -5 -6 -7 -8 -9
leaf_value=-0.010685842652072629 0.045179560048973423 0.042651740793459084 0.0025820349296902644 0.0145764654695977 0.048537072494481713 -0.036626788038267528 -0.056493812027372886 -0.00787803867323769
leaf_count=1406 250 194 5278 2256 181 1192 203 5025
internal_value=0 -0.0573122 0.0702279 0.0598716 0.0475684 -0.130065 -0.0919155 -0.0647369
internal_count=15985 10276 5709 3662 5459 6614 5422 5219
shrinkage=0.0870857


Tree=46
num_leaves=9
num_cat=0
split_feature=27 25 52 30 15 54 9 50
split_gain=10.0986 10.1249 16.7933 13.7816 12.2119 15.4546 10.5468 14.7738
threshold=2.5022475145168923 -0.04436080067100194 -0.83956987486923473 0.65084347216425653 0.73589472802750178 -0.38049597843462474 0.73993614040085176 0.7349304718381281
decision_type=2 2 2 2 2 2 2 2
left_child=1 3 -3 4 5 -1 7 -4
right_child=-2 2 6 -5 -6 -7 -8 -9
leaf_value=-0.0062525169687413984 -0.064980771704200357 -0.024741988641617207 -0.0046970723784625235 -0.019428239877251841 -0.013724731717958339 0.030410988206765129 0.015468369895345209 0.036296084595673392
leaf_count=775 186 2107 7860 621 462 1893 1698 383
internal_value=0 0.00436749 -0.0303071 0.113781 0.177435 0.243877 0.00218281 -0.0312518
internal_count=15985 15799 12048 3751 3130 2668 9941 8243
shrinkage=0.0870857


Tree=47
num_leaves=9
num_cat=0
split_feature=23 17 42 51 45 50 29 42
split_gain=9.76791 11.8314 11.8553 10.4758 10.5099 9.65617 8.85122 8.26372
threshold=-0.9651605254811193 -1.8084276943885325 1.9289390404934248 -0.52416246501143704 -0.57889605293086988 -0.22666112796716209 -0.40910073094311056 -0.26277156310048994
decision_type=2 2 2 2 2 2 2 2
left_child=6 -2 3 5 -5 -3 7 -1
right_child=1 2 -4 4 -6 -7 -8 -9
leaf_value=-0.028599320376561824 0.043415539465783665 -0.052009128072375961 -0.049439442830594378 0.01548527222705183 0.00019077961858024171 -0.0041473934517164352 -0.032538506338182852 0.009376538459364505
leaf_count=412 342 372 200 2555 9182 714 1315 893
internal_value=0 0.0216415 0.0106112 0.0199466 0.0386703 -0.232271 -0.16415 -0.0272095
internal_count=15985 13365 13023 12823 11737 1086 2620 1305
shrinkage=0.0870857


Tree=48
num_leaves=9
num_cat=0
split_feature=22 14 3 33 14 54 8 53
split_gain=9.32389 9.97505 10.6025 11.1072 12.06 9.58147 8.01094 9.33451
threshold=-0.4683910831187143 -1.8363287656421809 1.0173990932227375 -0.20255442227504919 0.11724563952965923 -0.30562925105127375 -0.1977506446440446 -0.10315392110192938
decision_type=2 2 2 2 2 2 2 2
left_child=6 -2 3 5 -5 -3 -1 -8
right_child=1 2 -4 4 -6 -7 7 -9
leaf_value=-0.0018925067669596971 0.044542162834713697 -0.021366256408531396 0.037774094528671441 -0.0033665710510068269 0.015262540775412052 -0.001067298671358024 -0.015725530425743778 -0.070944354756590042
leaf_count=2204 280 1559 413 2940 3013 3799 1342 435
internal_value=0 0.0294048 0.019101 0.00625187 0.0776832 -0.0711092 -0.116658 -0.275167
internal_count=15985 12004 11724 11311 5953 5358 3981 1777
shrinkage=0.0870857


Tree=49
num_leaves=8
num_cat=0
split_feature=44 24 16 40 39 40 14
split_gain=8.92573 8.8694 8.51008 8.0297 7.90523 7.80674 6.71667
threshold=-1.7708390665653784 3.0675448263593696 0.11964084795419491 -1.8328320715598314 0.050296327651077687 1.7964218247724808 0.92233785364400067
decision_type=2 2 2 2 2 2 2
left_child=-1 2 3 -2 -5 6 -4
right_child=1 -3 5 4 -6 -7 -8
leaf_value=-0.061229401737870379 0.03571956255922519 -0.033392808057915502 -2.8862289151938303e-05 0.0050219470451358687 -0.0053507223160557983 0.059851077437581966 0.033548210701793021
leaf_count=448 187 303 714 5502 8324 201 306
internal_value=0 0.00385869 0.012872 -0.00457951 -0.0131776 0.197657 0.12039
internal_count=15985 15537 15234 14013 13826 1221 1020
shrinkage=0.0870857


Tree=50
num_leaves=9
num_cat=0
split_feature=52 31 25 30 37 28 9 56
split_gain=8.93446 11.8767 10.2131 11.8914 12.7541 9.15506 12.0492 21.9501
threshold=0.0093909442058000125 -0.10786523637504832 0.0065075764066377046 0.65084347216425653 -0.71823058801976203 0.052888888332962875 -0.21985380660672518 -0.11212975026473308
decision_type=2 2 2 2 2 2 2 2
left_child=2 -2 3 4 -1 6 -3 -8
right_child=1 5 -4 -5 -6 -7 7 -9
leaf_value=0.029094347657237889 0.026293980948330901 -0.014701297809597192 -0.015751713844201352 -0.020168018375689191 -0.00086996582061600787 0.012950151874548534 0.017051718539300726 -0.020602585924670579
leaf_count=852 808 1959 3568 1163 2929 1869 1902 935
internal_value=0 0.0505519 -0.0663199 0.00882547 0.0802165 0.0179664 -0.0344404 0.0603405
internal_count=15985 7473 8512 4944 3781 6665 4796 2837
shrinkage=0.0870857


Tree=51
num_leaves=9
num_cat=0
split_feature=59 12 5 34 37 54 44 34
split_gain=8.87752 8.7955 12.4801 11.7338 13.3989 10.0975 13.242 9.94179
threshold=-0.78520413466041672 -0.27328321775486047 0.88063422736042696 0.13196082675194451 0.58834486454373058 -0.16018147326379259 0.6261795622834555 0.10592104684599959
decision_type=2 2 2 2 2 2 2 2
left_child=-1 2 5 -3 -5 -2 -7 -4
right_child=1 3 7 4 -6 6 -8 -9
leaf_value=-0.017199263041531562 -0.0083315816977071779 0.00088343982879585104 -0.05033625252729889 0.024062392440550803 -0.03003266976446476 0.026998872604766563 -0.0063090324008251179 -0
leaf_count=1780 3640 5577 613 1956 202 940 864 413
internal_value=0 0.0161605 -0.0529642 0.0682112 0.215176 -0.010636 0.119812 -0.34389
internal_count=15985 14205 6470 7735 2158 5444 1804 1026
shrinkage=0.0870857


Tree=52
num_leaves=9
num_cat=0
split_feature=33 52 22 8 6 18 45 20
split_gain=8.84474 10.1235 8.16348 8.91446 11.0273 8.3287 12.826 11.6849
threshold=3.7513121493221826 2.1516169460875756 -0.46209094141609625 -0.1977506446440446 -0.62375422193902252 -0.041347248923576427 0.16372305440143867 -1.6657002371473493
decision_type=2 2 2 2 2 2 2 2
left_child=1 2 3 4 -1 7 -7 -4
right_child=-2 -3 5 -5 -6 6 -8 -9
leaf_value=0.045471423619803143 -0.048392510450905292 0.032157622268014864 0.034974154673477094 -0.025058712372565014 -0.0067169972713627384 0.016776642351482331 -0.0025585760282914607 -0.0060382289486712341
leaf_count=189 186 305 365 1753 2038 2951 2531 5667
internal_value=0 0.00507602 -0.00517219 -0.114623 -0.0161826 0.0238033 0.0868283 -0.0416812
internal_count=15985 15799 15494 3980 2227 11514 5482 6032
shrinkage=0.0870857


Tree=53
num_leaves=9
num_cat=0
split_feature=48 29 17 30 30 39 12 22
split_gain=8.17257 11.2889 15.2572 14.6384 10.24 10.2731 9.79287 9.31438
threshold=-0.28950409649347025 -0.92189135854752713 0.57839755406941229 0.26437873972967113 -1.2652044277498569 0.43826438434380716 1.1386175696399909 -0.10164787300848248
decision_type=2 2 2 2 2 2 2 2
left_child=-1 3 6 7 -4 -6 -3 -2
right_child=1 2 4 -5 5 -7 -8 -9
leaf_value=-0.0086769143333116482 0.014734860456226493 -0.00486734787879365 -0.068287257614114749 -0.017400372569257191 0.015347302743810083 -0.012601058766287263 -0.042305760262532362 0.052997832385090156
leaf_count=4146 762 5837 183 357 3319 623 300 458
internal_value=0 0.0303675 -0 0.215085 0.10797 0.124263 -0.0819069 0.337904
internal_count=15985 11839 10262 1577 4125 3942 6137 1220
shrinkage=0.0870857


Tree=54
num_leaves=9
num_cat=0
split_feature=27 54 9 56 33 26 16 51
split_gain=8.00995 7.8546 9.19693 16.1563 14.9615 10.3266 16.841 10.3242
threshold=2.5022475145168923 -0.59581838418872268 0.73993614040085176 -0.066869701237795939 0.88032580139118666 -0.63018291042187924 0.18884444200907446 -0.50852203383273464
decision_type=2 2 2 2 2 2 2 2
left_child=1 -1 5 4 -4 6 -3 -7
right_child=-2 2 3 -5 -6 7 -8 -9
leaf_value=-0.024994715917050329 -0.06044867268725277 0.0041691366049940691 0.034437961201079323 -0.01696485823419407 -0.0050525120649180981 -0.027274376006703988 0.064866528743832363 -0.0028148603788072275
leaf_count=931 186 3576 1396 690 589 1071 247 7299
internal_value=0 0.00338098 0.0140148 0.146542 0.254797 -0.0129646 0.0864934 -0.0624471
internal_count=15985 15799 14868 2675 1985 12193 3823 8370
shrinkage=0.0870857


Tree=55
num_leaves=9
num_cat=0
split_feature=52 25 12 47 36 9 21 8
split_gain=7.68243 11.8712 11.522 9.21271 11.3554 8.84801 14.144 10.4497
threshold=-0.63365416326986035 -0.020337803577046933 -0.28529666389005653 -0.71268037808677376 0.34904152489311852 0.87376119430379562 -0.18513407009288305 -0.22771109264604839
decision_type=2 2 2 2 2 2 2 2
left_child=1 2 -1 -4 -5 7 -7 -2
right_child=5 -3 3 4 -6 6 -8 -9
leaf_value=-0.027632228030273705 0.0071793775663609102 -0.021439268938821851 -0.018609908482351504 0.010878466790192212 0.067672894048716598 0.037855212171554124 -0.0014705040657024126 -0.0061294772263660001
leaf_count=612 4359 2633 377 840 207 757 764 5436
internal_value=0 -0.103124 0.0384349 0.152644 0.266273 0.0274497 0.196053 0.00148591
internal_count=15985 4669 2036 1424 1047 11316 1521 9795
shrinkage=0.0870857


Tree=56
num_leaves=9
num_cat=0
split_feature=14 29 51 14 16 52 12 28
split_gain=7.44189 8.58528 7.81808 13.7481 8.8376 8.55242 8.0147 4.01916
threshold=1.9910581080370739 2.3663756867644623 0.98089772934237673 0.44017450602169583 -0.00089988294030094026 2.2023855465825561 -0.25958424957804732 0.0082101344077160372
decision_type=2 2 2 2 2 2 2 2
left_child=1 2 5 7 -5 6 -1 -4
right_child=-2 -3 3 4 -6 -7 -8 -9
leaf_value=-0.0042462507752334721 0.03798509533999795 -0.057973696278312142 -0.057910384911991485 -0.018215598470062995 0.018231892790538072 0.038702154258316697 0.0062069262284876157 -0.0210022268774866
leaf_count=7480 180 392 276 515 508 191 6108 335
internal_value=0 -0.0074938 -0.00210866 -0.150831 0.000753528 0.0179367 0.00865491 -0.432868
internal_count=15985 15805 15413 1634 1023 13779 13588 611
shrinkage=0.0870857


Tree=57
num_leaves=9
num_cat=0
split_feature=0 2 12 40 35 47 10 57
split_gain=7.42145 12.531 7.81253 10.1803 10.0207 9.87008 8.2919 8.26126
threshold=-0.13762286307931682 -0.95395835437872811 -0.28479378751936896 1.0618547611276423 -0.71114795016617627 -0.91555767188489401 0.019346750314628163 -0.32512289077419371
decision_type=2 2 2 2 2 2 2 2
left_child=1 -1 3 -2 -4 6 -6 -7
right_child=2 -3 4 -5 5 7 -8 -9
leaf_value=0.0007922096659512992 -0.0051259360940713403 0.064876080313684512 -0.0095092508514001417 -0.039680199602982219 -0.029284289583336873 0.016867071079099613 0.0049498520216324903 0.0020051694425602582
leaf_count=403 4090 186 2412 853 741 3072 710 3518
internal_value=0 0.252691 -0.0121229 -0.101302 0.0222384 0.0643966 -0.134641 0.100416
internal_count=15985 589 15396 4943 10453 8041 1451 6590
shrinkage=0.0870857


Tree=58
num_leaves=9
num_cat=0
split_feature=33 35 49 53 27 51 7 56
split_gain=7.43243 6.49064 14.2918 13.5704 9.00394 8.54908 7.80249 9.82769
threshold=3.7513121493221826 -0.71114795016617627 -0.22365648612792402 0.2335225999739485 0.88823976373680114 -0.45748512826551113 -0.10758151249101745 0.47590747902901015
decision_type=2 2 2 2 2 2 2 2
left_child=1 2 3 5 -4 -1 -3 -8
right_child=-2 6 4 -5 -6 -7 7 -9
leaf_value=-0.06262390465602051 -0.045009258828919416 0.015933376085003125 0.0055982485451266349 0.021371182645865832 -0.044716968186190247 -0.020932952721772927 0.0012343973522607622 -0.07217944784341597
leaf_count=437 186 1717 2155 236 187 815 9918 334
internal_value=0 0.00451473 -0.0802693 -0.282276 0.0241688 -0.392552 0.0340769 0.00646126
internal_count=15985 15799 3830 1488 2342 1252 11969 10252
shrinkage=0.0870857


Tree=59
num_leaves=9
num_cat=0
split_feature=52 6 22 30 16 9 34 2
split_gain=6.88707 11.8349 11.5589 10.2338 11.8118 11.0195 9.22018 8.69051
threshold=0.70208858140451935 0.014449831449533497 -0.65969783962989237 -0.35758197931256047 -0.049712644866100171 0.10562567141101159 -0.71137190413554274 -0.39181220530709721
decision_type=2 2 2 2 2 2 2 2
left_child=1 -1 -3 4 -2 6 -5 -7
right_child=3 2 -4 5 -6 7 -8 -9
leaf_value=0.015388489186169422 -0.003745887009926206 -0.039796458384866666 -0.0041989396129703512 0.030898952590963726 0.049471884878354994 0.048566310947483073 -0.010714334663377642 0.0081059730316748856
leaf_count=1465 225 706 9869 193 367 219 1817 1124
internal_value=0 -0.0366729 -0.0682479 0.0723149 0.333777 0.0253794 -0.0731216 0.176322
internal_count=15985 12040 10575 3945 592 3353 2010 1343
shrinkage=0.0870857


Tree=60
num_leaves=9
num_cat=0
split_feature=24 23 2 20 51 58 32 22
split_gain=6.79754 6.711 9.85792 9.33258 10.5958 8.62499 12.1624 11.8137
threshold=3.0675448263593696 0.020627779914000985 0.3944848468610333 0.1175924183556217 0.68106072814089336 -0.23560753709764601 -1.1996864911331317 -0.46555536384193891
decision_type=2 2 2 2 2 2 2 2
left_child=1 2 3 4 -1 7 -7 -3
right_child=-2 5 -4 -5 -6 6 -8 -9
leaf_value=-0.0026493424053899962 -0.029993603831566178 -0.0071331124256161912 -0.020304276058265954 0.01358932389503942 -0.049126769965777049 0.051502424885952532 -0.0052051053252000377 0.018914866606810955
leaf_count=4941 304 1148 1927 1439 224 183 3159 2660
internal_value=0 0.00662302 -0.0436032 -0.00262569 -0.0580266 0.0584238 -0.0262214 0.137275
internal_count=15985 15681 8531 6604 5165 7150 3342 3808
shrinkage=0.0870857


Tree=61
num_leaves=9
num_cat=0
split_feature=3 18 42 17 46 0 20 36
split_gain=6.41409 8.42868 6.96073 7.76708 10.0934 7.79873 7.90511 7.21345
threshold=1.0173990932227375 -0.89425731892514149 1.9289390404934248 -1.8084276943885325 0.18594080966386631 -0.13762286307931682 0.59951971109658653 -0.44955858864602977
decision_type=2 2 2 2 2 2 2 2
left_child=2 -2 3 4 -1 7 -7 -5
right_child=1 -3 -4 5 -6 6 -8 -9
leaf_value=-0 -0.031770465374972467 0.039394543388537831 -0.033693476001863253 -0.007143727098286764 0.06493886686835533 -0.0057773221968107635 0.0048495346267783653 0.040246586723064255
leaf_count=310 180 417 295 197 205 9581 4477 323
internal_value=0 0.285192 -0.00948515 -0.00187868 0.322851 -0.0117857 -0.0238242 0.26193
internal_count=15985 597 15388 15093 515 14578 14058 520
shrinkage=0.0870857


Tree=62
num_leaves=9
num_cat=0
split_feature=27 27 17 27 44 42 9 20
split_gain=6.23049 6.08921 7.10751 6.88026 11.1539 9.38074 7.41306 11.19
threshold=2.5022475145168923 -1.1014015098925773 -0.34984367744902706 -0.22486751277211817 -0.70843332907591039 -0.089625470188158404 0.2314688624221222 0.13146116227650517
decision_type=2 2 2 2 2 2 2 2
left_child=1 2 -1 4 -3 -6 -5 -8
right_child=-2 3 -4 6 5 -7 7 -9
leaf_value=-0 -0.055742293814346609 -0.033870552833659286 -0.043496655105397984 -0.0055665655383171876 0.023960212393244983 0.0012812841684109531 -0.0060804652070860004 0.016031512453053925
leaf_count=598 186 413 662 6739 1513 1665 2161 2048
internal_value=0 0.00280813 -0.218585 0.0136729 0.106132 0.14371 -0.015801 0.0659964
internal_count=15985 15799 1260 14539 3591 3178 10948 4209
shrinkage=0.0870857


Tree=63
num_leaves=9
num_cat=0
split_feature=33 52 36 3 33 15 3 27
split_gain=6.52268 7.11051 7.60389 8.8899 9.41449 7.99403 9.91754 5.46764
threshold=3.7513121493221826 2.2677759028812163 -0.53885982796437903 1.0173990932227375 -0.98324119262482879 -0.63729554302025948 -0.18616004024351471 -0.43242281253312825
decision_type=2 2 2 2 2 2 2 2
left_child=1 2 5 4 -4 7 -7 -1
right_child=-2 -3 3 -5 -6 6 -8 -9
leaf_value=-0.062146212060148392 -0.042614442803765459 0.035179421037336317 0.031584603321242882 0.036894092094986654 -0 0.036102039081333075 -0.008415400217940263 -0.016842366079767652
leaf_count=322 186 183 417 408 11189 214 2415 651
internal_value=0 0.00412388 -0.00235912 0.0249745 0.0134832 -0.110113 -0.0422065 -0.345279
internal_count=15985 15799 15616 12014 11606 3602 2629 973
shrinkage=0.0870857


end of trees

feature importances:
Column_52=50
Column_44=34
Column_22=24
Column_14=19
Column_17=19
Column_40=19
Column_23=17
Column_32=17
Column_33=16
Column_43=16
Column_54=16
Column_8=15
Column_30=15
Column_16=14
Column_12=11
Column_26=11
Column_27=11
Column_2=9
Column_34=9
Column_0=8
Column_3=8
Column_9=8
Column_20=8
Column_51=8
Column_6=7
Column_10=7
Column_18=7
Column_29=7
Column_5=6
Column_7=6
Column_36=6
Column_42=6
Column_55=6
Column_56=6
Column_15=5
Column_41=5
Column_50=5
Column_13=4
Column_25=4
Column_38=4
Column_46=4
Column_48=4
Column_53=4
Column_37=3
Column_45=3
Column_19=2
Column_24=2
Column_28=2
Column_35=2
Column_39=2
Column_47=2
Column_49=2
Column_59=2
Column_21=1
Column_31=1
Column_57=1
Column_58=1

parameters:
[boosting: gbdt]
[objective: binary]
[metric: auc]
[tree_learner: serial]
[device_type: cpu]
[data: ]
[valid: ]
[num_iterations: 100]
[learning_rate: 0.0870857]
[num_leaves: 9]
[num_threads: 0]
[max_depth: 5]
[min_data_in_leaf: 180]
[min_sum_hessian_in_leaf: 0.001]
[bagging_fraction: 0.500984]
[bagging_freq: 0]
[bagging_seed: 3]
[feature_fraction: 0.671546]
[feature_fraction_seed: 2]
[early_stopping_round: 0]
[max_delta_step: 0]
[lambda_l1: 0.939537]
[lambda_l2: 0.500222]
[min_gain_to_split: 0]
[drop_rate: 0.1]
[max_drop: 50]
[skip_drop: 0.5]
[xgboost_dart_mode: 0]
[uniform_drop: 0]
[drop_seed: 4]
[top_rate: 0.2]
[other_rate: 0.1]
[min_data_per_group: 100]
[max_cat_threshold: 32]
[cat_l2: 10]
[cat_smooth: 10]
[max_cat_to_onehot: 4]
[top_k: 20]
[monotone_constraints: ]
[feature_contri: ]
[forcedsplits_filename: ]
[refit_decay_rate: 0.9]
[verbosity: 1]
[max_bin: 255]
[min_data_in_bin: 3]
[bin_construct_sample_cnt: 20000]
[histogram_pool_size: -1]
[data_random_seed: 1]
[output_model: LightGBM_model.txt]
[snapshot_freq: -1]
[input_model: ]
[output_result: LightGBM_predict_result.txt]
[initscore_filename: ]
[valid_data_initscores: ]
[pre_partition: 0]
[enable_bundle: 1]
[max_conflict_rate: 0]
[is_enable_sparse: 1]
[sparse_threshold: 0.8]
[use_missing: 1]
[zero_as_missing: 0]
[two_round: 0]
[save_binary: 0]
[enable_load_from_binary_file: 1]
[header: 0]
[label_column: ]
[weight_column: ]
[group_column: ]
[ignore_column: ]
[categorical_feature: ]
[predict_raw_score: 0]
[predict_leaf_index: 0]
[predict_contrib: 0]
[num_iteration_predict: -1]
[pred_early_stop: 0]
[pred_early_stop_freq: 10]
[pred_early_stop_margin: 10]
[convert_model_language: ]
[convert_model: gbdt_prediction.cpp]
[num_class: 1]
[is_unbalance: 0]
[scale_pos_weight: 1]
[sigmoid: 1]
[boost_from_average: 1]
[reg_sqrt: 0]
[alpha: 0.9]
[fair_c: 1]
[poisson_max_delta_step: 0.7]
[tweedie_variance_power: 1.5]
[max_position: 20]
[label_gain: ]
[metric_freq: 1]
[is_provide_training_metric: 0]
[eval_at: ]
[num_machines: 1]
[local_listen_port: 12400]
[time_out: 120]
[machine_list_filename: ]
[machines: ]
[gpu_platform_id: -1]
[gpu_device_id: -1]
[gpu_use_dp: 0]

end of parameters

pandas_categorical:null
