tree
version=v2
num_class=1
num_tree_per_iteration=1
label_index=0
max_feature_idx=59
objective=binary sigmoid:1
feature_names=Column_0 Column_1 Column_2 Column_3 Column_4 Column_5 Column_6 Column_7 Column_8 Column_9 Column_10 Column_11 Column_12 Column_13 Column_14 Column_15 Column_16 Column_17 Column_18 Column_19 Column_20 Column_21 Column_22 Column_23 Column_24 Column_25 Column_26 Column_27 Column_28 Column_29 Column_30 Column_31 Column_32 Column_33 Column_34 Column_35 Column_36 Column_37 Column_38 Column_39 Column_40 Column_41 Column_42 Column_43 Column_44 Column_45 Column_46 Column_47 Column_48 Column_49 Column_50 Column_51 Column_52 Column_53 Column_54 Column_55 Column_56 Column_57 Column_58 Column_59
feature_infos=[-0.18208244372945337:58.709109372578048] [-3.8002743259820448:30.744823847742932] [-1.4152483482803173:4.1550990777845174] [-16.340786514457704:18.526527922381341] [-3.8395130431764244:30.85915563857867] [-1.4305070801738888:4.2236862691428456] [-20.519339621000306:15.81526623755942] [-3.4121607056205736:31.835575257958894] [-1.7492753604166074:3.9422222159910794] [-1.6121611862582117:8.8640388483094288] [-1.5286802381914908:30.868434662783802] [-1.1403414063909296:7.0478373144533739] [-0.3058826415396278:14.705187073009281] [-1.9384628343782262:34.094332662489023] [-4.2165605966803694:2.7036965266162545] [-1.094205052487391:4.6439244305590019] [-2.014848619215547:33.906420700499439] [-3.8382739217416102:2.7833638870248776] [-3.0253664716834683:4.9814617494507001] [-1.9529517392871973:34.08694367419006] [-4.0270518914828468:2.7063788211506141] [-1.094205052487391:4.6439244305590019] [-1.161066367861294:46.533709175261187] [-2.9923340082475329:4.5262561901106197] [-0.26834790470947911:24.468003737505633] [-2.2166183261424468:30.918702534341783] [-2.106323121277879:5.1369044939593005] [-9.6262162225319639:7.6255183571331049] [-2.2238805181593446:31.004868727250628] [-2.1012411970352129:5.0292721789046961] [-9.8136906685585448:8.2660728366724019] [-2.0826857531821217:32.27048865484106] [-2.4003910140994251:4.8693852647743858] [-1.7041397286536868:18.923240343978737] [-1.5434858504126456:36.810511695383077] [-2.4946307490463462:7.5793570248017614] [-6.572597458636487:11.724523193834926] [-11.784905223793231:14.295635492908653] [-15.841457939688125:14.528761018676319] [-10.442581091262964:11.708327679697204] [-2.1727904910879445:3.9508642876132045] [-7.3533836060049795:14.42140995571963] [-14.924959298175986:26.130572336255092] [-3.6689046282562416:6.1720743598862624] [-7.7952952588255364:15.312580088736953] [-1.9301548640912343:5.4431114281743307] [-3.6075094874298568:10.21671104588877] [-3.0409609872409327:19.058177789052699] [-0.32933509583175791:23.360901927926328] [-0.84049072001541514:30.602425908159134] [-0.50458996760092978:50.661595823998532] [-0.57188521242634494:10.25935537842429] [-1.9196574622742462:2.6535328863825116] [-0.37349797287254477:34.031755552378002] [-0.96618570796031855:48.677164551428746] [-2.114764578927486:5.363876709971569] [-0.32638043384963866:34.188039476801464] [-0.68959230961027174:9.0164128875316969] [-0.86178923191341306:20.829371048879715] [-1.3447844028806999:48.159889494977811]
tree_sizes=804 818 826 796 824 825 830 825 819 823 832 830 824 829 836 823 826 834 828 832 831 810 832 834 835 832 834 834 841 836 834 833 839 838 835 836 839 833 830 836 836 833 840 836 830 752 830 817 831 827 843 834 797 838 816 832 833 840 834 827 816 835 844 833 819 821 826 839 819 836 842 841 832 827 832 838 834 831 834 829 832 842 829 833 843 849 827 838 814 837 841 838 835 792 843 826 828 817 812 841 758 834 825 825 828 835 835 677 837

Tree=0
num_leaves=9
num_cat=0
split_feature=52 34 52 44 34 44 44 52
split_gain=554.8 487.387 201.106 153.279 76.4819 51.5087 47.1737 36.9943
threshold=1.4474683419012653 2.0121658160439968 0.33781723513794276 0.0188942559242701 0.46462832125928977 -0.75415782691843358 -0.43900209652064953 1.9145342330439326
decision_type=2 2 2 2 2 2 2 2
left_child=1 2 3 5 -5 -1 -4 -2
right_child=7 -3 6 4 -6 -7 -8 -9
leaf_value=-1.1942749308094431 -1.0146599454778706 -0.86503260931497283 -1.1192060417967067 -1.1187601205085311 -1.0323002939354553 -1.1475915320723098 -1.0696811706341061 -0.94851913917878772
leaf_count=1379 930 308 1031 4775 450 3435 3057 620
internal_value=0 -0.141189 -0.20446 -0.380601 -0.105221 -0.678225 0.226831 1.31286
internal_count=15985 14435 14127 10039 5225 4814 4088 1550
shrinkage=1


Tree=1
num_leaves=9
num_cat=0
split_feature=40 40 41 14 8 8 8 40
split_gain=428.019 412.428 131.031 109.327 79.8581 76.844 41.016 39.6052
threshold=-1.0992358899040735 2.0655362065199667 -0.67600160916018159 1.1384095435043375 -1.0198241600142537 -0.99381693885081235 -0.95636567964106012 -0.01008429043807086
decision_type=2 2 2 2 2 2 2 2
left_child=6 2 7 4 -4 -3 -1 -2
right_child=1 5 3 -5 -6 -7 -8 -9
leaf_value=0.16175060405357292 -0.03633329165765016 0.2227347776571332 0.02008846657006683 0.055665530504380743 -0.02602699343923846 0.061014958641369507 0.071155345786242552 -0.092391288759955156
leaf_count=225 1028 295 1851 894 8370 201 1946 1175
internal_value=0 -0.154648 -0.235226 -0.133423 -0.201992 1.84491 0.929589 -0.760028
internal_count=15985 13814 13318 11115 10221 496 2171 2203
shrinkage=0.0870857


Tree=2
num_leaves=9
num_cat=0
split_feature=43 54 44 26 55 20 55 56
split_gain=281.702 175.041 142.296 114.5 83.6391 78.5906 47.0152 23.3335
threshold=1.8926490715723232 -0.40331123165663468 -0.82730626479634861 -1.0791371236458434 1.0612478192401664 1.4885925475863051 -0.037313206727951027 0.055381172242162983
decision_type=2 2 2 2 2 2 2 2
left_child=1 6 7 -2 5 -4 -1 -3
right_child=3 2 4 -5 -6 -7 -8 -9
leaf_value=-0.053700117477318288 0.22192336095582224 -0.028825037448463056 0.0022212404722860616 0.056889594608095458 0.055931613145697182 0.088664579848945879 -0.011642263515765501 -0.085497422442795845
leaf_count=3069 242 707 7007 440 1716 441 1752 611
internal_value=0 -0.0691901 0.0963497 1.39055 0.195685 0.0867232 -0.439589 -0.633414
internal_count=15985 15303 10482 682 9164 7448 4821 1318
shrinkage=0.0870857


Tree=3
num_leaves=9
num_cat=0
split_feature=52 40 44 52 54 19 43 43
split_gain=370.474 303.73 113.423 85.4933 76.3237 54.6123 33.3613 32.7837
threshold=0.7645871097596405 2.0655362065199667 -0.45660681861372093 1.5528371676479791 -0.281763838828124 0.31316906583300946 -0.2463597925068893 1.3750776905888185
decision_type=2 2 2 2 2 2 2 2
left_child=1 2 -1 6 -4 -3 -2 -6
right_child=3 5 4 -5 7 -7 -8 -9
leaf_value=-0.062971696846830752 0.0094246779871985983 0.064828330202031312 -0.032005566199429208 0.092672824260159353 0 0.19254999785560553 0.057122062375011398 0.067133689893926179
leaf_count=2694 1333 283 4837 1302 3962 213 1055 306
internal_value=0 -0.20266 -0.285734 0.61656 -0.163768 1.426 0.350758 0.0585868
internal_count=15985 12295 11799 3690 9105 496 2388 4268
shrinkage=0.0870857


Tree=4
num_leaves=9
num_cat=0
split_feature=52 55 44 52 17 29 10 22
split_gain=304.339 246.668 100.778 67.6569 49.1393 55.9716 44.5014 23.3757
threshold=0.7645871097596405 -1.673348564300172 -0.8513677584868965 1.6692095955090258 1.5555772906936123 -0.88388731108498841 1.1873369901585871 -0.26431909897046296
decision_type=2 2 2 2 2 2 2 2
left_child=1 6 -3 7 5 -4 -1 -2
right_child=3 2 4 -5 -6 -7 -8 -9
leaf_value=0.043215992948780216 0.0063987737672350341 -0.077966873349768678 0.0089887397710309586 0.087613386952856906 0.065163616969116461 -0.026854210365413356 0.16474903937513549 0.044887069334390788
leaf_count=198 1013 1389 2289 1054 278 7891 250 1623
internal_value=0 -0.187463 -0.260432 0.549847 -0.184916 -0.212854 1.33652 0.347333
internal_count=15985 12295 11847 3690 10458 10180 448 2636
shrinkage=0.0870857


Tree=5
num_leaves=9
num_cat=0
split_feature=52 34 41 52 54 32 43 43
split_gain=257.167 208.423 86.5274 67.428 64.3487 36.5254 31.8789 30.9524
threshold=0.54966600823417355 1.7213868874082301 -0.67600160916018159 1.5528371676479791 -0.22893270867105051 -1.2562471697710165 -0.28387233751723223 1.5175121155177336
decision_type=2 2 2 2 2 2 2 2
left_child=1 2 -1 6 -4 -3 -2 -6
right_child=3 5 4 -5 7 -7 -8 -9
leaf_value=-0.069191680725531141 0.0030179762238200852 0.17062051637930467 -0.030186363835646979 0.072728493729488058 -0.00098887380542123158 0.052298300960742491 0.041992180594830494 0.065884256533334254
leaf_count=1725 1745 180 5625 1302 3358 185 1588 277
internal_value=0 -0.202209 -0.269996 0.431621 -0.184084 1.3201 0.250012 0.0517773
internal_count=15985 11350 10985 4635 9260 365 3333 3635
shrinkage=0.0870857


Tree=6
num_leaves=9
num_cat=0
split_feature=52 55 44 52 52 22 38 14
split_gain=213.394 181.246 88.5987 53.8539 43.2233 34.4253 32.6924 31.0853
threshold=0.60363935526740786 -1.673348564300172 0.13730971187553251 1.8324327243187823 -0.022045938834219986 0.70411425878244838 -0.72266206452241388 1.3061898750648278
decision_type=2 2 2 2 2 2 2 2
left_child=1 -1 4 6 5 -3 -2 -6
right_child=3 2 -4 -5 7 -7 -8 -9
leaf_value=0.096098585520709032 -0.0092126128635226685 -0.057160394485298083 -0.0016868919007453488 0.079325843386780878 -0.023413358546158228 0.0072069988770140673 0.034554681116472828 0.053583228222801413
leaf_count=448 842 3963 4941 744 1613 382 2797 255
internal_value=0 -0.180595 -0.249736 0.403117 -0.448428 -0.585807 0.282806 -0.141498
internal_count=15985 11602 11154 4383 6213 4345 3639 1868
shrinkage=0.0870857


Tree=7
num_leaves=9
num_cat=0
split_feature=52 40 44 52 23 22 13 32
split_gain=178.581 166.685 83.2452 48.3046 39.0249 36.1528 33.595 32.7944
threshold=0.49306930922344949 2.0655362065199667 -0.085948692762275916 1.5528371676479791 -0.92937850282543744 -0.25309658522065198 0.31252498237379267 -1.3057328389121647
decision_type=2 2 2 2 2 2 2 2
left_child=1 2 4 -2 -1 -4 -3 -7
right_child=3 6 5 -5 -6 7 -8 -9
leaf_value=-0.084802919617848416 0.016944448964028073 0.04036144193020462 -0.022246617594098229 0.058957918158383728 -0.034456413755774823 0.083307410812639093 0.13754984952571098 0.0026855355485258053
leaf_count=991 3585 283 3224 1302 3461 210 213 2716
internal_value=0 -0.180045 -0.254501 0.339502 -0.521202 -0.0816412 0.98153 0.105609
internal_count=15985 11098 10602 4887 4452 6150 496 2926
shrinkage=0.0870857


Tree=8
num_leaves=9
num_cat=0
split_feature=52 32 44 23 13 52 44 43
split_gain=148.615 138.322 77.5506 51.6997 48.165 40.6895 36.3789 30.543
threshold=0.49306930922344949 -1.4947798266633423 -0.8513677584868965 0.11407706086399852 -0.087033549067954671 1.8706356012903402 0.0188942559242701 1.2297339440023791
decision_type=2 2 2 2 2 2 2 2
left_child=1 4 -3 6 -1 -2 -4 -5
right_child=5 2 3 7 -6 -7 -8 -9
leaf_value=0.025895853614144312 0.018956840672716233 -0.074848735334267461 -0.047033419087769514 -0.0017338886589471198 0.1509700234534477 0.066840819595513232 -0.013144203282213633 0.052698083734714463
leaf_count=264 4205 1278 2340 2809 199 682 3751 457
internal_value=0 -0.166611 -0.22945 -0.160665 0.990622 0.30678 -0.292194 0.07851
internal_count=15985 11098 10635 9357 463 4887 6091 3266
shrinkage=0.0870857


Tree=9
num_leaves=9
num_cat=0
split_feature=52 43 52 29 32 14 37 8
split_gain=124.392 119.883 78.3169 63.5057 48.1469 37.1902 34.8306 27.9011
threshold=1.0620898107870553 1.5175121155177336 -0.61721067206528113 -0.92855928801043852 -0.86150232212884259 1.4600500328773516 -1.1122444654718904 -0.95636567964106012
decision_type=2 2 2 2 2 2 2 2
left_child=1 2 6 -3 -4 -6 -1 -2
right_child=7 3 4 -5 5 -7 -8 -9
leaf_value=0.0036559157742214027 0.093286882518531317 0.11680988502646082 0.031078711314764359 0.015985349215126569 -0.01557754729521578 0.041769026010503779 -0.04843841861434741 0.029153101491205497
leaf_count=638 254 321 1323 656 6375 493 3560 2365
internal_value=0 -0.105527 -0.176517 0.620946 -0.0435428 -0.127263 -0.455288 0.411358
internal_count=15985 13366 12389 977 8191 6868 4198 2619
shrinkage=0.0870857


Tree=10
num_leaves=9
num_cat=0
split_feature=22 32 44 54 44 14 54 14
split_gain=94.7586 95.2808 45.8118 45.6722 38.6804 35.5045 34.804 22.2768
threshold=-0.25604833354625184 -1.3057328389121647 -0.65315703899693123 -0.49029287338385247 -0.44861397036672246 1.3697274789553233 -0.37980521117857696 0.60500814517026513
decision_type=2 2 2 2 2 2 2 2
left_child=2 -2 -1 -3 5 -5 -4 -6
right_child=1 3 6 4 7 -7 -8 -9
leaf_value=-0.058837039829693648 0.097516482415012165 -0.025783620547341422 -0.032141244885050511 -0.02934661808428126 0.013629881468557096 0.046457833461586176 4.6417801823039774e-05 0.041497565914478014
leaf_count=1205 439 1496 2330 1321 3388 317 3820 1669
internal_value=0 0.159889 -0.203765 0.0973737 0.174351 -0.151517 -0.127343 0.267796
internal_count=15985 8630 7355 8191 6695 1638 6150 5057
shrinkage=0.0870857


Tree=11
num_leaves=9
num_cat=0
split_feature=52 34 41 22 52 26 16 41
split_gain=105.13 96.5509 57.833 40.5121 33.3217 26.1013 24.1794 20.6135
threshold=0.33781723513794276 2.0121658160439968 -0.92600054685306998 -0.25604833354625184 1.5528371676479791 -0.88572970419311081 0.010779225152532436 -1.010060415078804
decision_type=2 2 2 2 2 2 2 2
left_child=1 2 -1 -4 6 -5 7 -2
right_child=4 -3 3 5 -6 -7 -8 -9
leaf_value=-0.072635538459755927 -0.05380137397647905 0.085229868638107303 -0.02806563325358875 0.031436219165862478 0.044582691815646544 -0.0076111424715825824 0.032937162577968145 0.0060181942155662291
leaf_count=1087 269 303 4386 834 1302 3732 1329 2743
internal_value=0 -0.158631 -0.208073 -0.151375 0.230175 0.00325562 0.126623 0.0123785
internal_count=15985 10342 10039 8952 5643 4566 4341 3012
shrinkage=0.0870857


Tree=12
num_leaves=9
num_cat=0
split_feature=32 40 22 40 40 12 13 38
split_gain=78.8045 96.1452 53.9855 38.4417 28.5747 27.9936 27.2638 27.1821
threshold=-1.4947798266633423 -0.2016089203401957 0.182718591406932 1.0075910838234583 -1.1441969544435071 -0.28310366330402997 -0.073410289760560479 0.38442795249630946
decision_type=2 2 2 2 2 2 2 2
left_child=6 4 3 7 -2 -4 -1 -3
right_child=1 2 5 -5 -6 -7 -8 -9
leaf_value=0.0317265922459175 0.030833482571701157 -0.034334139961265372 -0.029042813973541474 -0.063341785005805645 0.0042205536157897475 0.025280666578358698 0.12365674507118697 -0.0013507421032027738
leaf_count=295 1967 3133 589 1417 5166 1358 209 1851
internal_value=0 -0.0344508 -0.225012 -0.342987 0.147313 0.110832 0.845549 -0.241
internal_count=15985 15481 8348 6401 7133 1947 504 4984
shrinkage=0.0870857


Tree=13
num_leaves=9
num_cat=0
split_feature=44 16 23 14 8 29 44 33
split_gain=74.8841 61.927 53.0584 41.1061 37.9341 33.3997 32.2304 19.417
threshold=-1.2539476630951973 0.096727588105746387 -0.96689641035369667 1.4600500328773516 -0.95636567964106012 -1.1238318886756733 0.29068998480723662 -0.095851343181675361
decision_type=2 2 2 2 2 2 2 2
left_child=-1 2 6 4 -4 -3 -2 -5
right_child=1 5 3 7 -6 -7 -8 -9
leaf_value=-0.069197568575163237 -0.056331894438875131 0.11679254179570983 0.027228349473716777 0.01307080968400305 -0.004532565549968553 0.029578338099225703 -0.0044019500236703859 0.081012049903231756
leaf_count=896 1242 191 1733 301 9338 980 953 351
internal_value=0 0.0308391 -0.013905 0.0458672 0.00953006 0.529688 -0.363462 0.578082
internal_count=15985 15089 13918 11723 11071 1171 2195 652
shrinkage=0.0870857


Tree=14
num_leaves=9
num_cat=0
split_feature=30 32 40 6 22 26 19 38
split_gain=69.5958 59.0878 55.0938 43.3317 35.666 22.6602 21.9033 16.6088
threshold=-0.872079314820419 -1.4947798266633423 -0.97937883836856265 0.01470095465713085 -0.41653021580327992 -0.068490163430096798 -0.073170863634653402 -0.062341440097400246
decision_type=2 2 2 2 2 2 2 2
left_child=5 6 7 -4 -5 -1 -2 -3
right_child=1 2 3 4 -6 -7 -8 -9
leaf_value=-0.020244222172416691 0.030435892285572412 0.010564978361841889 0.031715939129151591 -0.034042577081149897 -0.0036069431949651235 -0.074438191822889119 0.11631903902371182 0.040134858758021114
leaf_count=858 264 1426 1150 2385 7675 805 204 1218
internal_value=0 0.0461317 0.0160236 -0.0663366 -0.119149 -0.507116 0.807941 0.281233
internal_count=15985 14322 13854 11210 10060 1663 468 2644
shrinkage=0.0870857


Tree=15
num_leaves=9
num_cat=0
split_feature=52 22 8 32 52 14 41 23
split_gain=67.8423 75.8045 42.6258 41.9405 29.1309 26.5942 28.528 21.6796
threshold=0.010871996127997711 0.51731835270694371 -0.31139106797902155 -1.183402001990822 2.1965002239303231 1.5122272189336294 -0.42940144046813505 -0.9497867401324992
decision_type=2 2 2 2 2 2 2 2
left_child=1 2 -1 -3 5 6 -2 -4
right_child=4 3 7 -5 -6 -7 -8 -9
leaf_value=-0.0088315343334515999 -0.016115300025075913 0.091356852103096728 -0.078195440941578542 0.0081721479842673354 0.07152878724284091 0.050913201038567064 0.013821487496819468 -0.033178914321566798
leaf_count=3603 1709 281 900 1082 248 524 4989 2649
internal_value=0 -0.162995 -0.278387 0.318575 0.1459 0.115934 0.0751225 -0.499939
internal_count=15985 8515 7152 1363 7470 7222 6698 3549
shrinkage=0.0870857


Tree=16
num_leaves=9
num_cat=0
split_feature=44 54 22 20 26 56 52 23
split_gain=59.7299 51.2061 42.3611 31.6335 32.297 20.2032 16.0797 13.606
threshold=-1.2539476630951973 -0.50061895412647683 -0.41653021580327992 1.8549899402886327 -1.3504094487263822 0.30573062021627168 0.60363935526740786 -0.98318009282612551
decision_type=2 2 2 2 2 2 2 2
left_child=-1 6 5 4 -4 7 -2 -3
right_child=1 2 3 -5 -6 -7 -8 -9
leaf_value=-0.064572301138369023 -0.03101548568560605 -0.052358992807824419 0.069565923363609602 0.082206177880349507 0.0092669629801783449 0.04184744819867519 0.020959730713971902 -0.012898698585806504
leaf_count=896 2636 520 337 229 8848 219 238 2062
internal_value=0 0.0265274 0.0865123 0.158093 0.134972 -0.171193 -0.286979 -0.234162
internal_count=15985 15089 12215 9414 9185 2801 2874 2582
shrinkage=0.0870857


Tree=17
num_leaves=9
num_cat=0
split_feature=30 16 40 44 6 40 32 2
split_gain=54.0734 43.3715 42.7586 38.4031 37.1602 26.7535 20.7613 15.0543
threshold=-0.99957897143093977 0.096727588105746387 -1.0215421773733955 -1.2539476630951973 0.01470095465713085 1.8480440673317873 -0.4254946047618357 -0.90452849628789356
decision_type=2 2 2 2 2 2 2 2
left_child=6 2 7 -4 -5 -3 -1 -2
right_child=1 5 3 4 -6 -7 -8 -9
leaf_value=-0.0089910265963151458 0.064125133048709482 0.024828403718582977 -0.073014389001159169 0.031140772931266974 -0.0086400220669892343 0.10391325233616477 -0.067948918644085199 0.015963123098579116
leaf_count=482 235 978 581 1069 9376 199 926 2139
internal_value=0 0.0358565 -0.00307113 -0.0756041 -0.0479713 0.454809 -0.508139 0.242597
internal_count=15985 14577 13400 11026 10445 1177 1408 2374
shrinkage=0.0870857


Tree=18
num_leaves=9
num_cat=0
split_feature=52 43 41 22 52 52 16 23
split_gain=49.4564 49.0339 34.657 28.2039 25.1396 20.5725 21.6013 19.1694
threshold=0.32413268478444074 1.1824795649958186 -0.92600054685306998 2.4967262199957507 -0.78469403034215646 2.1965002239303231 0.0062591657844431247 -1.2891740950350388
decision_type=2 2 2 2 2 2 2 2
left_child=1 2 -1 -3 7 6 -2 -4
right_child=5 3 4 -5 -6 -7 -8 -9
leaf_value=-0.066193965420643958 0.0020331825220204617 0.012154318870013862 -0.070809941540642587 0.09224911272577227 -0.0041830756466390614 0.062404822193430319 0.027813886882289491 -0.021042244610343583
leaf_count=1006 3700 1039 519 198 5410 248 1758 2107
internal_value=0 -0.115304 -0.187257 0.304547 -0.142605 0.152733 0.120936 -0.35153
internal_count=15985 10279 9042 1237 8036 5706 5458 2626
shrinkage=0.0870857


Tree=19
num_leaves=9
num_cat=0
split_feature=44 52 34 52 12 6 34 14
split_gain=44.0184 34.3691 37.3059 29.9544 27.5324 26.1666 15.7534 15.2723
threshold=-0.45660681861372093 0.60363935526740786 0.51646440576498642 -0.24028148523430262 -0.28310366330402997 0.01470095465713085 0.48019870472372794 1.3061898750648278
decision_type=2 2 2 2 2 2 2 2
left_child=3 2 5 -1 -4 -2 7 -5
right_child=1 -3 4 6 -6 -7 -8 -9
leaf_value=-0.051697925219537727 0.023956736420847103 0.020525768190448421 -0.024398607645839829 -0.025544842193546129 0.050138251766411783 -0.012324829005566449 0.040240403942913415 0.020591582604218887
leaf_count=1634 946 3316 270 1376 784 7030 264 365
internal_value=0 0.0584642 -0.0260459 -0.261918 0.371355 -0.0873498 -0.0871227 -0.170707
internal_count=15985 12346 9030 3639 1054 7976 2005 1741
shrinkage=0.0870857


Tree=20
num_leaves=9
num_cat=0
split_feature=27 32 52 6 23 32 13 38
split_gain=41.6218 36.146 35.1643 29.3724 25.4586 14.372 13.6486 11.7645
threshold=-1.0554127306063412 -1.4947798266633423 1.4474683419012653 -1.1407069352765116 -1.2209294447641053 0.10601638931467719 -0.073410289760560479 -0.033918275570054328
decision_type=2 2 2 2 2 2 2 2
left_child=5 6 3 -3 -5 -1 -2 -4
right_child=1 2 7 4 -6 -7 -8 -9
leaf_value=-0.021316105520284838 0.024970509946895411 0.044601444880720813 0.011362648121936226 -0.038813304512695955 -0.0029413360732115164 -0.075260479199319871 0.095175673223503371 0.043448046361320727
leaf_count=731 269 498 888 1147 11004 592 206 650
internal_value=0 0.0295167 0.00647502 -0.0419395 -0.066782 -0.477699 0.636527 0.291192
internal_count=15985 14662 14187 12649 12151 1323 475 1538
shrinkage=0.0870857


Tree=21
num_leaves=9
num_cat=0
split_feature=44 14 33 44 54 33 42 51
split_gain=38.9473 33.3728 37.9448 25.9928 24.848 18.6011 16.0595 13.1248
threshold=-1.3077221607193594 1.3697274789553233 -1.0007551696041721 -0.34941674113427329 -0.29608885286966308 -0.4454705546066457 -0.67334362058606489 -0.36892644368049959
decision_type=2 2 2 2 2 2 2 2
left_child=-1 2 6 -4 -5 -3 -2 -8
right_child=1 5 3 4 -6 -7 7 -9
leaf_value=-0.059062429111518822 -0 -0.011624005391991429 -0.021757890196931935 -0.010317939723309855 0.009736053209706717 0.048899272427559239 0.030496580388850222 0.10435830237560072
leaf_count=832 195 225 3103 4985 5451 780 211 203
internal_value=0 0.0190147 -0.012915 -0.0407978 0.0110028 0.400664 0.538505 0.783148
internal_count=15985 15153 14148 13539 10436 1005 609 414
shrinkage=0.0870857


Tree=22
num_leaves=9
num_cat=0
split_feature=22 20 18 20 44 2 54 40
split_gain=39.1073 28.0054 28.5435 26.8009 24.4744 24.2697 21.6875 15.9635
threshold=-0.43436561728889428 -2.0791349293642161 -0.054504922571390974 1.513952702060374 -0.31484661492185534 1.052549543837114 -0.46986038574594247 -1.5685391267259921
decision_type=2 2 2 2 2 2 2 2
left_child=4 -2 6 5 -1 -4 -3 -8
right_child=1 2 3 -5 -6 -7 7 -9
leaf_value=-0.054605209781353727 0.079261244664600411 -0.02953997531342482 0.013943017363167573 0.053675252811982738 -0.010637613361869963 -0.027004274422717689 0.049434275474371452 -0.0027264472328500525
leaf_count=1033 207 1660 4701 527 2542 816 189 4310
internal_value=0 0.0580741 0.0427969 0.154405 -0.236984 0.101287 -0.0739623 0.00178344
internal_count=15985 12410 12203 6044 3575 5517 6159 4499
shrinkage=0.0870857


Tree=23
num_leaves=9
num_cat=0
split_feature=22 40 26 18 20 58 20 40
split_gain=34.1418 31.4054 29.7585 38.6547 22.6866 18.2549 14.5519 14.492
threshold=-0.15108192489296887 0.31286414584461841 -0.95054719846114155 -0.073960748168609286 -0.87324778690950466 -0.052408573517206174 0.88839402997628303 -1.6703070244357894
decision_type=2 2 2 2 2 2 2 2
left_child=1 4 -2 -4 -1 6 -5 -6
right_child=2 -3 3 5 7 -7 -8 -9
leaf_value=0.030975344743318686 0.044856407697918023 -0.028979316274473518 -0.014103979034395368 0.020480116064604016 0.032463237678079397 0.0046865886210279159 0.062020452885872643 -0.0091254257397251713
leaf_count=802 829 3189 2632 1138 272 1776 491 4856
internal_value=0 -0.10315 0.119435 0.0589923 -0.0116215 0.217431 0.394613 -0.0693006
internal_count=15985 9119 6866 6037 5930 3405 1629 5128
shrinkage=0.0870857


Tree=24
num_leaves=9
num_cat=0
split_feature=30 22 40 32 18 24 29 40
split_gain=31.7729 26.2907 23.0169 21.5142 28.2086 20.0636 17.996 14.0424
threshold=-0.99957897143093977 -0.25604833354625184 0.94748213394862979 -1.3057328389121647 -0.054504922571390974 1.3773931227787124 -0.058521212845467956 -1.5127517294467261
decision_type=2 2 2 2 2 2 2 2
left_child=6 2 7 -3 -5 -6 -1 -2
right_child=1 3 -4 4 5 -7 -8 -9
leaf_value=-0.012967284163398369 0.028702437561276207 0.053063119823170461 -0.047736026007566601 -0.0065656654583481537 0.021632968892388006 -0.036467303602424499 -0.071432003568922153 -0.0071588750256884335
leaf_count=734 366 417 804 3497 3895 227 674 5371
internal_value=0 0.0265219 -0.0909354 0.112731 0.082956 0.207974 -0.411773 -0.0437667
internal_count=15985 14577 6541 8036 7619 4122 1408 5737
shrinkage=0.0870857


Tree=25
num_leaves=9
num_cat=0
split_feature=44 12 22 17 49 32 33 54
split_gain=32.463 27.0123 27.5924 21.4989 21.2124 20.4146 20.3035 15.8094
threshold=-1.7791853225779031 -0.27322089670882721 -0.3648586360634844 1.2533871760615647 -0.28237926890729226 -1.2005027575396159 -0.28164532733525022 -0.24522219211762233
decision_type=2 2 2 2 2 2 2 2
left_child=-1 4 -3 5 -2 -4 -5 -6
right_child=1 2 3 6 7 -7 -8 -9
leaf_value=-0.081778039136179467 -0.023911737930016917 -0.010336885367269733 0.052269852673585575 0.00027420687594549743 -0.012601311755825044 0.0067043238060111457 0.067550503950781729 0.013122058525912094
leaf_count=448 2899 2517 428 260 2271 4816 497 1849
internal_value=0 0.0110151 0.0976369 0.179377 -0.103344 0.122258 0.521405 0.00117803
internal_count=15985 15537 8518 6001 7019 5244 757 4120
shrinkage=0.0870857


Tree=26
num_leaves=9
num_cat=0
split_feature=44 27 33 22 21 55 17 38
split_gain=29.0925 25.3019 22.9912 23.6442 15.8898 12.7112 10.3006 9.25449
threshold=-1.7791853225779031 -1.0554127306063412 -1.0007551696041721 -0.4983789369858394 -0.74846821570641531 0.38566962680652889 -1.3964474418354429 0.15880263889959076
decision_type=2 2 2 2 2 2 2 2
left_child=-1 7 6 5 -5 -4 -3 -2
right_child=1 2 3 4 -6 -7 -8 -9
leaf_value=-0.079992249130103957 -0.053253520630080278 0.077405347376102246 -0.040947687294050378 -0.029197914279029891 0.0058712929166051643 -0.0025239363469872836 0.019881444518707686 -0.0083276377176996399
leaf_count=448 792 212 1024 639 11377 708 358 427
internal_value=0 0.0100518 0.0338152 0.013274 0.0482006 -0.264177 0.477893 -0.386006
internal_count=15985 15537 14318 13748 12016 1732 570 1219
shrinkage=0.0870857


Tree=27
num_leaves=9
num_cat=0
split_feature=23 8 0 32 52 44 52 18
split_gain=30.8929 23.5202 21.9717 20.8241 21.0315 21.135 17.4342 9.54116
threshold=-0.96689641035369667 -0.22794130019830103 -0.13143736413053578 -1.4947798266633423 1.5528371676479791 -1.2539476630951973 -0.72833738079797139 -0.34975140733128657
decision_type=2 2 2 2 2 2 2 2
left_child=1 6 7 -4 5 -5 -1 -2
right_child=2 -3 3 4 -6 -7 -8 -9
leaf_value=-0.034200623987002937 0.010565104022073049 -0.051890386254407554 0.057743355860341967 -0.05621703088231865 0.022816753662464325 -0.0009312143455719958 0.013656491347261511 0.075601334321615615
leaf_count=660 180 1210 266 579 1164 10973 727 226
internal_value=0 -0.269113 0.0404067 0.0222736 0.00772249 -0.0286145 -0.0708119 0.562673
internal_count=15985 2597 13388 12982 12716 11552 1387 406
shrinkage=0.0870857


Tree=28
num_leaves=9
num_cat=0
split_feature=23 44 32 20 19 33 54 55
split_gain=26.1818 19.6388 19.2517 23.0675 20.9306 19.9231 29.6222 14.2087
threshold=-0.96689641035369667 0.29068998480723662 -0.86150232212884259 0.02493548131365397 1.0000000180025095e-35 -0.20375131723314013 0.31217879604650284 1.2479748505344459
decision_type=2 2 2 2 2 2 2 2
left_child=1 -1 4 -4 7 -5 -7 -2
right_child=2 -3 3 5 -6 6 -8 -9
leaf_value=-0.041681513650541666 0.00047715014108674556 -0.00093727327284907208 -0.01325505921638432 -0.0050794164866286599 0.05316407891447647 0.027848570329814245 -0.012653171073478643 0.054473605308800598
leaf_count=1587 1441 1010 4300 3167 572 2699 1017 192
internal_value=0 -0.24987 0.0369195 -0.00423492 0.231496 0.0750773 0.191759 0.0953433
internal_count=15985 2597 13388 11183 2205 6883 3716 1633
shrinkage=0.0870857


Tree=29
num_leaves=9
num_cat=0
split_feature=16 40 25 2 40 40 26 33
split_gain=21.34 23.0291 18.5632 22.4987 18.3408 13.6064 13.3881 16.6725
threshold=0.096727588105746387 0.28011956026101953 -0.068101705670129034 0.86694578487225715 1.8480440673317873 1.0506375929343112 -0.8172278134223484 -0.20375131723314013
decision_type=2 2 2 2 2 2 2 2
left_child=1 6 -3 5 -2 -4 -1 -8
right_child=4 2 3 -5 -6 -7 7 -9
leaf_value=0.020083141983074825 0.014423501540268453 0.0063222695894318195 -0.0081853980891492938 -0.078345252973658297 0.084542052620224503 -0.041386642615552499 -0.009785980050406682 0.0085897203799987065
leaf_count=1441 1037 1234 2247 659 203 1053 3965 4146
internal_value=0 -0.0280565 -0.178015 -0.278523 0.291369 -0.205783 0.0327134 -0.00461726
internal_count=15985 14745 5193 3959 1240 3300 9552 8111
shrinkage=0.0870857


Tree=30
num_leaves=9
num_cat=0
split_feature=12 52 22 14 41 12 40 32
split_gain=21.2016 25.4271 21.8939 19.8526 19.1065 15.7316 15.6021 11.0197
threshold=-0.27322089670882721 -0.8082563752705817 0.70411425878244838 0.9739867948100166 -0.42940144046813505 1.1753459950306053 -0.93422632789241933 -0.54375323394690034
decision_type=2 2 2 2 2 2 2 2
left_child=1 7 3 5 -3 6 -2 -1
right_child=2 4 -4 -5 -6 -7 -8 -9
leaf_value=-0.015473843599909982 0.0196756427362808 -0.027230352994401141 0.034499824447925584 0.022275237812384906 0.0040529231666089193 -0.03325444539333397 -0.005752922979093026 -0.053114416969862528
leaf_count=889 1074 1259 981 1571 4009 605 4421 1176
internal_value=0 -0.102962 0.0749443 0.0304699 -0.0245581 -0.0329529 0.00825596 -0.383626
internal_count=15985 7333 8652 7671 5268 6100 5495 2065
shrinkage=0.0870857


Tree=31
num_leaves=9
num_cat=0
split_feature=44 22 20 14 44 52 30 55
split_gain=21.7471 17.3928 17.2446 16.0167 15.6106 15.0085 9.73275 7.63655
threshold=-1.7791853225779031 -0.43436561728889428 1.9133289002274501 -2.2523860777338611 0.18707024597522984 1.5528371676479791 0.12503134655485432 0.24374332061380294
decision_type=2 2 2 2 2 2 2 2
left_child=-1 4 3 -3 7 -5 -6 -2
right_child=1 2 -4 5 6 -7 -8 -9
leaf_value=-0.075496395157072071 -0.0469469934592157 0.067585922894123865 0.056771118373298693 -0.00065411215995455003 0.013575491400532956 0.021928037358703016 -0.019869054686867501 -0.01468830813513973
leaf_count=448 1011 180 207 10722 964 1031 634 788
internal_value=0 0.00780555 0.0474012 0.0338085 -0.155841 0.0232105 0.00355064 -0.339876
internal_count=15985 15537 12140 11933 3397 11753 1598 1799
shrinkage=0.0870857


Tree=32
num_leaves=9
num_cat=0
split_feature=44 27 33 14 23 51 26 12
split_gain=19.4542 16.7447 17.0822 19.4951 17.2341 12.3297 10.1525 9.45329
threshold=-1.7791853225779031 -1.0554127306063412 -0.92978791388868176 1.2370403505246357 -0.96689641035369667 -0.36428119673929626 -0.068490163430096798 -0.25836149265518299
decision_type=2 2 2 2 2 2 2 2
left_child=-1 6 5 4 -4 -3 -2 -5
right_child=1 2 3 7 -6 -7 -8 -9
leaf_value=-0.073689201636253282 -0.010415831465038144 0.0058081494742587498 -0.024423765608841706 0.00040792236501290284 0.00030391677351794603 0.05532481436578545 -0.060848623203690021 0.033910573232905951
leaf_count=448 669 438 1666 531 10445 395 550 843
internal_value=0 0.00708131 0.0260449 0.00440917 -0.0285034 0.34125 -0.326046 0.249366
internal_count=15985 15537 14318 13485 12111 833 1219 1374
shrinkage=0.0870857


Tree=33
num_leaves=9
num_cat=0
split_feature=17 52 0 25 30 33 15 26
split_gain=16.2067 21.7108 18.6606 16.8079 14.3833 13.5815 17.5015 13.3306
threshold=-1.7884930423884515 -0.49698291438963821 -0.13143736413053578 -0.11472947018252275 -0.010065769040784279 -0.20375131723314013 0.51383931051313192 0.86714060997419495
decision_type=2 2 2 2 2 2 2 2
left_child=4 3 -3 -2 -1 -4 -7 -5
right_child=1 2 5 7 -6 6 -8 -9
leaf_value=0.061856856905560906 0.012619818849597239 0.050899224269365065 -0.0054664159007430354 -0.017030584651761271 -0.0088726925994310653 0.019631793979496971 -0.0044718132523821072 -0.064942211633739977
leaf_count=378 738 292 5143 3555 198 2948 2047 686
internal_value=0 -0.0156449 0.0375964 -0.170002 0.415236 0.0195476 0.106623 -0.248166
internal_count=15985 15409 10430 4979 576 10138 4995 4241
shrinkage=0.0870857


Tree=34
num_leaves=9
num_cat=0
split_feature=23 2 52 16 3 44 43 25
split_gain=16.9167 16.2363 14.7835 16.2321 17.6436 14.7914 11.7674 10.7809
threshold=-1.2891740950350388 -0.86920736634410478 2.1965002239303231 0.096727588105746387 -0.12292058728542243 -1.3077221607193594 0.13839050721972052 0.067667225469633732
decision_type=2 2 2 2 2 2 2 2
left_child=1 6 3 4 -2 -6 -1 -5
right_child=2 -3 -4 7 5 -7 -8 -9
leaf_value=0.040264443675774989 0.024972234471359916 -0.047238871667625151 0.045062120667100823 0.036996635992514439 -0.05462502818970838 -0.0026612915235507024 -0.032202916928386886 -0.0036321442924995414
leaf_count=200 953 1015 235 803 524 11705 185 365
internal_value=0 -0.302043 0.0194212 0.00733164 -0.0172406 -0.0431918 0.0730137 0.269789
internal_count=15985 1400 14585 14350 13182 12229 385 1168
shrinkage=0.0870857


Tree=35
num_leaves=9
num_cat=0
split_feature=44 36 34 54 9 6 41 52
split_gain=15.5506 14.9719 14.9856 13.0608 13.2921 10.6226 10.9624 10.3435
threshold=-1.7791853225779031 -0.50908530132680396 0.60046763037214113 -0.54379259119098922 0.23688095702399664 -1.2562617526289237 1.4803955790581491 -0.50699898913470587
decision_type=2 2 2 2 2 2 2 2
left_child=-1 5 3 -3 -5 -2 7 -7
right_child=1 2 -4 4 -6 6 -8 -9
leaf_value=-0.070106852203875886 0.034279106075822789 -0.020777119561653609 0.027629134618989484 -0.0012503310351606393 0.015081141498949976 -0.033734905584021049 0.030019911752690615 -0.0083059425328653701
leaf_count=448 229 1351 1043 6055 3183 1468 192 2016
internal_value=0 0.00584358 0.047463 0.0198734 0.0472702 -0.128836 -0.161754 -0.198582
internal_count=15985 15537 11632 10589 9238 3905 3676 3484
shrinkage=0.0870857


Tree=36
num_leaves=9
num_cat=0
split_feature=44 22 14 11 12 13 18 51
split_gain=15.1715 18.4698 15.7024 12.0914 16.0401 10.4533 11.5927 12.0991
threshold=0.12447047152052683 -0.43436561728889428 1.8529908063966676 -0.4448919519037226 -0.27322089670882721 -0.098231591472486793 0.092228458316996789 1.1449521286496502
decision_type=2 2 2 2 2 2 2 2
left_child=1 -1 3 -3 -5 -2 -7 -8
right_child=5 2 -4 4 -6 6 7 -9
leaf_value=-0.029476462160820064 -0.00060596733025074755 -0.024995237742061346 0.046983400941642404 -0.013535365927191532 0.0094130385824572008 0.005010090186153982 0.03979159318029913 -0.0070415094179072397
leaf_count=1832 3804 1038 222 2727 3175 2010 943 234
internal_value=0 -0.0739496 -0.0229061 -0.0474215 -0.00154015 0.075907 0.170699 0.342285
internal_count=15985 8994 7162 6940 5902 6991 3187 1177
shrinkage=0.0870857


Tree=37
num_leaves=9
num_cat=0
split_feature=17 27 6 0 27 45 16 58
split_gain=13.6934 15.1608 14.4057 13.1835 12.008 12.6371 11.8233 10.7719
threshold=-1.7884930423884515 -1.0554127306063412 -1.1407069352765116 -0.13143736413053578 0.020274937306661595 -0.30309756733625259 -0.047513304771505262 -0.29050567271268929
decision_type=2 2 2 2 2 2 2 2
left_child=4 -2 7 -4 5 -1 -5 -3
right_child=1 2 3 6 -6 -7 -8 -9
leaf_value=0.014289813759313038 -0.029866677076190857 0.059351118093533425 0.032221030604831218 -0.0097603365994959421 -0.0089716935619603144 0.098742292348792518 0.0028870459384579151 0.0019268296158018205
leaf_count=204 1268 280 444 5729 192 180 7422 266
internal_value=0 -0.0144504 0.0028477 -0.0128335 0.383462 0.64695 -0.0276886 0.364886
internal_count=15985 15409 14141 13595 576 384 13151 546
shrinkage=0.0870857


Tree=38
num_leaves=9
num_cat=0
split_feature=52 44 16 40 3 30 48 26
split_gain=14.129 16.8918 12.7127 14.1274 12.131 12.639 11.8993 8.75801
threshold=1.4474683419012653 -0.82730626479634861 0.096727588105746387 1.8480440673317873 0.004362005597861718 0.44097597366572799 -0.30392111500554314 0.46283638835088037
decision_type=2 2 2 2 2 2 2 2
left_child=1 -1 4 7 5 -3 -6 -4
right_child=-2 2 3 -5 6 -7 -8 -9
leaf_value=-0.030503560767958855 0.015602681505607775 0.030879331287430454 -0.0015321504755515538 0.076134293795197677 -0.021410305359097739 -0.026302247718170874 -0.001790710550554584 0.043825030448573214
leaf_count=1683 1550 743 618 199 1772 180 9029 211
internal_value=0 -0.0301385 -0.00697314 0.238734 -0.0311786 0.217976 -0.056077 0.11438
internal_count=15985 14435 12752 1028 11724 923 10801 829
shrinkage=0.0870857


Tree=39
num_leaves=9
num_cat=0
split_feature=23 8 0 52 52 44 50 32
split_gain=13.1207 14.0114 12.0965 11.7421 10.3076 11.8202 9.95239 9.62944
threshold=-0.96689641035369667 -0.22794130019830103 -0.13143736413053578 -0.72833738079797139 1.6692095955090258 -1.2539476630951973 0.10979741905377431 -1.4947798266633423
decision_type=2 2 2 2 2 2 2 2
left_child=1 3 6 -1 5 -4 -2 -7
right_child=2 -3 4 -5 -6 7 -8 -9
leaf_value=-0.027434248551272734 0.069654671675025565 -0.040362585216923937 -0.044974043524290692 0.013029815264053916 0.018432727593671802 0.039938922306449035 0.0056296525476446672 -0.00084412634995828279
leaf_count=660 190 1210 584 727 942 262 216 11194
internal_value=0 -0.183961 0.025602 -0.0325459 0.0116812 -0.0106107 0.407601 0.000384135
internal_count=15985 2597 13388 1387 12982 12040 406 11456
shrinkage=0.0870857


Tree=40
num_leaves=9
num_cat=0
split_feature=12 43 37 52 51 16 30 9
split_gain=12.3421 15.688 19.0993 14.5186 13.5135 12.8203 14.6667 11.9192
threshold=-0.28310366330402997 0.64592189476863549 0.48144737091062945 -0.8193711757370491 0.94041784360985214 -0.010780023249473683 -0.11745044512396541 0.22716456722924874
decision_type=2 2 2 2 2 2 2 2
left_child=3 7 5 -1 -5 -3 -7 -2
right_child=1 2 -4 4 -6 6 -8 -9
leaf_value=-0.031086555221990924 -0.0067109354601421999 0.0072819032838980858 -0.0082979340193479294 0.00028776358606376725 -0.052450756430397309 0.080033462379789935 0.026090724096737104 0.0096820626033387782
leaf_count=1611 4951 630 756 3584 213 360 634 3246
internal_value=0 0.0441099 0.211403 -0.102864 -0.0317586 0.353896 0.521214 -0.00562059
internal_count=15985 10577 2380 5408 3797 1624 994 8197
shrinkage=0.0870857


Tree=41
num_leaves=9
num_cat=0
split_feature=52 36 14 2 33 46 46 33
split_gain=12.3293 12.6727 11.4016 15.4729 12.2549 10.5513 12.8981 10.3905
threshold=2.254786507281906 -0.70369900691339449 1.3697274789553233 1.1099817651560042 -1.0007551696041721 -0.69518167177799739 -0.38999519012605866 -0.45585978139068883
decision_type=2 2 2 2 2 2 2 2
left_child=1 5 3 4 -3 -1 -7 -4
right_child=-2 2 7 -5 -6 6 -8 -9
leaf_value=-0.049302134448729565 0.044772763805332717 0.033037199451443351 -0.014255855652889204 -0.024477762403488902 0.00012574335577668222 0.027292214789590107 -0.020094482365113076 0.031449299240437115
leaf_count=550 186 466 262 1529 10670 390 1167 765
internal_value=0 -0.00983052 0.0148052 -0.00655828 0.0195022 -0.2021 -0.10083 0.239022
internal_count=15985 15799 13692 12665 11136 2107 1557 1027
shrinkage=0.0870857


Tree=42
num_leaves=9
num_cat=0
split_feature=44 17 52 0 44 34 6 14
split_gain=11.496 10.4657 12.9614 13.8419 11.3381 9.98771 9.5794 8.71409
threshold=-1.7791853225779031 -1.8645369436322132 -0.01020072493170098 -0.12845935437663966 0.038087044366475788 -0.072660251892697217 0.74709109767539472 1.2370403505246357
decision_type=2 2 2 2 2 2 2 2
left_child=-1 -2 4 -4 5 -3 -6 -5
right_child=1 2 3 7 6 -7 -8 -9
leaf_value=-0.065217324494799195 0.031961819123136163 -0.037407160834259927 0.048103875504812939 5.9760066835288127e-06 -0.0032541354383755173 -0.0085871937323302658 0.042705808097588428 0.018443880294864368
leaf_count=448 508 1422 245 6170 3792 2111 214 1075
internal_value=0 0.00488628 -0.00562747 0.0542692 -0.0891991 -0.219498 -0.0074729 0.0349656
internal_count=15985 15537 15029 7490 7539 3533 4006 7245
shrinkage=0.0870857


Tree=43
num_leaves=9
num_cat=0
split_feature=22 8 52 55 30 25 16 28
split_gain=11.2982 11.3015 10.964 10.024 9.49652 9.42195 20.9565 18.1864
threshold=-0.4983789369858394 -0.60086204222054906 2.0950151355010092 0.25473275068260343 2.1406592223463696 -0.010391889822605161 -0.063715940077922681 0.037816818136223208
decision_type=2 2 2 2 2 2 2 2
left_child=1 -1 4 -3 5 6 -2 -7
right_child=2 3 -4 -5 -6 7 -8 -9
leaf_value=0.00070916757147546192 -0.0040131834755601685 -0.058287954784678311 0.034188014191782912 -0.012404692971691356 -0.052295816721487129 -0.012423960152256455 0.019922173735775612 0.010114979924761711
leaf_count=933 3432 789 316 582 218 4442 2969 2304
internal_value=0 -0.178919 0.0229059 -0.365431 0.00990815 0.01711 0.0834787 -0.0454801
internal_count=15985 2304 13681 1371 13365 13147 6401 6746
shrinkage=0.0870857


Tree=44
num_leaves=9
num_cat=0
split_feature=32 22 9 14 19 55 1 43
split_gain=10.2567 14.6875 12.4838 22.0415 10.6654 10.6568 12.4544 10.6021
threshold=-0.88900593237627668 -0.50171106259606713 0.23688095702399664 0.0244047964558637 0.065462011018086338 1.2479748505344459 -0.045925845935259675 0.042434699210128969
decision_type=2 2 2 2 2 2 2 2
left_child=4 -2 -3 7 5 6 -1 -4
right_child=1 2 3 -5 -6 -7 -8 -9
leaf_value=0.022903492349773413 -0.025572215193775213 -0.0063700264873513129 0.0051981261999728152 0.019158527010541951 0.038488092926901987 0.042089335831611549 -0.011275716101256824 -0.02573337164777317
leaf_count=632 1602 6494 1116 2813 515 225 1400 1188
internal_value=0 -0.0308964 -0.00455112 0.0879524 0.126928 0.0573491 -0 -0.111442
internal_count=15985 13213 11611 5117 2772 2257 2032 2304
shrinkage=0.0870857


Tree=45
num_leaves=8
num_cat=0
split_feature=44 36 52 6 16 30 20
split_gain=9.87631 9.21924 9.64539 10.7333 12.0662 11.7212 1.1914
threshold=-1.7791853225779031 3.2302967125598294 2.254786507281906 0.020432437311051935 0.15009358008892987 0.56112798428668353 0.77966280800013588
decision_type=2 2 2 2 2 2 2
left_child=6 2 3 5 -5 -2 -1
right_child=1 -3 -4 4 -6 -7 -8
leaf_value=-0.015125022058242574 0.020095335825483347 0.039251399782377933 0.040034750369437308 -0.0046280252068661258 0.025720155494900396 -0.028939757130863462 -0.082289784791172896
leaf_count=186 1569 244 182 12739 586 217 262
internal_value=0 0.00436001 -0.00308368 -0.011438 -0.0365638 0.157197 -0.720384
internal_count=15985 15537 15293 15111 13325 1786 448
shrinkage=0.0870857


Tree=46
num_leaves=9
num_cat=0
split_feature=23 55 26 51 18 36 15 54
split_gain=10.1913 13.8245 18.754 10.2418 12.8705 13.8642 12.8672 12.0233
threshold=-1.2891740950350388 -0.18381282322941159 -0.60231453643124344 0.2521060233571491 0.6733432687176103 -0.83507686634302603 1.1275190538374398 0.41292209085501314
decision_type=2 2 2 2 2 2 2 2
left_child=1 -1 -3 4 5 -2 -6 -7
right_child=3 2 -4 -5 6 7 -8 -9
leaf_value=-0.042836279831392154 -0.026327699766904477 0.051405664936712517 -0.039037214358107711 -0.0090624066997937631 0.039676291524832687 0.0017527834661335913 -0.0077846673192220285 0.029238207969395427
leaf_count=943 845 188 269 3005 735 8938 358 704
internal_value=0 -0.243129 0.0882192 0.0150308 0.0495797 0.0214965 0.290628 0.0464294
internal_count=15985 1400 457 14585 11580 10487 1093 9642
shrinkage=0.0870857


Tree=47
num_leaves=9
num_cat=0
split_feature=30 29 11 16 51 37 37 22
split_gain=8.8202 11.5853 10.3839 9.20788 12.7124 11.0084 10.1043 12.1148
threshold=-0.872079314820419 -0.058521212845467956 -0.88420649341804081 -0.011603923737366406 0.89755140546747103 -0.27513585410675817 0.32783931495510327 -0.086591358181569225
decision_type=2 2 2 2 2 2 2 2
left_child=1 2 -1 4 -2 -6 7 -5
right_child=3 -3 -4 6 5 -7 -8 -9
leaf_value=-0.03812530157040165 0 -0.049443492158180315 0.015267288212817301 0.00058010154185790053 0.010673904740981743 -0.037889477558394898 -0.0040223337947230707 0.025553355714521324
leaf_count=260 8169 774 629 1559 228 698 1809 1859
internal_value=0 -0.212736 -0.0255444 0.0148505 -0.0324419 -0.285854 0.0928999 0.169037
internal_count=15985 1663 889 14322 9095 926 5227 3418
shrinkage=0.0870857


Tree=48
num_leaves=9
num_cat=0
split_feature=23 3 5 20 26 14 56 36
split_gain=8.62185 11.0854 10.6888 11.9657 10.0971 13.9001 12.2106 9.61018
threshold=0.10733580169357299 -1.119316173589995 -0.12842899928666304 0.25294312898275223 -0.8172278134223484 0.60500814517026513 -0.06566441028221566 -0.33157372138755353
decision_type=2 2 2 2 2 2 2 2
left_child=2 -2 3 -1 -3 7 -7 -6
right_child=1 4 -4 -5 5 6 -8 -9
leaf_value=-0.0035321770159896936 0.05247826879439111 0.024729102383321169 -0.014998029032412156 0.021878937325296076 0.0077102734233610894 0.017528015196267947 -0.017873602565415463 -0.018394671163876504
leaf_count=5125 195 835 3559 843 976 1971 607 1874
internal_value=0 0.0640447 -0.0507719 0.00697918 0.0452773 0.00653632 0.126053 -0.113342
internal_count=15985 6458 9527 5968 6263 5428 2578 2850
shrinkage=0.0870857


Tree=49
num_leaves=9
num_cat=0
split_feature=44 20 50 30 24 40 27 18
split_gain=8.30204 8.01706 8.34689 11.6191 9.05393 8.67087 7.96767 5.92422
threshold=-1.7791853225779031 1.9133289002274501 0.8637544553769233 0.12503134655485432 1.730681225463879 -0.2383526730726028 -1.8204069592235401 -0.57438736616489316
decision_type=2 2 2 2 2 2 2 2
left_child=-1 2 4 7 6 -6 -2 -4
right_child=1 -3 3 -5 5 -7 -8 -9
leaf_value=-0.059870599032007983 -0.03821899024505386 0.034872214458893026 0.01402451096236439 -0.015845371569714668 -0.004322036762976004 -0.062483343401036312 0.00022537200480413536 0.062957246695467678
leaf_count=448 484 224 219 201 242 215 13734 218
internal_value=0 0.00383709 -0.0034633 0.246794 -0.0166696 -0.335228 -0.0047296 0.455832
internal_count=15985 15537 15313 638 14675 457 14218 437
shrinkage=0.0870857


Tree=50
num_leaves=9
num_cat=0
split_feature=12 51 43 37 30 52 51 46
split_gain=8.48498 10.8097 10.6499 13.9802 10.8997 10.5737 9.94898 11.7829
threshold=-0.28310366330402997 0.94041784360985214 0.64592189476863549 0.48144737091062945 0.31177490975800964 -0.8193711757370491 -0.50538882712494637 -0.022798739075408785
decision_type=2 2 2 2 2 2 2 2
left_child=1 5 -2 4 -4 -1 7 -7
right_child=2 -3 3 -5 -6 6 -8 -9
leaf_value=-0.024684972348009027 -0.00038643382559381048 -0.052018391774948533 0.035882819782260642 -0.0077644754874921524 -0.00099750287949570689 -0.0010013779091102655 0.0065768503328397527 -0.053973757743602954
leaf_count=1590 8197 234 1196 756 428 651 2613 320
internal_value=0 -0.0862469 0.0366335 0.174856 0.296589 -0.0585142 0.00114631 -0.223112
internal_count=15985 5408 10577 2380 1624 5174 3584 971
shrinkage=0.0870857


Tree=51
num_leaves=9
num_cat=0
split_feature=17 54 36 36 30 57 1 10
split_gain=8.47989 11.3682 9.30846 9.63001 9.0987 7.3272 6.71378 6.39887
threshold=-1.7884930423884515 -0.63177075447272968 -0.50908530132680396 -0.47918211507455344 -0.010065769040784279 -0.4282444463054757 -0.045925845935259675 -0.16787296005327121
decision_type=2 2 2 2 2 2 2 2
left_child=4 7 -3 -4 5 -1 -5 -2
right_child=1 2 3 6 -6 -7 -8 -9
leaf_value=0.01392456318633078 -0.082261219452263085 -0.0097960653749439124 0.039240441450416413 0.01078543418636127 -0.0088284641220192066 0.082154460670033833 -0.0011137955198717759 -0.018821048922567599
leaf_count=196 189 3562 320 2691 198 182 7914 733
internal_value=0 -0.0112162 0.00122436 0.0345476 0.308696 0.55494 0.0219376 -0.356773
internal_count=15985 15409 14487 10925 576 378 10605 922
shrinkage=0.0870857


Tree=52
num_leaves=9
num_cat=0
split_feature=52 6 16 44 35 15 29 25
split_gain=7.45754 9.70765 9.98359 8.90294 9.8276 9.34747 8.16759 7.25228
threshold=1.4474683419012653 0.020631735572100816 0.16174769073787384 -0.82730626479634861 -0.65033360263752604 0.74501728783442189 -0.4083822861736976 0.050133000519823945
decision_type=2 2 2 2 2 2 2 2
left_child=1 7 3 5 -5 -3 -4 -1
right_child=-2 2 6 4 -6 -7 -8 -9
leaf_value=0.018308780963746815 0.011344170563101384 -0.013422997117966235 0.052514889352945411 -0.014520217593169052 0 -0.071983340212797786 -0 -0.021398784512972571
leaf_count=1525 1550 1056 279 2872 7932 301 243 227
internal_value=0 -0.0223288 -0.0477357 -0.0633091 -0.0450476 -0.33046 0.281519 0.147014
internal_count=15985 14435 12683 12161 10804 1357 522 1752
shrinkage=0.0870857


Tree=53
num_leaves=9
num_cat=0
split_feature=23 32 57 39 57 23 16 31
split_gain=7.35877 12.5638 9.80408 7.39801 11.3227 10.6507 9.43053 11.5882
threshold=-1.2891740950350388 -1.0594835500770514 -0.24237860091920596 0.27816112853228619 0.066722257488757999 1.2435322502668404 -0.010780023249473683 -0.10507946812104825
decision_type=2 2 2 2 2 2 2 2
left_child=1 -1 -3 4 -2 -6 7 -5
right_child=3 2 -4 6 5 -7 -8 -9
leaf_value=0.013111058196982274 0.0079914020152835122 -0.052243570415592279 0.0096507093185618804 0.0076260110167768935 -0.015602430514338588 0.022383633470875696 0.0064021189919635053 -0.022316852153499649
leaf_count=335 8148 873 192 752 1741 343 1548 2053
internal_value=0 -0.210725 -0.426879 0.0123767 0.0484364 -0.101732 -0.0702681 -0.157133
internal_count=15985 1400 1065 14585 10232 2084 4353 2805
shrinkage=0.0870857


Tree=54
num_leaves=9
num_cat=0
split_feature=30 17 54 9 56 41 33 14
split_gain=7.09037 7.7115 10.3702 12.5913 12.4579 10.9223 8.19514 5.52549
threshold=1.9563521738282474 -1.7884930423884515 -0.63787974210869869 0.23688095702399664 -0.11057290598410076 0.08649139570319106 -0.35733003671966729 0.13364035892575712
decision_type=2 2 2 2 2 2 2 2
left_child=1 6 -3 5 -5 -4 -1 -2
right_child=7 2 3 4 -6 -7 -8 -9
leaf_value=0.045772670723417258 -0.068050905248614041 -0.031597227555410334 -0.012422665455887131 0.017020138079184691 -0.0043827716374755929 0.0021844520004265428 -0.010207113448930685 -0
leaf_count=368 192 804 4213 3205 2092 4736 195 180
internal_value=0 0.0055188 -0.00400861 0.00707515 0.103799 -0.0459173 0.304696 -0.427121
internal_count=15985 15613 15050 14246 5297 8949 563 372
shrinkage=0.0870857


Tree=55
num_leaves=9
num_cat=0
split_feature=36 52 22 6 9 8 12 55
split_gain=7.58209 7.91318 7.29094 7.81937 7.50744 6.66207 8.00139 7.50866
threshold=3.2302967125598294 2.254786507281906 -0.4983789369858394 -2.44322261206668 0.23688095702399664 -0.60086204222054906 -0.27032002301371477 0.25473275068260343
decision_type=2 2 2 2 2 2 2 2
left_child=1 2 5 -4 -5 6 -1 -7
right_child=-2 -3 3 4 -6 7 -8 -9
leaf_value=-0.020644042024047207 0.034919882424928016 0.035998896863561655 0.039438393087090955 -0.0043573346086089038 0.0060481467258392688 -0.052649237262794427 0.019614464093067989 -0.0099215500269309153
leaf_count=492 248 182 249 7861 5214 778 418 543
internal_value=0 -0.0079758 -0.0155478 0.00311096 -0.00414876 -0.165383 -0.0113613 -0.322505
internal_count=15985 15737 15555 13324 13075 2231 910 1321
shrinkage=0.0870857


Tree=56
num_leaves=9
num_cat=0
split_feature=42 0 2 12 35 37 26 51
split_gain=7.09038 7.87264 11.1223 8.53103 10.5704 9.43748 8.50506 8.34893
threshold=1.9899718092361263 -0.13143736413053578 -0.97873921267817321 -0.28310366330402997 -0.74256467756904077 -0.41628270853556776 -0.90600665720112927 0.94041784360985214
decision_type=2 2 2 2 2 2 2 2
left_child=1 2 -1 7 5 -5 -6 -3
right_child=-2 3 -4 4 6 -7 -8 -9
leaf_value=0.0029907708714425364 -0.032184260035317755 -0.0061216340018079981 0.066486612953173443 0.01642863304558911 0.028395970060365105 -0.01626626364698568 0.004266342150082719 -0.049388199999730237
leaf_count=350 310 4694 184 443 726 1784 7271 223
internal_value=0 0.00651391 0.282326 -0.00414154 0.0324064 -0.108593 0.074605 -0.097179
internal_count=15985 15675 534 15141 10224 2227 7997 4917
shrinkage=0.0870857


Tree=57
num_leaves=9
num_cat=0
split_feature=24 40 12 29 6 22 18 18
split_gain=6.61594 10.5719 7.63739 12.6398 8.71121 8.60773 11.3286 11.2537
threshold=1.730681225463879 -0.2383526730726028 -0.27322089670882721 1.021823246554157 -1.1407069352765116 -0.3648586360634844 1.0000000180025095e-35 0.0083318661621013899
decision_type=2 2 2 2 2 2 2 2
left_child=2 -2 3 4 -1 7 -7 -4
right_child=1 -3 5 -5 -6 6 -8 -9
leaf_value=0.032452072883151828 0.00019279579512884154 -0.058828380824212677 0.0050492496981078758 -0.031886310255557097 -0.0034099067673034034 -0.00023032697443121786 0.017640679609130419 -0.025688428020351324
leaf_count=316 255 233 1586 1118 5899 2893 2828 857
internal_value=0 -0.266501 0.00872472 -0.0532713 -0.0157675 0.0570156 0.103785 -0.0701088
internal_count=15985 488 15497 7333 6215 8164 5721 2443
shrinkage=0.0870857


Tree=58
num_leaves=9
num_cat=0
split_feature=14 2 22 17 8 17 18 35
split_gain=6.35757 8.79195 8.80497 8.19573 10.5964 9.43484 9.09107 10.3256
threshold=2.0037368358910017 1.1099817651560042 1.0000000180025095e-35 0.58559587558427284 -0.23710608728755922 0.52775025766448114 2.5318646634553299 0.94050225556328959
decision_type=2 2 2 2 2 2 2 2
left_child=1 3 -3 4 -1 -6 7 -5
right_child=-2 2 -4 6 5 -7 -8 -9
leaf_value=0.0027779142246955207 0.035083977988508708 -0.027093368839094356 0.0031586952227273778 0.0080148432380069915 -0.0087978956883697536 -0.057513799912982201 -0.027048873010849742 0.042211416420163926
leaf_count=6754 180 1595 767 2321 3562 187 208 411
internal_value=0 -0.00670345 -0.169983 0.0136615 -0.0210424 -0.136882 0.114929 0.15129
internal_count=15985 15805 2362 13443 10503 3749 2940 2732
shrinkage=0.0870857


Tree=59
num_leaves=9
num_cat=0
split_feature=52 43 2 9 24 1 16 41
split_gain=6.74828 9.38051 9.61125 11.6315 9.07863 8.66011 8.51967 8.47165
threshold=0.7645871097596405 -0.22903780830116358 -0.89716340165546982 0.16739046947729899 1.730681225463879 0.023121552247799774 -0.063715940077922681 0.10009540778268632
decision_type=2 2 2 2 2 2 2 2
left_child=4 2 -2 -4 -1 -5 -3 -8
right_child=1 6 3 5 -6 -7 7 -9
leaf_value=-0.0019087726813399981 0.033753507092151198 -0.017745453278221242 -0.017989719180220201 0.021187798025103684 -0.038807486442095002 -0.023530312964179574 0.011583503346646607 0.043482866463732561
leaf_count=11973 226 188 1150 652 322 181 854 439
internal_value=0 0.0746168 -0.0128667 -0.0640078 -0.0346772 0.123683 0.202899 0.26449
internal_count=15985 3690 2209 1983 12295 833 1481 1293
shrinkage=0.0870857


Tree=60
num_leaves=9
num_cat=0
split_feature=36 52 36 0 32 14 8 15
split_gain=6.12313 6.94158 6.37073 7.11259 10.1287 6.74297 4.85638 6.68137
threshold=3.7131540215618535 2.254786507281906 -0.57099800726214112 -0.13143736413053578 -1.083759684263222 0.98698008136326165 0.991404414906497 -0.56886039078063932
decision_type=2 2 2 2 2 2 2 2
left_child=1 2 6 4 -4 -5 7 -1
right_child=-2 -3 3 5 -6 -7 -8 -9
leaf_value=-0.024050688645326296 0.036023559320899637 0.033897909019198209 -0.00042099911949650603 -0.0027361462141348002 0.060221219237201216 0.0096865698243287987 -0.037067199499066186 -0
leaf_count=914 186 183 225 9689 184 2242 504 1858
internal_value=0 -0.00628911 -0.0133838 0.00997685 0.303891 -0.00117257 -0.11838 -0.0815252
internal_count=15985 15799 15616 12340 409 11931 3276 2772
shrinkage=0.0870857


Tree=61
num_leaves=9
num_cat=0
split_feature=22 17 18 22 16 15 53 9
split_gain=5.9179 8.03812 10.4523 9.07829 7.85601 8.38319 7.78685 7.54506
threshold=-0.57441446598958901 -1.7884930423884515 -0.97293830563963735 -0.30954089256606987 -0.16940344681190497 -0.72009027929823677 0.48774994606671979 0.23688095702399664
decision_type=2 2 2 2 2 2 2 2
left_child=4 -2 3 -3 -1 -6 7 -4
right_child=1 2 6 -5 5 -7 -8 -9
leaf_value=0.023361099456448896 0.031778837517952706 0.0011451267943073525 -0.0035414411998866283 -0.044494885354486723 0.012698003206053484 -0.042487382460876535 0.029720829223782046 0.0067918508889766045
leaf_count=190 430 492 7635 547 265 633 415 5378
internal_value=0 0.010273 0.00081507 -0.278159 -0.206693 -0.330039 0.0165467 0.00573334
internal_count=15985 14897 14467 1039 1088 898 13428 13013
shrinkage=0.0870857


Tree=62
num_leaves=9
num_cat=0
split_feature=44 42 42 16 7 37 50 16
split_gain=5.88225 5.48314 6.61147 11.9046 10.7756 8.93295 7.97757 8.90842
threshold=-1.7791853225779031 1.9899718092361263 0.33695879886257968 -0.011603923737366406 -0.079478731357584029 -0.10408875141646634 -0.29229426228711947 1.0000000180025095e-35
decision_type=2 2 2 2 2 2 2 2
left_child=-1 2 3 4 -2 -5 7 -4
right_child=1 -3 6 5 -6 -7 -8 -9
leaf_value=-0.054263464853722757 0.0031788269321728238 -0.028446481253362941 0.0060983885164645583 0.024170344451460841 -0.014115158401854582 0.0012440886181824375 0.01349362394660236 -0.033717760026089623
leaf_count=448 2426 291 757 975 4495 3027 3204 362
internal_value=0 0.00306303 0.00976671 -0.0212734 -0.0852023 0.0790653 0.091932 -0.0842644
internal_count=15985 15537 15246 10923 6921 4002 4323 1119
shrinkage=0.0870857


Tree=63
num_leaves=9
num_cat=0
split_feature=52 24 24 59 58 6 13 2
split_gain=5.69109 11.7239 9.4911 10.6096 10.0365 8.94272 7.90625 6.75717
threshold=0.32413268478444074 1.730681225463879 -0.011052201309892878 -0.52966198163182765 -0.18144480024641577 -1.1407069352765116 0.099565954654903907 -1.100310454326809
decision_type=2 2 2 2 2 2 2 2
left_child=1 2 3 4 -1 -5 -4 -2
right_child=7 -3 6 5 -6 -7 -8 -9
leaf_value=-0.0067037191173026037 0.030102518869882647 -0.051050215478661856 0.0060516645809460144 0.033440655068967637 -0.038403612220977802 -0.0018918212091233416 0.05749090398806074 0.0026490746424305675
leaf_count=2065 324 256 543 354 978 5878 205 5382
internal_value=0 -0.0427589 -0.0270392 -0.0527941 -0.199508 0.00259103 0.240433 0.0507303
internal_count=15985 10279 10023 9275 3043 6232 748 5706
shrinkage=0.0870857


Tree=64
num_leaves=9
num_cat=0
split_feature=11 33 42 42 22 58 35 47
split_gain=5.54221 7.90209 11.7124 9.92608 7.91106 7.98285 6.70751 5.3103
threshold=-1.1403414063907105 -1.0007551696041721 -0.67334362058606489 1.9899718092361263 -0.54240003939865866 -0.40051855028446265 -0.66662987326882062 0.70009516123134274
decision_type=2 2 2 2 2 2 2 2
left_child=7 2 -2 4 6 -6 -3 -1
right_child=1 3 -4 -5 5 -7 -8 -9
leaf_value=-0 -0.018315352166698662 -0.042843897674387003 0.045971772062634905 -0.045826124886297566 0.0097474663725509308 -0.0015271289885430178 -0.0036680596458697461 -0.036026619975681358
leaf_count=435 183 411 401 228 4263 8878 847 339
internal_value=0 0.0101156 0.291765 -0.00074764 0.00674102 0.0222433 -0.214074 -0.199844
internal_count=15985 15211 584 14627 14399 13141 1258 774
shrinkage=0.0870857


Tree=65
num_leaves=9
num_cat=0
split_feature=30 17 54 33 33 51 54 18
split_gain=5.44539 5.52908 8.06973 7.00457 6.85122 12.7728 10.9989 5.5226
threshold=1.9563521738282474 -1.7884930423884515 -0.63787974210869869 -0.35733003671966729 -0.20375131723314013 0.076178270047953661 -0.19913232985237442 -0.33640660030165109
decision_type=2 2 2 2 2 2 2 2
left_child=1 3 7 -1 6 -6 -4 -3
right_child=-2 2 4 -5 5 -7 -8 -9
leaf_value=0.040551272649284376 -0.033376416088012312 -0.049173729191293612 -0.014687909215386666 -0.011268980539852995 0.012079946584008808 -0.0064491378975218101 0.0022878749023309479 -0
leaf_count=368 372 506 2994 195 4628 2460 4164 298
internal_value=0 0.00478667 -0.0032514 0.258944 0.00634386 0.0602143 -0.0458462 -0.326282
internal_count=15985 15613 15050 563 14246 7088 7158 804
shrinkage=0.0870857


Tree=66
num_leaves=9
num_cat=0
split_feature=52 15 57 51 27 42 13 55
split_gain=5.24592 6.95506 11.0604 9.31536 9.25899 6.99454 6.52034 7.1626
threshold=1.4474683419012653 0.51383931051313192 2.6989377007960775 1.3812462443594089 -0.06923778714762592 0.1511048343398225 -0.20969267255322521 0.88568304173959844
decision_type=2 2 2 2 2 2 2 2
left_child=1 -1 3 4 -3 -5 -2 -8
right_child=6 2 -4 5 -6 -7 7 -9
leaf_value=0.00073595641260083442 0.036136991925051751 -0.026334055673976724 0.020483859999555539 -0.019587702539837354 0.0035380384202835869 -0.07733495192772144 0.019993558718632329 -0.0066154117906386586
leaf_count=11723 249 895 372 259 993 193 535 766
internal_value=0 -0.0188453 -0.130078 -0.197329 -0.116139 -0.516913 0.109557 0.0479882
internal_count=15985 14435 2712 2340 1888 452 1550 1301
shrinkage=0.0870857


Tree=67
num_leaves=9
num_cat=0
split_feature=36 23 55 57 39 51 18 48
split_gain=5.08007 5.33594 7.39336 6.29833 5.92684 10.1543 10.4666 8.42957
threshold=3.7131540215618535 -1.3193968396961122 -0.045457392829504735 -0.3302306789383499 0.27816112853228619 0.16133241129514991 0.26807145230467572 -0.31066795938097796
decision_type=2 2 2 2 2 2 2 2
left_child=1 2 3 -1 5 6 -3 -6
right_child=-2 4 -4 -5 7 -7 -8 -9
leaf_value=-0.047501477432078269 0.032651599840430014 0.0031066573068153115 0.0068911459731621867 0.0054376855459948529 -0.030311896187270388 -0.008994762775965795 0.023124712081373167 -0.0023706284403211728
leaf_count=734 186 6665 350 182 582 2166 1352 3768
internal_value=0 -0.0058188 -0.199839 -0.388597 0.00444871 0.0370279 0.0792878 -0.0701149
internal_count=15985 15799 1266 916 14533 10183 8017 4350
shrinkage=0.0870857


Tree=68
num_leaves=9
num_cat=0
split_feature=35 23 59 59 14 5 16 31
split_gain=5.20472 8.06898 8.54989 8.93122 8.46424 7.03443 11.8739 12.3571
threshold=1.6876232837711698 0.31202949348654907 0.0068057200843837729 -0.23055046740692051 -0.062335419121210385 -0.12842899928666304 -0.057220229436135799 -0.12020858171687691
decision_type=2 2 2 2 2 2 2 2
left_child=1 5 3 -3 -5 -1 7 -7
right_child=-2 2 -4 4 -6 6 -8 -9
leaf_value=0.0014814379249285341 -0.017873691740222641 0.0062484269052306479 0.00051823125290113381 0 0.050447071261940347 0.016355359004814354 -0.0019494200717723336 -0.04045648306832663
leaf_count=6684 868 1003 2508 220 489 266 2800 1147
internal_value=0 0.00908796 0.0941594 0.2224 0.423001 -0.0285249 -0.116736 -0.334169
internal_count=15985 15117 4220 1712 709 10897 4213 1413
shrinkage=0.0870857


Tree=69
num_leaves=9
num_cat=0
split_feature=33 36 27 39 6 27 25 28
split_gain=5.63763 5.16732 8.05972 10.6744 7.44678 6.12682 5.65136 13.6095
threshold=3.7394616596738568 -0.83507686634302603 -0.45255787873148262 0.20381775896715357 -2.7538772049996214 0.25141229350871258 -0.005141303654304312 0.023751957439804006
decision_type=2 2 2 2 2 2 2 2
left_child=1 2 -1 5 -3 -4 -6 -8
right_child=-2 4 3 -5 6 -7 7 -9
leaf_value=-0.055385400341022455 -0.03916406444147863 0.042262309339795759 0.043409620294436277 -0.032029517931026617 0.0046618234093276454 -0.010815248645293924 -0.015591046529192885 0.0040385350120517903
leaf_count=308 186 229 236 385 7767 202 3089 3583
internal_value=0 0.00426106 -0.177551 -0.0478889 0.0155476 0.234097 0.00865936 -0.0434439
internal_count=15985 15799 1131 823 14668 438 14439 6672
shrinkage=0.0870857


Tree=70
num_leaves=9
num_cat=0
split_feature=14 29 33 35 18 51 8 27
split_gain=4.81928 7.16347 4.92299 9.98833 9.46986 8.39599 5.94064 3.51916
threshold=2.0037368358910017 2.3478088317428782 -0.92978791388868176 -0.71221527294895648 -0.63687013253515079 -0.36428119673929626 -0.17760757845526667 -0.041215971191233707
decision_type=2 2 2 2 2 2 2 2
left_child=1 2 5 4 -4 -1 -5 -7
right_child=-2 -3 3 6 -6 7 -8 -9
leaf_value=-0.0027936402946096401 0.030551776571774786 -0.053528414880784622 -0.033051923383002682 0.0076845984177219516 -0.0050899853829673991 0.053847379768552445 -0.0022589280563158455 0.012268592213411622
leaf_count=505 180 390 822 4575 2325 236 6765 187
internal_value=0 -0.00581003 -0.000880085 -0.0127956 -0.132958 0.165128 0.0215447 0.410194
internal_count=15985 15805 15415 14487 3147 928 11340 423
shrinkage=0.0870857


Tree=71
num_leaves=9
num_cat=0
split_feature=52 16 1 26 11 16 52 15
split_gain=4.62505 4.52405 15.0797 11.657 10.0354 8.44365 9.93987 8.26885
threshold=2.254786507281906 -0.063715940077922681 -0.019140483710857251 0.34088441260362506 -0.58351899484801428 -0.01499761079453584 1.7926767290375296 -0.26276429450485855
decision_type=2 2 2 2 2 2 2 2
left_child=1 3 4 -1 7 -4 -7 -3
right_child=-2 2 5 -5 -6 6 -8 -9
leaf_value=-0.00043972296894275939 0.028063425894127098 0.013769641507921917 -0.013933271927779253 -0.025363101246522583 0.022728677600181588 -0.00069589663224961713 0.040366112651203684 -0.023321002276121279
leaf_count=4407 186 591 2519 1358 2127 4197 193 407
internal_value=0 -0.00605654 0.0240889 -0.0639047 0.162534 -0.0402065 0.0204649 -0.0227155
internal_count=15985 15799 10034 5765 3125 6909 4390 998
shrinkage=0.0870857


Tree=72
num_leaves=9
num_cat=0
split_feature=26 27 20 9 8 15 30 22
split_gain=4.71005 9.49692 8.69791 14.1701 9.98029 13.7335 11.6827 9.37798
threshold=-0.8172278134223484 0.60451113716158333 0.02493548131365397 0.571681570310281 -0.1662813139632387 -0.46074903883270629 -1.2657579276800561 -0.15108192489296887
decision_type=2 2 2 2 2 2 2 2
left_child=1 -1 -2 4 5 -4 -6 -5
right_child=2 -3 3 7 6 -7 -8 -9
leaf_value=0.011591805880989743 -0.0099879684205704585 -0.019361777840498529 0.037079956087030422 0.0012884700598684317 -0.079033097783469244 -0.0026266586849763938 -0.0064469403197768976 0.032144245167089781
leaf_count=2772 4895 521 501 920 309 917 4267 883
internal_value=0 0.0786098 -0.0233386 0.0230851 -0.0329475 0.123905 -0.0950455 0.209578
internal_count=15985 3293 12692 7797 5994 1418 4576 1803
shrinkage=0.0870857


Tree=73
num_leaves=9
num_cat=0
split_feature=11 15 32 32 40 23 48 42
split_gain=4.59167 5.87003 8.88946 5.28872 9.63317 8.31256 7.92118 8.39281
threshold=-1.1403414063907105 -0.48461486198548015 -0.76304656464502862 -0.88900593237627668 1.0506375929343112 0.23517717446488415 -0.30392111500554314 -0.25690046590861393
decision_type=2 2 2 2 2 2 2 2
left_child=1 -1 -3 6 -5 -6 -2 -8
right_child=3 2 -4 4 5 -7 7 -9
leaf_value=-0.036127272670328829 -0.011951725828837448 0.031052575726960241 -0.030158183596786906 0.00072889672420851904 -0.035811101836080647 0.0032083896167906041 -0.002160680896696408 0.026369273612347453
leaf_count=354 542 202 218 11311 1140 408 613 1197
internal_value=0 -0.183405 0 0.00899221 -0.0115762 -0.241087 0.110817 0.18548
internal_count=15985 774 420 15211 12859 1548 2352 1810
shrinkage=0.0870857


Tree=74
num_leaves=9
num_cat=0
split_feature=3 49 36 0 41 22 6 58
split_gain=4.58532 10.6561 5.39767 4.82382 10.0566 5.42345 5.78805 4.60808
threshold=1.0484964775837484 -0.46296380287073652 3.2302967125598294 -0.13143736413053578 0.64819962405667286 -0.61716952501650846 -1.1407069352765116 -0.52984361323603457
decision_type=2 2 2 2 2 2 2 2
left_child=2 -2 3 4 -1 7 -7 -5
right_child=1 -3 -4 5 -6 6 -8 -9
leaf_value=0.051713188700812478 -0.037119810178571314 0.040305813118183924 0.028656508875856759 -0.055046283350042371 -0.0033812585325760968 0.017149486138013509 -0.0024133623033456217 -0.0036058722150031489
leaf_count=228 217 360 241 221 315 715 13356 332
internal_value=0 0.24731 -0.00773585 -0.0143956 0.198047 -0.0238149 -0.0157161 -0.320434
internal_count=15985 577 15408 15167 543 14624 14071 553
shrinkage=0.0870857


Tree=75
num_leaves=9
num_cat=0
split_feature=42 42 6 15 16 18 49 37
split_gain=4.36911 5.30821 9.95626 9.59754 8.10862 9.8313 9.0029 8.54408
threshold=1.9899718092361263 0.33695879886257968 0.51994972645734949 0.90955565844140962 -0.011603923737366406 -0.040719831298065383 -0.18719742917306578 0.13177626011120597
decision_type=2 2 2 2 2 2 2 2
left_child=1 4 3 -3 6 7 -1 -6
right_child=-2 2 -4 -5 5 -7 -8 -9
leaf_value=-0.014604700106125326 -0.026031299424522671 0.0087933379307527561 0.049576658199480948 -0.019618000685057708 0.009207491520498861 0.015014613588608595 0.00082653024536808589 -0.01803839822062336
leaf_count=3800 310 3583 269 618 980 1964 3298 1163
internal_value=0 0.00496111 0.0785374 0.0483967 -0.0229305 0.0593263 -0.0761549 -0.0601714
internal_count=15985 15675 4470 4201 11205 4107 7098 2143
shrinkage=0.0870857


Tree=76
num_leaves=9
num_cat=0
split_feature=58 12 39 46 51 29 17 9
split_gain=4.28824 12.028 9.79157 16.7535 9.74867 9.36526 12.4958 10.7934
threshold=-0.052408573517206174 -0.24764619556561326 0.084175749588101589 1.0860893151176441 -0.50452215907264486 -1.1008430785688426 0.39112815204835583 0.37986392028086025
decision_type=2 2 2 2 2 2 2 2
left_child=-1 2 4 -4 -2 -3 -7 -8
right_child=1 5 3 -5 -6 6 7 -9
leaf_value=0.0023339446415887094 -0.049869979144510079 0.045143173862289276 -0.045523795419885278 0.0025002636223673408 0.0065873227587394077 -0.018206099436394566 0.0019844540862254912 0.047342184300524379
leaf_count=11213 201 253 933 484 997 821 800 283
internal_value=0 -0.0605964 -0.177915 -0.318116 -0.00822933 0.0636052 0.00851801 0.171215
internal_count=15985 4772 2615 1417 1198 2157 1904 1083
shrinkage=0.0870857


Tree=77
num_leaves=9
num_cat=0
split_feature=35 34 23 59 59 13 30 51
split_gain=4.41399 6.20406 5.9732 7.6432 6.65121 8.69916 5.70392 11.2043
threshold=1.6876232837711698 0.11142515398846005 0.37559925428800867 0.0068057200843837729 -0.23055046740692051 -0.054277446338238715 -0.097429159398726484 0.75867667765409463
decision_type=2 2 2 2 2 2 2 2
left_child=2 -2 -1 4 -4 -6 7 -5
right_child=1 -3 3 6 5 -7 -8 -9
leaf_value=-0.0019322907878435915 -0.036226659936245909 0.002720250756416868 0.0066644224388620384 0.023834103875039245 0.0054641499074486628 0.055655633681827535 -0.0080299139792906638 -0.028392399116673732
leaf_count=11251 465 403 884 774 279 347 1384 198
internal_value=0 -0.190546 0.00840963 0.0860239 0.215909 0.40012 0.00125384 0.139927
internal_count=15985 868 15117 3866 1510 626 2356 972
shrinkage=0.0870857


Tree=78
num_leaves=9
num_cat=0
split_feature=33 9 56 8 51 38 55 49
split_gain=4.70807 4.77988 11.9172 9.83571 11.347 9.16304 8.25586 7.82254
threshold=3.7394616596738568 0.23688095702399664 0.0036181167717550923 0.20056275340828511 -0.50038462229550562 -0.37667605141160482 0.14484704927167658 -0.49976137303827101
decision_type=2 2 2 2 2 2 2 2
left_child=1 3 6 5 -5 -1 7 -3
right_child=-2 2 -4 4 -6 -7 -8 -9
leaf_value=0.05365376652492844 -0.036269577933197607 0.03219838606543414 -0.02472088577834048 -0.053326620857681896 -0.0083319882460776967 0.00048210687651436911 0.018163978834512391 -0.0029961080201718207
leaf_count=186 186 405 781 481 2689 6329 1994 2934
internal_value=0 0.00389304 0.060721 -0.0285163 -0.152468 0.0194874 0.0977295 0.00877506
internal_count=15985 15799 6114 9685 3170 6515 5333 3339
shrinkage=0.0870857


Tree=79
num_leaves=9
num_cat=0
split_feature=33 3 33 9 56 55 8 25
split_gain=4.0087 4.10504 9.71101 4.96793 8.94204 8.594 8.08392 8.87316
threshold=3.7394616596738568 1.0484964775837484 -0.48373453635200997 0.23688095702399664 -0.11057290598410076 0.18375387579343452 0.20056275340828511 -0.097586441408232458
decision_type=2 2 2 2 2 2 2 2
left_child=1 3 -3 6 5 -5 -1 -8
right_child=-2 2 -4 4 -6 -7 7 -9
leaf_value=0.00053897534429458744 -0.033758315983473404 -0.0089782286408717372 0.05333554623914858 0.0021151407863223637 -0.0062934108723165924 0.023734076594218789 0.02655011618292083 -0.017200121409391367
leaf_count=6326 186 289 273 2319 2350 1273 234 2735
internal_value=0 0.00348299 0.239037 -0.00291167 0.0545921 0.1298 -0.0374873 -0.152944
internal_count=15985 15799 562 15237 5942 3592 9295 2969
shrinkage=0.0870857


Tree=80
num_leaves=9
num_cat=0
split_feature=24 52 57 16 15 18 13 49
split_gain=3.91797 8.49784 5.13095 8.80099 6.88171 9.82457 10.1653 9.58421
threshold=2.5727120829035068 0.22583704151713982 2.6989377007960775 -0.012479193138256376 0.51383931051313192 0.65477719192930517 -0.10014716381962595 -0.4694151537586852
decision_type=2 2 2 2 2 2 2 2
left_child=2 -2 4 -4 5 -1 -7 -6
right_child=1 -3 3 -5 7 6 -8 -9
leaf_value=4.5052393646271898e-05 -0.059270089228047974 0.0033310346006233155 -0.0051799687460986751 0.045237263467888193 0.019792900268408863 -0.0061452122906123525 0.039395863893054946 -0.015852240359342903
leaf_count=11763 184 182 249 248 493 303 508 2055
internal_value=0 -0.245041 0.00570577 0.228201 -0.00299947 0.0212565 0.263105 -0.1177
internal_count=15985 366 15619 497 15122 12574 811 2548
shrinkage=0.0870857


Tree=81
num_leaves=9
num_cat=0
split_feature=27 7 11 39 33 51 54 41
split_gain=4.14341 4.00506 7.8869 6.90118 11.2905 8.70943 6.11291 5.9795
threshold=2.5274022273912582 -0.080531669932174935 -1.1403414063905271 0.16050009866895268 -0.54447428179193735 -0.50538882712494637 -0.54884221976826131 0.70534158121229062
decision_type=2 2 2 2 2 2 2 2
left_child=1 6 -3 5 -5 -4 -1 -8
right_child=-2 2 3 4 -6 -7 7 -9
leaf_value=-0.024688063059290336 -0.044334872300634161 -0.026923401962183027 -0.014441786590629177 -0.030495564431205869 -0.0019541447630830543 0.007737083819403536 0.015106020183879517 -0.0015825037810528973
leaf_count=358 186 561 1225 837 4109 5153 2174 1382
internal_value=0 0.00272718 -0.0207995 -0.00577981 -0.076356 0.0483349 0.0678057 0.0934279
internal_count=15985 15799 11885 11324 4946 6378 3914 3556
shrinkage=0.0870857


Tree=82
num_leaves=9
num_cat=0
split_feature=35 33 49 23 9 45 2 53
split_gain=3.76542 8.00307 5.77099 4.84344 7.15196 5.6159 12.5692 7.15337
threshold=1.6876232837711698 -0.11416535630066839 -0.48444205327506051 0.10733580169357299 1.5362898437452095 -0.48438985687212666 0.22713457063114903 0.45925947235961379
decision_type=2 2 2 2 2 2 2 2
left_child=3 -2 -3 4 5 6 -1 -7
right_child=1 2 -4 -5 -6 7 -8 -9
leaf_value=0.01197987536439135 -0.066607286378473157 0.033687649186575519 -0.016457144411261612 0.0051819292967456524 -0.033392674163969918 -0.0082973865128269687 -0.023591936852981991 0.018879915737619692
leaf_count=2884 183 186 499 5790 452 4691 859 441
internal_value=0 -0.17715 -0.0476229 0.00761071 -0.0297044 -0.014884 0.0657595 -0.0652784
internal_count=15985 868 685 15117 9327 8875 3743 5132
shrinkage=0.0870857


Tree=83
num_leaves=9
num_cat=0
split_feature=35 54 51 49 55 10 16 7
split_gain=3.72994 7.96563 8.47105 8.15737 7.3895 9.16259 6.61575 11.563
threshold=-0.71221527294895648 0.2496381402529613 0.94041784360985214 -0.21808492983958372 -0.7289675238173825 -0.35055531096534037 -0.073082325207197013 -0.070435356598941082
decision_type=2 2 2 2 2 2 2 2
left_child=1 3 -3 -1 -5 -6 -2 -8
right_child=6 2 -4 4 5 -7 7 -9
leaf_value=-0.028464190559477996 -0.0061861459535028692 0.017464128624622488 -0.022275814760091616 -0.035506988187415094 -0.011883296392228444 0.0222560335124737 0.031166345980931688 0.002599505820678204
leaf_count=1092 3649 852 274 324 726 575 634 7859
internal_value=0 -0.0653531 0.0879138 -0.143166 -0.0388598 0.0275062 0.0215304 0.0584675
internal_count=15985 3843 1126 2717 1625 1301 12142 8493
shrinkage=0.0870857


Tree=84
num_leaves=9
num_cat=0
split_feature=39 39 42 23 6 25 44 9
split_gain=4.09969 5.94744 9.6877 7.73409 7.62015 8.21247 7.65235 6.48587
threshold=-0.9668741598634224 0.039207351324038929 -0.69972117977463133 -0.46528574429215597 0.79758941108486547 -0.0099010214360346922 -0.16891059442429876 -0.15980468903845754
decision_type=2 2 2 2 2 2 2 2
left_child=-1 3 -3 -2 5 -4 -6 -5
right_child=1 2 4 7 6 -7 -8 -9
leaf_value=-0.011805078985351694 -0.0069104556948722971 -0.026328711011873614 0.0051101687784191469 0.022136774024198645 -0.0036818838129018751 -0.0082253019153909705 0.057637344243749569 0.0036811592340448645
leaf_count=1197 1613 723 4234 1459 250 4299 180 2030
internal_value=0 0.0110484 -0.0246533 0.0800657 -0.00174665 -0.0171341 0.353276 0.138432
internal_count=15985 14788 9686 5102 8963 8533 430 3489
shrinkage=0.0870857


Tree=85
num_leaves=9
num_cat=0
split_feature=42 42 31 19 10 16 7 18
split_gain=3.80081 4.59262 7.66342 7.47065 8.38937 6.89797 7.83667 7.46819
threshold=1.9899718092361263 0.33695879886257968 0.066902043643096307 -0.16328137179091298 0.027850149156866368 -0.011603923737366406 0.00075668904744295837 1.0000000180025095e-35
decision_type=2 2 2 2 2 2 2 2
left_child=1 5 3 4 -3 6 -1 -7
right_child=-2 2 -4 -5 -6 7 -8 -9
leaf_value=-0.0028458627432213306 -0.024476364045098363 -0.0096060641197201618 -0.018448118718257307 0.017264564347206135 0.032613919271650554 -0.0038728860500423243 -0.022704528323858213 0.013768335347513693
leaf_count=5660 310 1326 545 2292 307 2247 1438 1860
internal_value=0 0.00457305 0.0730737 0.111263 -0.0217839 -0.0214249 -0.0707358 0.0544213
internal_count=15985 15675 4470 3925 1633 11205 7098 4107
shrinkage=0.0870857


Tree=86
num_leaves=9
num_cat=0
split_feature=52 34 37 32 18 16 6 55
split_gain=3.8821 4.17194 8.50466 9.3421 15.2952 8.8842 5.9759 6.7487
threshold=2.254786507281906 -0.10216383232081065 0.96426367147327829 -0.86150232212884259 -0.87737981515930186 0.017417064253142708 1.7452168924760094 0.077173705717408489
decision_type=2 2 2 2 2 2 2 2
left_child=1 6 3 5 -5 -3 7 -1
right_child=-2 2 -4 4 -6 -7 -8 -9
leaf_value=-0.012240150304339727 0.025835715876959868 0.011266436301259572 -0.028729354897966953 -0.045641567594536719 0.0046588684686010556 0.063226677356670535 0.036651791641144869 0.00020945705144302733
leaf_count=3806 186 488 375 505 5635 286 218 4486
internal_value=0 -0.00574189 0.0380878 0.0585571 0.0240878 0.312633 -0.0429568 -0.052722
internal_count=15985 15799 7289 6914 6140 774 8510 8292
shrinkage=0.0870857


Tree=87
num_leaves=9
num_cat=0
split_feature=6 27 18 27 18 49 50 26
split_gain=3.69752 3.88533 4.89995 6.20527 4.09761 6.32917 4.81307 2.96956
threshold=-2.7538772049996214 -1.8204069592235401 -1.4128801531643673 0.10475476472432031 -0.97293830563963735 0.28862184190768919 0.8637544553769233 0.036310837524245722
decision_type=2 2 2 2 2 2 2 2
left_child=-1 7 3 -3 5 -4 -6 -2
right_child=1 2 4 -5 6 -7 -8 -9
leaf_value=0.027297109887704035 -0.0074248208215063017 0.043684024335548258 -0.027429749362613869 -0.019491330890909611 -0.00060080208480285777 0.015570536093592173 0.019365404145563557 -0.067099148780214904
leaf_count=260 232 389 737 188 13183 193 555 248
internal_value=0 -0.00511447 -0.000155702 0.294904 -0.00710023 -0.181255 0.00203967 -0.336458
internal_count=15985 15725 15245 577 14668 930 13738 480
shrinkage=0.0870857


Tree=88
num_leaves=9
num_cat=0
split_feature=33 44 56 44 33 8 9 35
split_gain=3.75588 8.65375 8.59355 7.87557 7.66224 16.0486 10.3347 5.71034
threshold=1.006109446904053 0.14971604028600541 -0.12856707708134291 -0.19739380688835348 0.7209147345877277 -0.38246660277174432 0.84571115010909548 1.7542640518504842
decision_type=2 2 2 2 2 2 2 2
left_child=4 2 3 -2 7 -6 -7 -1
right_child=1 -3 -4 -5 5 6 -8 -9
leaf_value=0.0006784739672507841 0.017081320919357504 0.013054679261049239 -0.050990630470372146 -0.031916712118050333 -0.023631236324001936 0.013499683679061358 0.089144572045682297 -0.026967702762510933
leaf_count=13528 309 388 453 277 183 187 197 463
internal_value=0 -0.124489 -0.26353 -0.0733508 0.0111057 0.294411 0.596075 -0
internal_count=15985 1427 1039 586 14558 567 384 13991
shrinkage=0.0870857


Tree=89
num_leaves=9
num_cat=0
split_feature=36 52 13 16 1 51 18 51
split_gain=3.50442 4.03677 6.91846 7.81176 7.12884 5.96602 10.2737 7.41384
threshold=3.7131540215618535 1.4474683419012653 -0.20969267255322521 -0.012479193138256376 -0.017646547270597085 0.076178270047953661 0.6733432687176103 -0.016992568517258954
decision_type=2 2 2 2 2 2 2 2
left_child=1 5 -3 4 -4 6 7 -1
right_child=-2 2 3 -5 -6 -7 -8 -9
leaf_value=-0.0023975944746143316 0.026943776602787226 0.035814145390263619 0.0044172671373009474 0.018144785287648586 -0.031668319160668756 -0.01020911117915402 0.022737745047310937 0.039261007848640214
leaf_count=10223 186 244 415 571 287 3034 824 201
internal_value=0 -0.0049112 0.0928294 0.0287407 -0.113259 -0.0213335 0.0064869 -0.0167695
internal_count=15985 15799 1517 1273 702 14282 11248 10424
shrinkage=0.0870857


Tree=90
num_leaves=9
num_cat=0
split_feature=59 59 35 42 25 10 33 33
split_gain=3.72818 6.55851 4.26343 10.2031 8.89484 6.60798 5.16675 6.8464
threshold=-1.1344578314562714 -1.0084084299157119 -0.71221527294895648 -0.79551312827205156 -0.051128444994186499 -0.68332223308058426 1.006109446904053 0.45898009378074384
decision_type=2 2 2 2 2 2 2 2
left_child=-1 -2 3 5 -5 -3 7 -4
right_child=1 2 6 4 -6 -7 -8 -9
leaf_value=0.047325045025745388 -0.036567221155417613 -1.3070522099567593e-05 0.0018648967798078561 0.022197512964886149 -0.006394350874630258 -0.049317450696680303 -0.010443265853328833 0.018938923415140321
leaf_count=192 384 189 9052 563 2664 369 1315 1257
internal_value=0 -0.00305257 0.0026864 -0.0665937 -0.0124555 -0.365586 0.0271131 0.0459577
internal_count=15985 15793 15409 3785 3227 558 11624 10309
shrinkage=0.0870857


Tree=91
num_leaves=9
num_cat=0
split_feature=58 12 39 51 28 25 54 29
split_gain=3.59629 9.62807 8.44888 8.43412 8.15649 7.44673 7.84693 7.06203
threshold=-0.052408573517206174 -0.24764619556561326 0.16960226696531158 -0.50538882712494637 0.049085325261134828 -0.02811924816652871 -0.21591817893767135 -1.1008430785688426
decision_type=2 2 2 2 2 2 2 2
left_child=-1 2 3 -2 -5 6 -4 -3
right_child=1 7 5 4 -6 -7 -8 -9
leaf_value=0.0021480815203487667 -0.037763159854657641 0.039664060665855212 -0.037970419254287034 0.01246462583887672 -0.033387927675570236 -0.04330358304228403 0.020423740315358135 0.00064921238473753537
leaf_count=11213 347 253 208 1009 182 670 199 1904
internal_value=0 -0.0557473 -0.161661 -0.0369888 0.0461496 -0.330297 -0.0565816 0.0554782
internal_count=15985 4772 2615 1538 1191 1077 407 2157
shrinkage=0.0870857


Tree=92
num_leaves=9
num_cat=0
split_feature=0 41 28 31 43 17 0 25
split_gain=3.42707 8.32296 3.98064 10.0544 8.90616 9.02276 8.77666 8.5013
threshold=-0.13143736413053578 0.64819962405667286 0.03165338509688214 0.13233396123957805 -0.3187542633292017 1.0298280361119363 -0.095558744566667228 -0.005141303654304312
decision_type=2 2 2 2 2 2 2 2
left_child=1 -1 7 4 5 -4 -6 -2
right_child=2 -3 3 -5 6 -7 -8 -9
leaf_value=0.046443489004611559 0.0011399963911868773 -0.0031810815040876142 0.0070443365204660999 -0.022012244037036534 0.0095552125953352364 -0.036720127277701922 0.046659647644177987 -0.011436686885064124
leaf_count=231 8320 320 1151 476 763 230 437 4057
internal_value=0 0.178447 -0.00781453 0.0664122 0.123888 -0.00105791 0.270566 -0.0295696
internal_count=15985 551 15434 3057 2581 1381 1200 12377
shrinkage=0.0870857


Tree=93
num_leaves=9
num_cat=0
split_feature=14 58 8 30 12 4 49 20
split_gain=3.49964 6.61188 5.90302 8.12656 6.19433 6.71582 6.68082 5.13988
threshold=1.5122272189336294 -0.33474738689075989 1.0627298423810576 -0.62075254375116107 -0.25836149265518299 -0.018085546644415064 -0.31731438650291449 0.6060050845121342
decision_type=2 2 2 2 2 2 2 2
left_child=2 -2 7 -4 5 -5 -6 -1
right_child=1 -3 3 4 6 -7 -8 -9
leaf_value=-0.001762739261282681 0.037944435569340566 0 -0.064121105725953073 0 0.021267876827929286 -0.048534599744071927 -0.022342491633330387 0.0082544300269769642
leaf_count=10673 250 541 417 396 523 428 236 2521
internal_value=0 0.144076 -0.00973326 -0.165912 -0.0947957 -0.298363 0.052931 0.00542066
internal_count=15985 791 15194 2000 1583 824 759 13194
shrinkage=0.0870857


Tree=94
num_leaves=9
num_cat=0
split_feature=42 0 35 27 37 42 16 45
split_gain=3.46131 4.05982 4.94642 8.47835 8.00207 6.07187 6.03647 10.7469
threshold=1.9899718092361263 -0.13551962085866837 -0.71221527294895648 0.59218280261810763 0.10693048948116833 -0.79551312827205156 -0.082290517843012709 -0.59224223944541377
decision_type=2 2 2 2 2 2 2 2
left_child=1 -1 3 5 -5 -3 -4 -8
right_child=-2 2 6 4 -6 -7 7 -9
leaf_value=0.020765965054212916 -0.02348975449045522 -0.025004418363704286 -0.0068054586141505866 -0.0036487379738737152 -0.062112802116796019 0.0009677098443386349 0.017460113969227684 0.0002092643194220194
leaf_count=383 310 458 2996 264 279 2488 2609 6198
internal_value=0 0.00455433 -0.00190655 -0.0820182 -0.391333 -0.0334392 0.0228293 0.0547854
internal_count=15985 15675 15292 3489 543 2946 11803 8807
shrinkage=0.0870857


Tree=95
num_leaves=9
num_cat=0
split_feature=24 40 12 50 8 2 4 54
split_gain=3.24737 6.60645 4.31073 7.0543 7.14984 8.098 5.79184 4.3095
threshold=1.730681225463879 -0.2383526730726028 -0.16411337794238107 -0.31092025117055039 -0.39134825020063496 -0.70087400883437512 -0.0075007060249503666 -0.23227130324912024
decision_type=2 2 2 2 2 2 2 2
left_child=2 -2 7 -4 5 -5 -6 -1
right_child=1 -3 3 4 6 -7 -8 -9
leaf_value=-0.0046828355384716264 0.0010069224409541696 -0.047420801261739087 -0.010205344027857444 0.021175185034799069 0.018007947636922001 -0.030264235905924964 0.06393841989486547 0.0029811702591055708
leaf_count=7573 255 233 432 360 371 183 205 6373
internal_value=0 -0.192781 0.00606675 0.122336 0.224449 0.0233266 0.410715 -0.00838633
internal_count=15985 488 15497 1551 1119 543 576 13946
shrinkage=0.0870857


Tree=96
num_leaves=9
num_cat=0
split_feature=3 27 2 41 50 52 36 36
split_gain=3.34547 9.92963 5.84482 6.89938 6.90042 4.27628 4.51942 11.1075
threshold=0.004362005597861718 0.20783463298362626 0.99201758248174832 0.5968470447740517 -0.21943877913407697 2.0950151355010092 -0.50908530132680396 -0.42380457995407533
decision_type=2 2 2 2 2 2 2 2
left_child=1 2 3 4 -1 6 -2 -8
right_child=5 -3 -4 -5 -6 -7 7 -9
leaf_value=0.008851459116307997 -0.0092069419207721458 -0.017754315588674463 -0.023201238229854294 0.0032810510329535502 0.061128535862414284 0.018981796469341977 0.022477602668471146 -0.0018594123893696933
leaf_count=194 3532 348 201 302 294 327 998 9789
internal_value=0 0.111461 0.240688 0.305987 0.482532 -0.0119806 -0.0202604 0.00258137
internal_count=15985 1339 991 790 488 14646 14319 10787
shrinkage=0.0870857


Tree=97
num_leaves=9
num_cat=0
split_feature=44 14 46 51 56 22 28 45
split_gain=3.17653 3.35984 8.85384 4.56691 9.64216 7.58268 5.65315 5.50469
threshold=-1.7791853225779031 1.5122272189336294 -0.1580252689761765 0.98768759074465395 -0.11696425134005718 -0.091805245340833883 -0.020696042451055024 1.4386539865596679
decision_type=2 2 2 2 2 2 2 2
left_child=-1 3 -3 7 6 -6 -5 -2
right_child=1 2 -4 4 5 -7 -8 -9
leaf_value=-0.044558248340163108 0 0.035178537432732353 -0.0057589290681159568 -0.025154444399829001 -0.053627843648143651 -0.0017071618264189485 0.010150424123922079 0.027574394526030683
leaf_count=448 12967 341 390 266 351 220 686 316
internal_value=0 0.00204598 0.144582 -0.00676758 -0.128746 -0.382715 0.00509901 0.00834608
internal_count=15985 15537 731 14806 1523 571 952 13283
shrinkage=0.0870857


Tree=98
num_leaves=9
num_cat=0
split_feature=39 6 39 31 45 24 45 30
split_gain=3.22321 8.38437 9.12033 7.78545 9.33281 7.06244 6.23934 6.23437
threshold=0.27816112853228619 0.19699588403997703 0.3334726154444963 -0.15806010739986551 -0.48438985687212666 -0.19266513398206817 0.029405101116053371 -0.082304404477474877
decision_type=2 2 2 2 2 2 2 2
left_child=-1 2 5 6 -5 7 -4 -2
right_child=1 -3 3 4 -6 -7 -8 -9
leaf_value=0.0019714435524051154 -0.074521607705249168 0.025789276482192848 -0 0.021104916207237309 -0.011347067695207148 -0.0043668955777779912 0.053395518709505548 -0.018936229847862602
leaf_count=11213 225 401 200 557 2621 354 180 234
internal_value=0 -0.054535 -0.0861956 -0.030543 -0.0724651 -0.325354 0.29774 -0.537039
internal_count=15985 4772 4371 3558 3178 813 380 459
shrinkage=0.0870857


Tree=99
num_leaves=9
num_cat=0
split_feature=27 26 35 51 45 33 2 14
split_gain=3.18334 3.26661 7.0429 5.63445 16.7685 6.14349 5.61361 6.55388
threshold=2.5274022273912582 -0.8172278134223484 -1.3303957013340333 -0.50538882712494637 -0.68345594538323229 -0.20375131723314013 -0.71675703819459946 -0.99857489830622714
decision_type=2 2 2 2 2 2 2 2
left_child=1 6 -3 5 -5 -4 7 -1
right_child=-2 2 3 4 -6 -7 -8 -9
leaf_value=-0.0065875035393816693 -0.040048830186662651 -0.032286196587334275 -0.022913063701652189 0.031200038150619051 -0.0011405884350972932 0.0021518552981424975 0.033991019106236912 0.012774881545680291
leaf_count=1540 186 365 1319 909 9006 940 325 1395
internal_value=0 0.00224371 -0.0165233 -0.00604476 0.0160129 -0.135142 0.0690175 0.0363807
internal_count=15985 15799 12539 12174 9915 2259 3260 2935
shrinkage=0.0870857


Tree=100
num_leaves=8
num_cat=0
split_feature=59 59 36 9 56 51 22
split_gain=3.24578 5.55833 4.02357 4.09516 11.0015 6.35609 2.88319
threshold=-1.1344578314562714 -1.0084084299157119 3.2302967125598294 0.23688095702399664 0.0036181167717550923 -0.50538882712494637 -0.30332762733032176
decision_type=2 2 2 2 2 2 2
left_child=-1 6 3 5 -5 -3 -2
right_child=1 2 -4 4 -6 -7 -8
leaf_value=0.043952463205975151 -0.0671355283864698 -0.020667084699844292 0.025618124801722184 0.0074319322942470638 -0.025266651408408076 -0.0011828050437272149 -0.01025139067208094
leaf_count=192 191 1064 240 5147 716 8242 193
internal_value=0 -0.00296424 0.00222832 -0.00284173 0.049633 -0.0343221 -0.39217
internal_count=15985 15793 15409 15169 5863 9306 384
shrinkage=0.0870857


Tree=101
num_leaves=9
num_cat=0
split_feature=39 36 0 36 57 51 5 39
split_gain=3.25292 7.23247 5.44259 5.01843 4.92768 9.63154 8.8072 6.59758
threshold=-0.9668741598634224 -0.18409015429070605 -0.10461642526448478 0.70776655599838867 1.6956771113093869 0.98768759074465395 -0.51163946182499009 0.20381775896715357
decision_type=2 2 2 2 2 2 2 2
left_child=1 2 -1 -3 5 7 -6 -2
right_child=4 3 -4 -5 6 -7 -8 -9
leaf_value=-0.064131985441260253 0.0046703444043436999 0.013309838790741477 -0.011439127670683044 -0.022255102390931761 -0.020637900427745319 -0.036909537728381424 0.026139954037296975 -0.0051334709648817303
leaf_count=180 8071 496 278 243 205 319 706 5487
internal_value=0 -0.121501 -0.379211 0.00901331 0.00988171 -0.00228598 0.174702 0.00763989
internal_count=15985 1197 458 739 14788 13877 911 13558
shrinkage=0.0870857


Tree=102
num_leaves=9
num_cat=0
split_feature=50 42 6 46 1 25 54 9
split_gain=3.01408 3.29701 9.43161 7.09052 6.24498 6.26992 6.20346 7.59234
threshold=-0.44024027011878469 0.33695879886257968 0.51994972645734949 -0.90920019209244074 0.070103840844195658 0.012814088145762358 -0.59295617455500627 0.071481184939318126
decision_type=2 2 2 2 2 2 2 2
left_child=-1 3 4 -2 5 -3 -5 -8
right_child=1 2 -4 6 -6 -7 7 -9
leaf_value=-0.026809522387394955 -0.020416872858774394 -0 0.045540125784256133 -0.023457529761066478 -0.033594661702129353 0.019751432700004883 -0.0041020266978955633 0.0080474996389875587
leaf_count=192 1251 3221 282 744 205 1007 5093 3990
internal_value=0 0.00316461 0.0595296 -0.0195155 0.0306205 0.0530124 -0.000682213 0.0126397
internal_count=15985 15793 4715 11078 4433 4228 9827 9083
shrinkage=0.0870857


Tree=103
num_leaves=9
num_cat=0
split_feature=35 2 49 6 58 36 30 22
split_gain=2.93229 5.32201 5.32865 3.69319 7.29682 4.47237 8.78765 7.85436
threshold=1.6876232837711698 1.6205149814907898 -0.4410217886005518 -1.1407069352765116 -0.36735625826966162 1.2270853450191395 -0.28564777596245822 -0.3648586360634844
decision_type=2 2 2 2 2 2 2 2
left_child=3 2 -2 4 -1 -5 -7 -8
right_child=1 -3 -4 5 -6 6 7 -9
leaf_value=0.040716541269444843 0.028674594615762321 -0.052140795378662029 -0.01744870786517189 -0.0012766153826543458 -0.0016845778066200082 0.051551519108167278 -0.032299685069859467 0.015039808312980641
leaf_count=280 189 245 434 13405 429 233 225 545
internal_value=0 -0.15819 -0.0390174 0.00651421 0.177447 -0.00185212 0.151156 0.0300111
internal_count=15985 868 623 15117 709 14408 1003 770
shrinkage=0.0870857


Tree=104
num_leaves=9
num_cat=0
split_feature=33 50 33 35 54 21 10 26
split_gain=3.13113 3.27291 3.10457 6.75423 7.97394 5.94604 7.26656 4.39866
threshold=3.7394616596738568 -0.44024027011878469 -0.92978791388868176 -1.1738037292914483 -0.29219049602736619 -0.62575223754930798 -0.84251032114563984 -1.1783270126363778
decision_type=2 2 2 2 2 2 2 2
left_child=1 -1 5 4 -4 6 -3 -5
right_child=-2 2 3 7 -6 -7 -8 -9
leaf_value=-0.0280326620856154 -0.030341677147460683 -0.031261523488680838 -0.048176457607732044 -0.019207168492615417 -0.00501163291049842 0.035790449972099618 0.016446415299142494 0.0019330925388876242
leaf_count=188 186 184 373 468 715 287 511 13073
internal_value=0 0.00279648 0.00709869 -0.00168818 -0.188716 0.141177 0 0.0132218
internal_count=15985 15799 15611 14629 1088 982 695 13541
shrinkage=0.0870857


Tree=105
num_leaves=9
num_cat=0
split_feature=17 53 33 42 33 33 54 17
split_gain=3.18698 7.43061 4.93594 3.86684 4.20451 10.3068 8.30437 10.4082
threshold=-1.7884930423884515 -0.094727838413367363 -0.81028275320625898 1.9899718092361263 -0.20375131723314013 -0.17335270856900817 -0.19913232985237442 -0.86584349241214797
decision_type=2 2 2 2 2 2 2 2
left_child=1 -1 -3 4 6 -6 7 -2
right_child=3 2 -4 -5 5 -7 -8 -9
leaf_value=0.06221963369600346 0.014093652949953166 0.02526518616332037 -0.024105098241468541 -0.028327529377460678 0.041068077891722482 0.0016036675675317319 0.001775740904534092 -0.019220528897193303
leaf_count=187 622 189 200 262 301 7487 4039 2698
internal_value=0 0.1946 0.00178071 -0.00709537 -0.00184345 0.0381611 -0.0444828 -0.149335
internal_count=15985 576 389 15409 15147 7788 7359 3320
shrinkage=0.0870857


Tree=106
num_leaves=9
num_cat=0
split_feature=58 25 58 52 34 34 45 32
split_gain=2.9488 7.38203 9.12118 7.95838 6.29606 9.02917 8.76317 8.4493
threshold=-0.052408573517206174 -0.027466301525786354 0.15804373049764467 0.37578259374758299 1.0972221434738658 -0.026120724922002514 0.46465408914272477 -0.66410252490139232
decision_type=2 2 2 2 2 2 2 2
left_child=4 2 -2 -4 5 6 -1 -7
right_child=1 -3 3 -5 -6 7 -8 -9
leaf_value=0.0024347645730432772 -0.018777817494354511 -0.011233512916074459 0.0022101505467699754 0.036386127782223235 -0.025415639142975163 0.03777583708339214 -0.016239246266672121 0.0073453969955144692
leaf_count=5980 498 2906 972 396 359 479 1386 3009
internal_value=0 -0.0509412 0.0659576 0.168548 0.0221047 0.033826 -0.014839 0.140589
internal_count=15985 4772 1866 1368 11213 10854 7366 3488
shrinkage=0.0870857


Tree=107
num_leaves=7
num_cat=0
split_feature=14 32 43 34 11 34
split_gain=2.92697 4.876 3.07514 4.65404 8.60656 5.98406
threshold=2.0037368358910017 2.3693680888092259 2.9757118500155828 1.0972221434738658 0.33355502885402422 0.51646440576498642
decision_type=2 2 2 2 2 2
left_child=1 2 3 5 -5 -1
right_child=-2 -3 -4 4 -6 -7
leaf_value=-0.00094721500518238149 0.023952618920940451 -0.054486480388914189 0.030324959716447056 -0.042667629925782088 0.015019530214186835 0.015956247671256116
leaf_count=13783 180 329 183 292 180 1038
internal_value=0 -0.00468486 -0.00122021 -0.00506498 -0.241865 0.00240461
internal_count=15985 15805 15476 15293 472 14821
shrinkage=0.0870857


Tree=108
num_leaves=9
num_cat=0
split_feature=52 48 27 47 6 56 27 33
split_gain=2.83218 3.41445 3.615 7.73709 8.5088 8.49222 4.93731 9.25887
threshold=2.254786507281906 -0.32199135114437205 -0.22207412090520784 -0.26343532275251108 0.28019322479378622 -0.19656727705953217 -0.062759974774504401 -0.8403098881747505
decision_type=2 2 2 2 2 2 2 2
left_child=1 -1 3 5 -5 -3 7 -4
right_child=-2 2 6 4 -6 -7 -8 -9
leaf_value=-0.017577642865666706 0.022235651874954552 0.034496164278962987 0.024049199414265546 0.0085384888861651381 0.051622842971414555 -0.012561956313356363 0.00081194499948802543 -0.014043060061599239
leaf_count=622 186 242 309 2416 215 1780 7847 2368
internal_value=0 -0.00479015 0.00166724 0.0632734 0.14522 -0.0719262 -0.0220136 -0.109826
internal_count=15985 15799 15177 4653 2631 2022 10524 2677
shrinkage=0.0870857


end of trees

feature importances:
Column_52=59
Column_44=42
Column_33=33
Column_22=32
Column_16=28
Column_14=26
Column_32=25
Column_40=25
Column_51=25
Column_54=23
Column_6=22
Column_23=22
Column_18=21
Column_30=20
Column_36=20
Column_8=19
Column_27=19
Column_42=18
Column_26=17
Column_55=17
Column_9=16
Column_12=16
Column_17=16
Column_35=15
Column_43=15
Column_2=14
Column_34=14
Column_41=14
Column_20=13
Column_25=13
Column_0=12
Column_39=12
Column_15=11
Column_58=11
Column_13=10
Column_29=10
Column_37=10
Column_49=10
Column_56=10
Column_24=9
Column_59=9
Column_45=8
Column_50=8
Column_11=7
Column_57=7
Column_1=6
Column_3=6
Column_10=6
Column_38=6
Column_46=6
Column_19=5
Column_28=5
Column_31=5
Column_7=4
Column_48=4
Column_5=3
Column_53=3
Column_4=2
Column_21=2
Column_47=2

parameters:
[boosting: gbdt]
[objective: binary]
[metric: auc]
[tree_learner: serial]
[device_type: cpu]
[data: ]
[valid: ]
[num_iterations: 100]
[learning_rate: 0.0870857]
[num_leaves: 9]
[num_threads: 0]
[max_depth: 5]
[min_data_in_leaf: 180]
[min_sum_hessian_in_leaf: 0.001]
[bagging_fraction: 0.500984]
[bagging_freq: 0]
[bagging_seed: 3]
[feature_fraction: 0.671546]
[feature_fraction_seed: 2]
[early_stopping_round: 0]
[max_delta_step: 0]
[lambda_l1: 0.939537]
[lambda_l2: 0.500222]
[min_gain_to_split: 0]
[drop_rate: 0.1]
[max_drop: 50]
[skip_drop: 0.5]
[xgboost_dart_mode: 0]
[uniform_drop: 0]
[drop_seed: 4]
[top_rate: 0.2]
[other_rate: 0.1]
[min_data_per_group: 100]
[max_cat_threshold: 32]
[cat_l2: 10]
[cat_smooth: 10]
[max_cat_to_onehot: 4]
[top_k: 20]
[monotone_constraints: ]
[feature_contri: ]
[forcedsplits_filename: ]
[refit_decay_rate: 0.9]
[verbosity: 1]
[max_bin: 255]
[min_data_in_bin: 3]
[bin_construct_sample_cnt: 20000]
[histogram_pool_size: -1]
[data_random_seed: 1]
[output_model: LightGBM_model.txt]
[snapshot_freq: -1]
[input_model: ]
[output_result: LightGBM_predict_result.txt]
[initscore_filename: ]
[valid_data_initscores: ]
[pre_partition: 0]
[enable_bundle: 1]
[max_conflict_rate: 0]
[is_enable_sparse: 1]
[sparse_threshold: 0.8]
[use_missing: 1]
[zero_as_missing: 0]
[two_round: 0]
[save_binary: 0]
[enable_load_from_binary_file: 1]
[header: 0]
[label_column: ]
[weight_column: ]
[group_column: ]
[ignore_column: ]
[categorical_feature: ]
[predict_raw_score: 0]
[predict_leaf_index: 0]
[predict_contrib: 0]
[num_iteration_predict: -1]
[pred_early_stop: 0]
[pred_early_stop_freq: 10]
[pred_early_stop_margin: 10]
[convert_model_language: ]
[convert_model: gbdt_prediction.cpp]
[num_class: 1]
[is_unbalance: 0]
[scale_pos_weight: 1]
[sigmoid: 1]
[boost_from_average: 1]
[reg_sqrt: 0]
[alpha: 0.9]
[fair_c: 1]
[poisson_max_delta_step: 0.7]
[tweedie_variance_power: 1.5]
[max_position: 20]
[label_gain: ]
[metric_freq: 1]
[is_provide_training_metric: 0]
[eval_at: ]
[num_machines: 1]
[local_listen_port: 12400]
[time_out: 120]
[machine_list_filename: ]
[machines: ]
[gpu_platform_id: -1]
[gpu_device_id: -1]
[gpu_use_dp: 0]

end of parameters

pandas_categorical:null
