tree
version=v2
num_class=1
num_tree_per_iteration=1
label_index=0
max_feature_idx=59
objective=binary sigmoid:1
feature_names=Column_0 Column_1 Column_2 Column_3 Column_4 Column_5 Column_6 Column_7 Column_8 Column_9 Column_10 Column_11 Column_12 Column_13 Column_14 Column_15 Column_16 Column_17 Column_18 Column_19 Column_20 Column_21 Column_22 Column_23 Column_24 Column_25 Column_26 Column_27 Column_28 Column_29 Column_30 Column_31 Column_32 Column_33 Column_34 Column_35 Column_36 Column_37 Column_38 Column_39 Column_40 Column_41 Column_42 Column_43 Column_44 Column_45 Column_46 Column_47 Column_48 Column_49 Column_50 Column_51 Column_52 Column_53 Column_54 Column_55 Column_56 Column_57 Column_58 Column_59
feature_infos=[-0.18090672409976222:58.995762842088887] [-3.8019871397686011:30.751025751525777] [-1.4210855193444194:3.9855406296495377] [-16.117163452289962:19.15525243047286] [-3.8396613600446599:30.85189389531034] [-1.4357800940590615:4.0366165620575503] [-20.244708583213807:20.500853250376011] [-3.4060360276832458:31.982804992551937] [-1.7583672616231227:3.7934600269946497] [-1.6100914069288284:9.2555253075795587] [-1.4892344454950381:31.452228410151772] [-1.143847925699518:9.134471763254723] [-0.30376044416821174:15.056697242239341] [-1.9005083759304167:34.924377017002598] [-4.227768005810284:2.7089474193020147] [-1.096440329390248:4.7837733210816893] [-2.001113602537345:33.643193289484017] [-3.8472814529337569:2.7861731015285569] [-3.0235701271957773:4.9850237060692955] [-1.9149738134618253:34.920339653963921] [-4.0366758760553729:2.7108311392669102] [-1.096440329390248:4.7837733210816893] [-1.159420235857382:46.356650107845688] [-2.9773389328190736:4.4954392211729814] [-0.26519592647964307:25.026897429485491] [-2.2159033945786968:30.897269171311859] [-2.1156244480924133:5.1452525509312483] [-9.6961039872977413:8.3948591681176037] [-2.2170763830478659:30.892519514046707] [-2.1105439541624973:4.8966952205820782] [-9.8834355540109069:8.645283189642333] [-2.0693919900602764:32.694449314879094] [-2.4120758844429067:4.7087443406851817] [-1.7085172582343069:18.993320309003177] [-1.5152304568379653:36.002067750319185] [-2.4772044033012013:7.9001094941267533] [-7.8451055740951858:11.753983198188998] [-12.959165184226068:14.319843287170558] [-13.6573428961206:19.378656036751746] [-9.6857449002999036:11.741103696270949] [-2.235985227740938:3.9199652526249231] [-7.341137325562924:14.368443401459123] [-27.34404573141159:25.231534429211671] [-3.8558501064446462:6.9624312838166453] [-7.6865312362683955:15.24877760522063] [-1.92900985590358:5.4325268541844389] [-3.4233555628643964:10.214559886720938] [-2.9640830233011366:18.811921081595898] [-0.33285917615530392:23.29313921734537] [-0.82473586209199823:29.958544472373806] [-0.48316902177724491:72.35233385032214] [-0.57313179880651521:10.353905190279786] [-1.9297625111582297:2.728113745885008] [-0.34549217187951209:34.15028470100512] [-0.88858079320840155:45.179249960651738] [-2.1104372001794345:5.7266509001147545] [-0.30319016284899136:34.378210865469036] [-0.68574853906453315:8.2806853307703214] [-0.79929141383959612:20.63626363767273] [-1.3100122403508156:46.291904673989123]
tree_sizes=805 819 830 817 828 823 824 823 827 820 824 824 831 834 834 826 828 834 833 827 831 832 813 815 830 828 834 833 820 822 830 826 833 836 836 838 796 835 838 837 836 834 833 836 830 843 836 836 837 836 819 839 843 835 826 838 840 841 839 814 839 833 834 838 839 805 830 835 839 832 812 833 821 841 827 835

Tree=0
num_leaves=9
num_cat=0
split_feature=52 34 44 54 52 43 52 52
split_gain=562.58 503.639 191.121 107.675 95.9119 70.5858 63.5505 41.1757
threshold=1.2229725413019041 1.9583239996937654 -0.47821828935982763 -0.21871402772261408 1.9556086202953671 1.2011467845794623 0.4840819853951901 -0.24301823649908758
decision_type=2 2 2 2 2 2 2 2
left_child=1 2 7 6 -2 -5 -4 -1
right_child=4 -3 3 5 -6 -7 -8 -9
leaf_value=-1.1905109319312319 -1.0317845173534281 -0.8634018459110786 -1.1365634815934018 -1.0957900050396188 -0.93351171967248792 -1.0172364576685173 -1.0795601825069083 -1.1421063863326808
leaf_count=1554 1574 308 5052 4077 558 523 928 1413
internal_value=0 -0.170141 -0.237164 -0.0911692 1.10451 0.17394 -0.295925 -0.755524
internal_count=15987 13855 13547 10580 2132 4600 5980 2967
shrinkage=1


Tree=1
num_leaves=9
num_cat=0
split_feature=40 43 32 41 14 46 40 43
split_gain=436.246 399.229 145.44 143.783 81.8888 78.199 58.3884 34.6499
threshold=-1.0275374456373534 1.8938350450859487 -1.2130313131645081 -0.65656857554152237 1.5227063929168059 -0.23839699577521836 -1.5093640530781449 -0.31703729732806313
decision_type=2 2 2 2 2 2 2 2
left_child=6 3 -3 -2 5 -5 -1 -8
right_child=1 2 -4 4 -6 -7 7 -9
leaf_value=0.12108079758988487 -0.070767821757770508 0.25998487997097641 0.064394852235928085 -0.033346917267586672 0.083676702553417595 0.001619287932310022 0.029025822939059202 0.08793516093139446
leaf_count=768 2168 221 434 5358 339 5035 949 715
internal_value=0 -0.166564 1.54268 -0.259547 -0.150011 -0.187224 0.878926 0.628587
internal_count=15987 13555 655 12900 10732 10393 2432 1664
shrinkage=0.0870857


Tree=2
num_leaves=9
num_cat=0
split_feature=34 44 54 55 13 20 18 56
split_gain=266.651 184.919 172.74 77.5803 89.3637 51.4592 37.4915 34.2063
threshold=1.9583239996937654 -0.73215769246794105 -0.35387675969043281 1.0644471954360342 -0.08159937926004604 0.022293358339853141 0.2398085350535179 0.053890517103084366
decision_type=2 2 2 2 2 2 2 2
left_child=1 7 5 4 -4 -3 -7 -1
right_child=-2 2 3 -5 -6 6 -8 -9
leaf_value=-0.038474638212639627 0.16931638421564943 -0.041222561857637098 -0.012638759783174134 0.060087730778029938 0.032064341827669582 -0.016920410050431392 0.053391424772309265 -0.093147332547231898
leaf_count=1225 310 3306 3333 1576 3907 1010 441 879
internal_value=0 -0.0472369 0.0489272 0.237456 0.13387 -0.311126 0.0492323 -0.703764
internal_count=15987 15677 13573 8816 7240 4757 1451 2104
shrinkage=0.0870857


Tree=3
num_leaves=9
num_cat=0
split_feature=52 40 44 52 19 54 44 17
split_gain=348.946 306.47 118.05 87.4926 60.4811 47.7963 41.7192 49.7649
threshold=0.76071318084229045 2.0852052965102295 -0.25032700220164117 1.8700483885751613 0.30089361306740797 -0.2624062320094121 -1.0886425332406413 1.4533569721635324
decision_type=2 2 2 2 2 2 2 2
left_child=1 2 6 -2 -3 -4 -1 -8
right_child=3 4 5 -5 -6 -7 7 -9
leaf_value=-0.094129697122409345 0.036674042239095705 0.062143247119475171 -0.025908559336723692 0.11237055661349014 0.19726112274537114 0.0054173765434092531 -0.050231042518267287 0.049605415933958216
leaf_count=955 3024 279 4144 683 217 3818 2650 217
internal_value=0 -0.197391 -0.280135 0.596307 1.4554 -0.12068 -0.628037 -0.485041
internal_count=15987 12280 11784 3707 496 7962 3822 2867
shrinkage=0.0870857


Tree=4
num_leaves=9
num_cat=0
split_feature=52 34 44 52 44 23 22 52
split_gain=293.09 241.351 115.038 76.0118 52.7919 50.3657 38.9373 38.9147
threshold=0.60896826037875929 1.6613492954704783 0.14209839390805362 1.8700483885751613 -1.0886425332406413 0.035210694919897749 -0.15806086768182856 -0.6254366370153096
decision_type=2 2 2 2 2 2 2 2
left_child=1 2 4 -2 -1 -6 7 -4
right_child=3 -3 6 -5 5 -7 -8 -9
leaf_value=-0.091811153157674047 0.03031590441107801 0.12592599490871476 -0.04534023533216771 0.098453277078008578 -0.05322320721301349 -0.012825822779098743 0.021874771121114217 0.0019303841298764818
leaf_count=929 3654 365 1133 683 2981 2415 1866 1961
internal_value=0 -0.203519 -0.273243 0.487189 -0.490258 -0.403116 -0.00999287 -0.172946
internal_count=15987 11650 11285 4337 6325 5396 4960 3094
shrinkage=0.0870857


Tree=5
num_leaves=9
num_cat=0
split_feature=52 43 41 32 52 22 20 52
split_gain=243.156 223.321 96.0091 85.4325 71.3226 45.6181 39.6837 31.5411
threshold=1.1777588812495092 1.6199125094023656 -0.64480510583311912 -1.2130313131645081 -0.50302734622939294 0.17200520773075578 1.4676697993002521 1.9556086202953671
decision_type=2 2 2 2 2 2 2 2
left_child=1 2 -1 -3 5 -4 -6 -2
right_child=7 3 4 -5 6 -7 -8 -9
leaf_value=-0.060269621920587726 0.042375938486445393 0.16794893745847958 -0.045215230946605123 0.039434041928299163 -0.0021129226434165784 0.0081975363084554904 0.068354812343301402 0.093740235618723119
leaf_count=2212 1700 243 3087 634 6405 827 321 558
internal_value=0 -0.128608 -0.21434 0.923803 -0.12606 -0.382814 0.0164353 0.647518
internal_count=15987 13729 12852 877 10640 3914 6726 2258
shrinkage=0.0870857


Tree=6
num_leaves=9
num_cat=0
split_feature=52 43 44 26 52 44 43 22
split_gain=211.761 180.262 97.5663 58.83 47.1482 42.6492 36.8019 34.9779
threshold=0.60896826037875929 1.9852606104117581 0.14209839390805362 -0.94320458561559672 1.9556086202953671 -1.0886425332406413 -0.29182096154020287 -0.19975299078212497
decision_type=2 2 2 2 2 2 2 2
left_child=1 2 5 -3 6 -1 -2 -7
right_child=4 3 -4 -5 -6 7 -8 -9
leaf_value=-0.086633059837932916 0.008437108439250933 0.14387020782331336 -0.00081884162231594081 0.02221499887301509 0.083522510692620996 -0.049960675500987622 0.047217577684374443 -0.015510016188897559
leaf_count=928 2012 263 4868 291 558 2757 1767 2543
internal_value=0 -0.178372 -0.253803 0.984422 0.40539 -0.460817 0.306945 -0.381858
internal_count=15987 11650 11096 554 4337 6228 3779 5300
shrinkage=0.0870857


Tree=7
num_leaves=9
num_cat=0
split_feature=52 40 44 44 44 23 20 13
split_gain=176.128 171.071 79.131 45.0441 43.3659 41.0271 37.1681 33.9286
threshold=0.53777341008207225 2.0852052965102295 0.14209839390805362 0.13598535285081434 -1.0886425332406413 0.035210694919897749 1.4961013165567554 0.30093162842757415
decision_type=2 2 2 2 2 2 2 2
left_child=1 2 4 6 -1 -6 -2 -3
right_child=3 7 -4 -5 5 -7 -8 -9
leaf_value=-0.087080775372440591 0.007440868386392417 0.041338959298719474 -0.0020676541343449917 0.054825385370046234 -0.048364737791769481 -0.010198719080528929 0.075313806720672047 0.13999628516514534
leaf_count=904 2593 279 4758 1720 2885 2292 339 217
internal_value=0 -0.172666 -0.245344 0.349745 -0.437501 -0.357692 0.178502 1.01953
internal_count=15987 11335 10839 4652 6081 5177 2932 496
shrinkage=0.0870857


Tree=8
num_leaves=9
num_cat=0
split_feature=52 43 44 52 32 17 46 2
split_gain=151.895 141.789 79.4244 54.8394 54.0168 35.4294 28.4648 23.6008
threshold=1.2229725413019041 1.6199125094023656 -0.78654840518787761 -0.6254366370153096 -1.2130313131645081 1.5926661403880378 0.21749554673340785 -0.39572660253310782
decision_type=2 2 2 2 2 2 2 2
left_child=1 2 -1 6 -3 -5 -4 -2
right_child=7 4 3 5 -6 -7 -8 -9
leaf_value=-0.062902315906246495 0.075174959490819371 0.13240683812464557 -0.04506584370442112 -0.0031009449694029047 0.030928657193983671 0.066942311881690503 -0.0031345405249088212 0.031730872875349779
leaf_count=1668 621 243 2403 7603 637 280 1021 1511
internal_value=0 -0.102911 -0.173094 -0.108465 0.723993 -0.00318176 -0.367348 0.51465
internal_count=15987 13855 12975 11307 880 7883 3424 2132
shrinkage=0.0870857


Tree=9
num_leaves=9
num_cat=0
split_feature=52 40 41 52 52 46 16 43
split_gain=128.652 123.167 57.1356 35.2049 34.0043 28.6971 28.3129 27.8222
threshold=0.60896826037875929 2.0852052965102295 0.01346302810770424 -0.11721503270377399 1.7224186563429746 0.34269881229457166 0.10729328465843659 0.86041556843834377
decision_type=2 2 2 2 2 2 2 2
left_child=1 2 3 -1 7 -4 -3 -2
right_child=4 6 5 -5 -6 -7 -8 -9
leaf_value=-0.049772492097008604 0.01054851120177849 0.039021875557150969 -0.013407767085047732 -0.012215968905453459 0.056693549555653935 0.018561550107564651 0.13146927939628211 0.06458908796996371
leaf_count=3278 3008 316 4417 1903 935 1556 180 394
internal_value=0 -0.144854 -0.206123 -0.4056 0.307784 -0.0529433 0.866047 0.196871
internal_count=15987 11650 11154 5181 4337 5973 496 3402
shrinkage=0.0870857


Tree=10
num_leaves=9
num_cat=0
split_feature=22 26 44 23 54 23 20 20
split_gain=101.651 99.9162 58.6723 41.9297 34.9501 31.5848 30.9048 25.9701
threshold=-0.18798151564206331 -1.0577096940150934 0.19166373438979542 -1.2814969918008732 -0.56569869098773462 -0.83897647527821273 1.8439078632092454 1.4961013165567554
decision_type=2 2 2 2 2 2 2 2
left_child=2 -2 5 -3 -5 -1 -6 -7
right_child=1 3 -4 4 6 7 -8 -9
leaf_value=-0.06564289373248966 0.087301410779679664 -0.066083702118380175 0.0033218302378513424 -0.051893102444803087 0.012931841997328381 -0.027417501204217921 0.092569610482025624 0.040303431145932114
leaf_count=1104 647 324 3518 372 5949 3644 190 239
internal_value=0 0.190012 -0.184569 0.10186 0.140585 -0.360484 0.179844 -0.261063
internal_count=15987 7482 8505 6835 6511 4987 6139 3883
shrinkage=0.0870857


Tree=11
num_leaves=9
num_cat=0
split_feature=52 22 52 32 26 14 41 41
split_gain=108.146 91.649 74.4232 71.0167 35.4389 30.2773 24.5933 23.3767
threshold=1.056033688134898 0.50693432678623707 -0.6254366370153096 -1.3259121440597321 -0.91673833104685687 1.4218797416683195 -0.32871308894831308 -0.41310505985039442
decision_type=2 2 2 2 2 2 2 2
left_child=1 2 6 -3 -4 -6 -1 -2
right_child=7 3 4 -5 5 -7 -8 -9
leaf_value=-0.073396794690739037 0.0066993935741867742 0.12029934405206971 0.028379228196768108 0.014319568959609482 -0.015305334115073435 0.035448282040927891 -0.03150159400958296 0.0448044997166843
leaf_count=1156 840 250 1074 1615 6210 513 2533 1796
internal_value=0 -0.10009 -0.186651 0.359994 -0.0600908 -0.127179 -0.49168 0.380269
internal_count=15987 13351 11486 1865 7797 6723 3689 2636
shrinkage=0.0870857


Tree=12
num_leaves=9
num_cat=0
split_feature=40 43 44 10 40 44 22 38
split_gain=84.1532 90.1279 57.5903 38.4717 37.1949 30.0815 29.6825 18.7512
threshold=-1.0275374456373534 1.3176123667339206 -1.2544621581690738 0.58468619072448169 0.64723881427733831 0.14209839390805362 0.23875245568311557 -0.49024611255744366
decision_type=2 2 2 2 2 2 2 2
left_child=7 2 -2 -3 5 -4 -6 -1
right_child=1 3 4 -5 6 -7 -8 -9
leaf_value=0.0057516810445152455 -0.079927002707511047 0.011032623564035275 -0.015694260949506596 0.080099987983500875 -0.045612887051791909 0.0085683819279325432 0.0071818827562269314 0.041154529587610414
leaf_count=770 805 731 4732 506 2178 4031 572 1662
internal_value=0 -0.0854744 -0.154791 0.474518 -0.11775 -0.044469 -0.376912 0.349023
internal_count=15987 13555 12318 1237 11513 8763 2750 2432
shrinkage=0.0870857


Tree=13
num_leaves=9
num_cat=0
split_feature=44 22 29 18 55 56 29 8
split_gain=74.7315 67.2432 55.8686 48.2221 37.3127 21.1016 19.0757 18.7698
threshold=-0.73215769246794105 -0.18480446563676436 -1.3904220721044964 -0.069288852844876306 0.066418407680237657 0.053890517103084366 -0.92949976246218524 -0.81933355726034651
decision_type=2 2 2 2 2 2 2 2
left_child=5 4 -3 6 -2 -1 -4 -6
right_child=1 2 3 -5 7 -7 -8 -9
leaf_value=-0.023903920650680012 -0.02509326117089021 0.1076736617549037 0.030291030800374645 0.030992643291358996 0.028110328529547254 -0.073968651054006143 -0.011568252274336908 -0.0040289489242674855
leaf_count=1231 3716 235 503 3331 941 881 2419 2730
internal_value=0 0.0522161 0.217489 0.17287 -0.105553 -0.480868 -0.0437161 0.0489388
internal_count=15987 13875 6488 6253 7387 2112 2922 3671
shrinkage=0.0870857


Tree=14
num_leaves=9
num_cat=0
split_feature=40 16 44 6 25 22 53 17
split_gain=68.3654 75.8313 52.8833 42.1209 32.6782 26.7388 19.3802 17.1019
threshold=-1.0275374456373534 0.11849025416171012 -0.46950311347079371 0.013521851341373651 -0.071007606487668573 -0.39979774539804575 0.014600379904835493 1.4533569721635324
decision_type=2 2 2 2 2 2 2 2
left_child=-1 2 6 -4 -3 -5 7 -2
right_child=1 4 3 5 -6 -7 -8 -9
leaf_value=0.027224093157822458 -0.039284812492383588 0.11648618386724666 0.031929456285610898 -0.02889022905557603 0.026220698440806586 -0.0028490957504181602 -0.088167181298361888 0.021865001873231336
leaf_count=2432 2029 192 1124 2465 672 6307 549 217
internal_value=0 -0.0781972 -0.129106 -0.0552617 0.571834 -0.112368 -0.467345 -0.366805
internal_count=15987 13555 12691 9896 864 8772 2795 2246
shrinkage=0.0870857


Tree=15
num_leaves=9
num_cat=0
split_feature=52 32 41 23 13 52 43 53
split_gain=72.9962 65.8232 41.6492 42.737 27.2097 24.78 24.5112 24.1254
threshold=0.4840819853951901 -1.4970216971381938 -0.91701834549327066 0.10830080835039158 -0.076518306127044036 2.2579223969808919 -0.35122421643026658 0.07716012906413719
decision_type=2 2 2 2 2 2 2 2
left_child=1 4 -3 7 -1 6 -2 -4
right_child=5 2 3 -5 -6 -7 -8 -9
leaf_value=0.013677039436635391 0.0016158511638597313 -0.063032494188169419 -0.02823472073912197 0.0080027905363514052 0.11060159845784416 0.080731474356264918 0.029252361774899645 0.0050276792164096759
leaf_count=261 2425 1165 5027 3304 212 186 2293 1114
internal_value=0 -0.123019 -0.167598 -0.123232 0.696396 0.209972 0.175019 -0.247182
internal_count=15987 11083 10610 9445 473 4904 4718 6141
shrinkage=0.0870857


Tree=16
num_leaves=9
num_cat=0
split_feature=52 16 44 23 52 30 28 55
split_gain=60.9157 59.8963 42.4697 28.7873 22.4819 22.2258 22.0046 20.4079
threshold=0.4840819853951901 0.17147768763201907 0.22987455797386944 -0.97593991915629597 1.9556086202953671 -0.99749581473067406 -0.023021347877965875 0.64104036577979839
decision_type=2 2 2 2 2 2 2 2
left_child=1 2 3 -1 7 -5 -3 -2
right_child=4 6 -4 5 -6 -7 -8 -9
leaf_value=-0.06011227316167931 0.025066892923674478 0.10520868460308168 0.0017536608735219785 -0.058356228078231723 0.04938145741134195 -0.013332762179257092 0.016317341003875083 -0.0010166717688335461
leaf_count=1245 2086 203 4150 713 558 4511 261 2260
internal_value=0 -0.113373 -0.155703 -0.296241 0.190817 -0.217047 0.679589 0.131511
internal_count=15987 11083 10619 6469 4904 5224 464 4346
shrinkage=0.0870857


Tree=17
num_leaves=9
num_cat=0
split_feature=23 32 40 44 44 14 2 20
split_gain=51.5781 46.4465 38.1563 33.5603 28.8544 32.0336 13.3273 11.4767
threshold=-0.92423344821805997 -1.5402872038248361 -1.1083689398638392 0.94514605630855753 -1.2544621581690738 1.5227063929168059 -0.25621377560241387 0.98493355701458452
decision_type=2 2 2 2 2 2 2 2
left_child=3 -2 -3 6 -4 -6 -1 -8
right_child=1 2 4 -5 5 -7 7 -9
leaf_value=-0.023029733971477673 0.084662664151614206 0.025803524661868995 -0.062807835733555001 0.022796280057258294 -0.003334399503951666 0.046395733891225102 -0.071666634602915877 -0.014697645328588511
leaf_count=1129 274 1919 553 405 9983 506 939 279
internal_value=0 0.0552765 0.0336971 -0.321273 -0.0279158 -0.0054305 -0.454533 -0.669025
internal_count=15987 13235 12961 2752 11042 10489 2347 1218
shrinkage=0.0870857


Tree=18
num_leaves=9
num_cat=0
split_feature=22 52 8 18 52 17 8 41
split_gain=51.0491 42.1934 38.5573 37.7947 28.0776 23.2878 20.1655 19.2548
threshold=-0.18798151564206331 -0.50302734622939294 -0.97093659324525194 -0.16114556734634697 1.9556086202953671 1.7087959866261675 -0.32871799852860289 0.11103540319039874
decision_type=2 2 2 2 2 2 2 2
left_child=1 6 -2 -4 7 -5 -1 -3
right_child=2 4 3 5 -6 -7 -8 -9
leaf_value=-0.018956355089838544 0.043755685114319348 -0.018763261902830085 -0.015097307408610507 0.013162540295023666 0.048821728742130963 0.079298396303345439 -0.059184416536661379 0.0061498406148383054
leaf_count=1578 1138 2770 2517 3626 301 201 1436 2420
internal_value=0 -0.135681 0.133586 0.0578312 -0.0248536 0.198185 -0.406966 -0.0731223
internal_count=15987 8505 7482 6344 5491 3827 3014 5190
shrinkage=0.0870857


Tree=19
num_leaves=9
num_cat=0
split_feature=52 43 44 0 23 56 26 9
split_gain=44.8554 50.7569 36.1876 28.7925 20.5187 21.7118 18.8231 22.1843
threshold=0.040445373948738476 2.5217080761939661 -0.61201032701236824 -0.12698115072847441 0.11609686319684169 0.10018482462660439 -0.91673833104685687 0.75622368539453777
decision_type=2 2 2 2 2 2 2 2
left_child=1 2 -1 -2 5 -4 -5 -8
right_child=3 -3 4 6 -6 -7 7 -9
leaf_value=-0.054157864676829363 0.074352131136125543 0.070616064057895361 -0.023704563185271574 0.044614242553428968 0.0069455079684675744 0.018067093254354068 0.00045563738231690231 0.033024408819643428
leaf_count=1520 244 265 4176 472 2152 576 5627 955
internal_value=0 -0.13259 -0.172673 0.120359 -0.109582 -0.203708 0.0924311 0.059459
internal_count=15987 8689 8424 7298 6904 4752 7054 6582
shrinkage=0.0870857


Tree=20
num_leaves=9
num_cat=0
split_feature=23 32 52 8 6 16 27 56
split_gain=39.9635 35.356 37.0877 30.5701 25.3462 22.1045 18.4093 13.755
threshold=-0.959561297794434 -1.5402872038248361 1.5388778236218805 -0.24230271028703684 -0.83326810697399278 0.11849025416171012 -0.65137625095621754 0.16670267622168547
decision_type=2 2 2 2 2 2 2 2
left_child=3 -2 4 7 6 -6 -3 -1
right_child=1 2 -4 -5 5 -7 -8 -9
leaf_value=-0.017188276553482075 0.074081345828281076 -0.013535039721345402 0.031704940878925961 -0.056240213121924197 -0.0065232146617452387 0.031159782463257412 0.059441483513731526 0.033305756288066153
leaf_count=1121 275 259 1201 1238 10532 646 450 265
internal_value=0 0.0466518 0.0279405 -0.297224 -0.0185427 -0.046481 0.426829 -0.0690958
internal_count=15987 13363 13088 2624 11887 11178 709 1386
shrinkage=0.0870857


Tree=21
num_leaves=9
num_cat=0
split_feature=30 30 16 3 44 14 43 2
split_gain=38.6875 33.0119 34.0497 28.9463 22.8286 21.704 15.677 15.3234
threshold=-0.99749581473067406 0.58986566335282953 0.14693864734433634 0.0063986018024728844 1.4283944832067257 0.075032848336945221 1.2011467845794623 -0.34148446205855781
decision_type=2 2 2 2 2 2 2 2
left_child=7 2 3 -2 -5 -3 -4 -1
right_child=1 5 6 4 -6 -7 -8 -9
leaf_value=-0.0097155163444327345 0.038232237579932014 -0.037466388749995416 0.011947169422792722 -0.00037098351380929998 0.054432615726945285 -0.00061234699972082343 0.080582414303407568 -0.061268805396789132
leaf_count=521 910 1455 237 9691 284 1666 344 879
internal_value=0 0.0299419 0.0849354 0.054096 0.0158343 -0.201253 0.618794 -0.441474
internal_count=15987 14587 11466 10885 9975 3121 581 1400
shrinkage=0.0870857


Tree=22
num_leaves=9
num_cat=0
split_feature=22 29 18 52 52 30 39 44
split_gain=39.3393 35.1312 32.1105 29.6329 23.4347 20.5157 20.4594 18.5973
threshold=-0.18798151564206331 -0.92949976246218524 -0.16114556734634697 -1.0270294724294347 1.9556086202953671 0.069620958161830199 0.18963354707195887 0.19166373438979542
decision_type=2 2 2 2 2 2 2 2
left_child=3 5 -3 -1 7 -2 -4 -5
right_child=1 2 6 4 -6 -7 -8 -9
leaf_value=-0.046015153489867511 0.062988286094653415 -0.014088001485376953 0.027843784175809884 -0.019480537269643897 0.040995098408228639 -0 -0.00069072670862845194 0.002494601339858603
leaf_count=1339 681 2543 2264 3920 301 271 1723 2945
internal_value=0 0.117263 0.0529924 -0.120458 -0.0672426 0.515875 0.17728 -0.103036
internal_count=15987 7482 6530 8505 7166 952 3987 6865
shrinkage=0.0870857


Tree=23
num_leaves=9
num_cat=0
split_feature=44 22 29 18 40 39 30 37
split_gain=35.822 30.1354 27.0103 26.0747 23.72 19.0625 16.9167 12.7848
threshold=-1.4215748974975575 -0.18798151564206331 -0.92949976246218524 -0.17999163951945754 -0.19683773615765512 0.18963354707195887 0.069620958161830199 0.35294680994969724
decision_type=2 2 2 2 2 2 2 2
left_child=-1 4 6 -4 7 -5 -3 -2
right_child=1 2 3 5 -6 -7 -8 -9
leaf_value=-0.065422570232400903 -0.0044438467596667475 0.057134666575600568 -0.01223544005913414 0.026773988236035239 -0.020086077846774436 -0.00067715491001920757 -0 0.021108705450643854
leaf_count=704 2569 681 2327 2246 4423 1703 271 1063
internal_value=0 0.0156889 0.120382 0.0626987 -0.0902629 0.171462 0.468768 0.0344033
internal_count=15987 15283 7228 6276 8055 3949 952 3632
shrinkage=0.0870857


Tree=24
num_leaves=9
num_cat=0
split_feature=54 25 22 20 41 33 32 32
split_gain=31.3102 29.6004 25.1 29.5829 28.6393 20.3564 13.4038 12.9314
threshold=-0.49377128473226323 -0.13833487575732287 -0.41085115884458751 1.6146789506745949 -0.54238387202983163 -0.19323258608660135 0.38298277798277502 -1.3259121440597321
decision_type=2 2 2 2 2 2 2 2
left_child=-1 7 6 4 -4 -5 -3 -2
right_child=1 2 3 5 -6 -7 -8 -9
leaf_value=-0.025086426198874277 0.082426596585270379 -0.0083053576328007885 -0.022953609980234393 0.00092625254587152259 0.0078690696750491305 0.08448598997377553 -0.041817460184746885 0.02398125271871358
leaf_count=2444 210 2263 1834 193 7090 275 857 821
internal_value=0 0.0379071 0.00490143 0.0628961 0.0302951 0.598681 -0.189293 0.41132
internal_count=15987 13543 12512 9392 8924 468 3120 1031
shrinkage=0.0870857


Tree=25
num_leaves=9
num_cat=0
split_feature=44 30 20 32 18 18 50 46
split_gain=30.146 25.2428 24.855 26.0288 17.8338 17.2593 14.1883 10.8698
threshold=-1.4215748974975575 -0.99749581473067406 1.4676697993002521 -1.633408825094121 -0.32663198003723742 0.40299946734303577 0.16131734682444443 -0.16103105238467416
decision_type=2 2 2 2 2 2 2 2
left_child=-1 6 3 -3 -5 -4 -2 -7
right_child=1 2 5 4 -6 7 -8 -9
leaf_value=-0.062067963804606212 -0.044313271843930899 0.060125742079566447 0.0046052776171443223 -0.010638027808722967 0.0053257085415336905 0.094073205866300247 0.01806980492267635 0.029221452588577411
leaf_count=704 1046 296 375 4897 8082 196 185 206
internal_value=0 0.0138821 0.0389513 0.0123085 -0.00347227 0.412455 -0.362894 0.712843
internal_count=15987 15283 14052 13275 12979 777 1231 402
shrinkage=0.0870857


Tree=26
num_leaves=9
num_cat=0
split_feature=44 54 25 40 16 12 0 27
split_gain=27.8585 22.1788 24.3739 18.5315 21.6497 14.944 14.9166 11.9905
threshold=-0.73215769246794105 -0.49377128473226323 -0.13833487575732287 0.66365391246659322 0.08951462958818858 -0.27033848564173174 -0.13433393567872379 0.18100164440609351
decision_type=2 2 2 2 2 2 2 2
left_child=5 -2 7 6 -5 -1 -4 -3
right_child=1 2 3 4 -6 -7 -8 -9
leaf_value=-0.051340644363894287 -0.019675909533586094 0.050726844484416861 0.055146016946720597 -0.029367437621809715 0.043746196387203576 -0.0072024442483986503 0.004672753827536508 0.0005679186888372605
leaf_count=1130 2070 662 225 1439 183 982 9016 280
internal_value=0 0.0299615 0.0646712 0.0326961 -0.218864 -0.324314 0.0691721 0.414578
internal_count=15987 13875 11805 10863 1622 2112 9241 942
shrinkage=0.0870857


Tree=27
num_leaves=9
num_cat=0
split_feature=23 52 17 44 8 6 6 52
split_gain=28.6376 22.9675 21.0998 21.8127 20.5713 19.8388 12.3777 10.4872
threshold=-0.92423344821805997 1.5388778236218805 -1.7929672554544771 -1.4215748974975575 -0.24230271028703684 -0.83326810697399278 0.013521851341373651 -0.72227846872393831
decision_type=2 2 2 2 2 2 2 2
left_child=4 2 -2 -4 6 -5 -1 -8
right_child=1 -3 3 5 -6 -7 7 -9
leaf_value=0.035197210436273531 0.0537688450236452 0.026580180040136493 -0.06952617055871041 0.035811934200371584 -0.047619779639548353 -0.002052598469993634 -0.038162761908161764 0.001062287503318397
leaf_count=231 343 1196 421 613 1293 10662 599 629
internal_value=0 0.0405225 0.00321463 -0.012948 -0.250434 0.000368691 -0.069602 -0.176527
internal_count=15987 13235 12039 11696 2752 11275 1459 1228
shrinkage=0.0870857


Tree=28
num_leaves=9
num_cat=0
split_feature=23 22 32 17 18 44 3 20
split_gain=24.866 19.9458 17.8018 17.6655 16.7091 14.488 14.3596 14.3045
threshold=-1.2624657792071809 -0.18480446563676436 -1.0661871994282546 -1.7929672554544771 -0.71662771833426675 0.19166373438979542 -0.50593891635556909 1.4961013165567554
decision_type=2 2 2 2 2 2 2 2
left_child=2 5 -1 -3 -5 7 -6 -2
right_child=1 3 -4 4 6 -7 -8 -9
leaf_value=0.008299802658570915 -0.018272355203899741 0.073441640280941037 -0.04785267354637928 -0.02207312611723241 0.053315499802642677 0.004255714605153409 0.0089561056544935 0.029692962598552919
leaf_count=331 4132 196 1141 730 290 3118 5774 275
internal_value=0 0.024997 -0.346748 0.111174 0.0918311 -0.0655433 0.129856 -0.16696
internal_count=15987 14515 1472 6990 6794 7525 6064 4407
shrinkage=0.0870857


Tree=29
num_leaves=9
num_cat=0
split_feature=30 16 29 25 30 32 18 18
split_gain=23.0148 19.3688 18.0637 17.4147 16.5112 14.8029 13.7717 13.1097
threshold=-1.2757623632585451 0.0040908743457202705 -0.92949976246218524 -0.0047510726607189408 1.9907627476810832 -0.31129492198194902 -0.32663198003723742 0.65997130952746164
decision_type=2 2 2 2 2 2 2 2
left_child=5 3 -3 4 6 -1 -2 -4
right_child=1 2 7 -5 -6 -7 -8 -9
leaf_value=-0.0017871051290574869 -0.0077413353085974647 0.049394056240845897 0 -0.015114289870866817 -0.068080438855976894 -0.066099284097570141 0.011459440333934239 0.026217828721895226
leaf_count=360 2738 509 2690 3678 198 662 4093 1059
internal_value=0 0.0181779 0.151147 -0.0370429 0.0314234 -0.437145 0.0486425 0.0930967
internal_count=15987 14965 4258 10707 7029 1022 6831 3749
shrinkage=0.0870857


Tree=30
num_leaves=9
num_cat=0
split_feature=52 41 43 2 37 53 12 9
split_gain=24.1386 22.5853 19.3586 14.7484 14.7039 14.6477 13.1973 13.0291
threshold=0.29777664983429675 -1.3029777763782018 2.7227731321266702 -1.1036252199213339 -0.48011049277816314 -0.12363625934115756 -0.28298168961371256 0.52603401110059833
decision_type=2 2 2 2 2 2 2 2
left_child=1 -1 4 -2 6 -6 -3 -5
right_child=3 2 -4 7 5 -7 -8 -9
leaf_value=-0.070740319622930051 0.046336781768298411 -0.022302968024296654 0.056099169228014521 0.0017044763263466393 -0.022270575044776485 -0.002014285698739242 0.017715841206841127 0.025081869145518222
leaf_count=660 337 500 215 4393 3908 3330 1525 1119
internal_value=0 -0.084626 -0.0635503 0.104596 -0.082424 -0.139308 0.095274 0.0748516
internal_count=15987 10138 9478 5849 9263 7238 2025 5512
shrinkage=0.0870857


Tree=31
num_leaves=9
num_cat=0
split_feature=52 44 6 16 8 22 9 4
split_gain=21.5033 23.285 22.1362 22.4216 15.3336 14.9216 18.8928 14.5392
threshold=1.246915448323864 -1.4997569483668904 -0.61245295457531645 0.11849025416171012 -0.97093659324525194 -0.50042844668640651 0.21909554113028828 0.046769590338648331
decision_type=2 2 2 2 2 2 2 2
left_child=1 -1 -3 -4 -2 -6 -7 -5
right_child=4 2 3 7 5 6 -8 -9
leaf_value=-0.071005090888004108 0.063657922281209353 0.028617423233121247 -0.0074725317995668139 0.047109599865247098 -0.037632066142407911 0.0024082588342125765 0.042697508004748828 -0.012834681724146776
leaf_count=614 195 926 11617 541 180 1113 581 220
internal_value=0 -0.0425129 -0.0285985 -0.0570501 0.189236 0.127939 0.18924 0.328301
internal_count=15987 13918 13304 12378 2069 1874 1694 761
shrinkage=0.0870857


Tree=32
num_leaves=9
num_cat=0
split_feature=23 0 29 12 24 26 42 20
split_gain=19.3908 17.6509 19.8499 15.2149 15.5894 15.1553 12.1992 10.7129
threshold=-0.92423344821805997 -0.12996320429551925 -1.3904220721044964 -0.27994367429310646 2.9053805598167313 -0.40256545537250743 -0.25535386556556611 0.88967443328635532
decision_type=2 2 2 2 2 2 2 2
left_child=5 -2 -3 -4 -5 6 -1 -7
right_child=1 2 3 4 -6 7 -8 -9
leaf_value=-0.032709140857865075 0.04341565199695499 0.057369645794658725 -0.011281601541277508 0.006360679884525329 -0.042521886861030499 -0.053719963462991099 0.010265910004374273 -0.000935433453031355
leaf_count=441 406 271 3824 8482 252 1019 936 356
internal_value=0 0.0329767 0.0163355 0.00225358 0.0545695 -0.21056 -0.0399319 -0.45158
internal_count=15987 13235 12829 12558 8734 2752 1377 1375
shrinkage=0.0870857


Tree=33
num_leaves=9
num_cat=0
split_feature=52 25 31 5 0 20 33 38
split_gain=19.0042 19.8064 20.7083 15.3611 14.1438 12.8713 15.1543 12.9682
threshold=-0.030963225937291033 -0.076149560250106899 -0.019813803541922668 -0.13697408136150366 -0.12698115072847441 1.2403288935083603 -0.44929333731363469 0.015191256638387969
decision_type=2 2 2 2 2 2 2 2
left_child=1 2 -1 -3 -2 7 -7 -6
right_child=4 3 -4 -5 5 6 -8 -9
leaf_value=0.0035023895784704225 0.048478826283978746 -0.0068918035631592087 0.081142302877504388 -0.031635649811568835 -0.007754936735901382 -0.011946920414935589 0.037456279326311161 0.01005113114774508
leaf_count=1430 265 4135 186 2500 3372 317 791 2991
internal_value=0 -0.0955548 0.144177 -0.164676 0.0729355 0.0529584 0.271091 0.0118814
internal_count=15987 8251 1616 6635 7736 7471 1108 6363
shrinkage=0.0870857


Tree=34
num_leaves=9
num_cat=0
split_feature=22 17 44 18 30 58 52 2
split_gain=18.9194 19.6227 17.4131 13.4221 12.1991 14.4865 11.5296 21.0813
threshold=-0.40861391167731559 1.6280340295213147 -0.24489137985696682 0.39098195776043504 0.58986566335282953 0.64632174274328746 0.050720144704206119 -0.93352979493949118
decision_type=2 2 2 2 2 2 2 2
left_child=6 2 -2 -3 -4 -6 -1 -8
right_child=1 3 4 -5 5 -7 7 -9
leaf_value=-0.024673934876485809 -0.011343260196527928 0.0018711397716297293 0.010504068788767886 0.069024266584933616 -0.0014279949131329149 -0.061952843533413793 0.056417736494848221 -0.010330812069855953
leaf_count=2607 3655 212 6344 258 1168 192 190 1361
internal_value=0 0.0446056 0.0224941 0.479614 0.0798848 -0.126318 -0.154041 -0.00729542
internal_count=15987 11829 11359 470 7704 1360 4158 1551
shrinkage=0.0870857


Tree=35
num_leaves=9
num_cat=0
split_feature=52 23 30 3 12 16 30 52
split_gain=17.0797 17.5959 14.8694 13.7566 15.3994 14.4366 13.1965 12.6272
threshold=2.2579223969808919 1.0000000180025095e-35 -0.79886825604135647 -1.112770951824821 -0.2793867054816212 0.086061031795982845 0.58986566335282953 -0.79084059883788627
decision_type=2 2 2 2 2 2 2 2
left_child=1 2 -1 -3 -5 -6 -4 -8
right_child=-2 3 6 4 5 -7 7 -9
leaf_value=-0.035567692042729741 0.052624861301259998 0.054823273916515376 -0.0001638061007922337 -0.01110712485049517 0.0060308065645866896 0.039018677530180908 -0.051107169648077475 -0.0084059012565610835
leaf_count=1146 186 230 5491 2096 4457 621 700 1060
internal_value=0 -0.0114027 -0.0931206 0.0693875 0.0500842 0.117271 -0.0565679 -0.262433
internal_count=15987 15801 8397 7404 7174 5078 7251 1760
shrinkage=0.0870857


Tree=36
num_leaves=9
num_cat=0
split_feature=17 23 20 44 20 12 51 51
split_gain=16.1365 21.087 14.9012 14.7649 14.0607 10.5862 9.33787 8.63655
threshold=-1.7929672554544771 -1.2624657792071809 2.0043843915343249 -0.47821828935982763 0.60468819006097274 -0.25008505499981859 -0.30018468480681809 -0.35032424438649362
decision_type=2 2 2 2 2 2 2 2
left_child=6 7 3 5 -5 -3 -1 -2
right_child=1 2 -4 4 -6 -7 -8 -9
leaf_value=0.010760433756862149 -0.045448465585061701 -0.02919870192530892 0.054125536219884363 -0.001722349529711993 0.014396532014138324 -0 0.07075426534750591 -0
leaf_count=350 997 1712 180 8222 2781 1201 226 318
internal_value=0 -0.0151856 0.0070831 -0.00239647 0.0314399 -0.180962 0.419461 -0.371526
internal_count=15987 15411 14096 13916 11003 2913 576 1315
shrinkage=0.0870857


Tree=37
num_leaves=9
num_cat=0
split_feature=27 17 18 24 41 27 40 57
split_gain=14.2948 16.2462 18.0723 19.9252 12.9613 11.4839 11.2453 10.2144
threshold=-1.4722453528814345 -1.7139400927883481 -0.32663198003723742 2.9053805598167313 0.10470098507545336 0.010274567950192886 0.50310312178935102 -0.38216703860816487
decision_type=2 2 2 2 2 2 2 2
left_child=-1 5 6 4 -4 7 -3 -2
right_child=1 2 3 -5 -6 -7 -8 -9
leaf_value=-0.035493216337847876 0.021048474774568188 -0.0048192873426671137 -0.00046222661702554859 -0.049494525851926555 0.014933439455588679 -0.0040063786789641025 -0.028595040010704644 0.096619470382857273
leaf_count=819 212 3591 5206 246 3871 196 1660 186
internal_value=0 0.012078 -0.00265433 0.0557535 0.0749315 0.423632 -0.124871 0.673907
internal_count=15987 15168 14574 9323 9077 594 5251 398
shrinkage=0.0870857


Tree=38
num_leaves=9
num_cat=0
split_feature=44 52 22 44 23 36 38 7
split_gain=15.1105 13.6645 14.4139 12.7552 11.4432 11.0947 10.1797 9.57511
threshold=-1.7801191626367616 2.2579223969808919 -0.18480446563676436 1.1260494244157779 0.10167740922145353 -0.57694739813383777 -0.88266153820190307 -0.020568477306764307
decision_type=2 2 2 2 2 2 2 2
left_child=-1 2 4 5 7 -4 -6 -2
right_child=1 -3 3 -5 6 -7 -8 -9
leaf_value=-0.068225197926115408 -0.0063532667213757991 0.047888724697883328 -0.015342148022689491 0.041876791064332335 -0.029564747463332205 0.0074234687465242616 0.0084183391633283946 -0.026869910788595592
leaf_count=448 3364 186 1108 356 448 5743 2382 1952
internal_value=0 0.00615771 -0.00290122 0.0695 -0.0786928 0.0453768 0.0406157 -0.152405
internal_count=15987 15539 15353 7207 8146 6851 2830 5316
shrinkage=0.0870857


Tree=39
num_leaves=9
num_cat=0
split_feature=52 44 25 52 51 8 16 1
split_gain=13.6078 17.5188 12.1924 11.1593 15.6378 11.0461 12.9477 13.3227
threshold=1.3435470355701307 -1.4997569483668904 -0.13833487575732287 -0.83986793251342984 1.0970941154854867 -0.97093659324525194 -0.022298289118353663 -0.015314479651987793
decision_type=2 2 2 2 2 2 2 2
left_child=1 -1 -3 -4 -5 -2 7 -7
right_child=5 2 3 4 -6 6 -8 -9
leaf_value=-0.066097631574069893 0.055724842219063139 0.019491565696202386 -0.018618813385328274 0.0018879680026963846 -0.024900593854331767 0.0085502347826681546 0.026898605066858136 -0.039170022609764939
leaf_count=616 182 1040 2588 8931 995 642 730 263
internal_value=0 -0.0320118 -0.0208981 -0.0435642 -0.0108646 0.162224 0.104757 -0.0567104
internal_count=15987 14170 13554 12514 9926 1817 1635 905
shrinkage=0.0870857


Tree=40
num_leaves=9
num_cat=0
split_feature=17 26 33 57 35 52 54 13
split_gain=12.5783 13.6034 12.8377 13.9848 13.8279 12.9897 12.9155 4.41549
threshold=1.9370627906637206 2.3549540794896107 -0.9894132082503212 -0.21327566422449859 -0.73844907167339147 1.6554968690750436 0.23864048692120754 -0.17272348155936887
decision_type=2 2 2 2 2 2 2 2
left_child=1 2 3 7 6 -6 -4 -1
right_child=-2 -3 4 -5 5 -7 -8 -9
leaf_value=-0.019076130852100717 0.04899347910701489 -0.067420556994912062 -0.021291926767898189 0.060782176714701194 -0.00033152723435023526 0.024774970487479071 0.0094559732466790898 0.023508657797108316
leaf_count=207 184 388 2453 290 10903 707 656 199
internal_value=0 -0.00927243 -0.00218826 0.309165 -0.0182411 0.0210356 -0.157886 0.00945204
internal_count=15987 15803 15415 696 14719 11610 3109 406
shrinkage=0.0870857


Tree=41
num_leaves=9
num_cat=0
split_feature=17 23 0 20 52 46 45 2
split_gain=11.1451 15.7695 10.7501 10.9062 9.98057 8.94668 7.04776 4.01879
threshold=-1.7929672554544771 -1.2624657792071809 -0.13433393567872379 2.0043843915343249 1.9556086202953671 0.18313662248453236 1.0000000180025095e-35 -0.87382413760381739
decision_type=2 2 2 2 2 2 2 2
left_child=5 6 -3 4 -4 -1 7 -2
right_child=1 2 3 -5 -6 -7 -8 -9
leaf_value=0.0024468512837747141 -0.012110597918809861 0.039238296196368323 -0.0024634604530955071 0.04510814435710659 0.022732058258615191 0.060359251992286263 0.0046406583345241425 -0.050352953402827909
leaf_count=331 229 269 13136 180 511 245 235 851
internal_value=0 -0.0127044 0.00619861 -0.00331179 -0.0124393 0.350707 -0.32824 -0.445234
internal_count=15987 15411 14096 13827 13647 576 1315 1080
shrinkage=0.0870857


Tree=42
num_leaves=9
num_cat=0
split_feature=44 27 14 29 30 49 58 40
split_gain=10.9702 10.5483 11.7978 17.67 14.6257 14.4966 13.6682 11.5333
threshold=-1.7801191626367616 -1.4722453528814345 0.25242870135514922 -0.74784425544680089 0.089241177401113606 0.87249579245997488 0.10924527939097135 1.0284943354765794
decision_type=2 2 2 2 2 2 2 2
left_child=-1 -2 3 4 -3 6 -4 -5
right_child=1 2 5 7 -6 -7 -8 -9
leaf_value=-0.062863143200917765 -0.031140576277453189 0.016505628745661766 0.01151261232646471 -0.008837238071280942 -0.011100639138787649 0.050446626427412912 -0.010523662627664566 -0.043751345630264407
leaf_count=448 755 2304 4335 4386 1282 297 1501 679
internal_value=0 0.00495951 0.0162499 -0.0440214 0.0789187 0.0918929 0.0649163 -0.144297
internal_count=15987 15539 14784 8651 3586 6133 5836 5065
shrinkage=0.0870857


Tree=43
num_leaves=9
num_cat=0
split_feature=22 20 41 39 18 41 32 30
split_gain=12.6476 11.8466 12.4977 10.5401 14.422 11.4001 10.237 8.66665
threshold=-0.41085115884458751 1.6146789506745949 -0.54238387202983163 0.18963354707195887 -0.1735822692521109 0.96088811736587398 1.7771329746188524 -0.23103007265628164
decision_type=2 2 2 2 2 2 2 2
left_child=6 2 7 4 -4 -5 -1 -2
right_child=1 -3 3 5 -6 -7 -8 -9
leaf_value=-0.0091492737632802284 -0.04031885767101745 0.030909914105670226 -0.00088121600663693611 -0.0083393156031903622 0.019806398606050917 0.025640062216397964 -0.078411478327233539 -0.0055215936085287092
leaf_count=3821 688 517 2774 3264 2754 431 274 1464
internal_value=0 0.0359082 0.0175122 0.0506896 0.115515 -0.0452019 -0.129613 -0.175556
internal_count=15987 11892 11375 9223 5528 3695 4095 2152
shrinkage=0.0870857


Tree=44
num_leaves=9
num_cat=0
split_feature=22 14 58 12 8 34 9 32
split_gain=10.6168 10.6674 17.6544 12.8625 11.7929 11.0542 10.7527 9.30338
threshold=-0.41085115884458751 1.1416454306891055 -0.35835475606054285 -0.26737009308245924 -0.24230271028703684 2.4200458788820263 0.058656442483621889 1.6465835121274399
decision_type=2 2 2 2 2 2 2 2
left_child=7 4 -3 -4 5 -2 -5 -1
right_child=1 2 3 6 -6 -7 -8 -9
leaf_value=-0.0081306941674065148 0.0049240950748253992 0.053450873390989882 -0.021535949288533199 -0.0022894228078596786 -0.0074464196327821757 0.056196673750250496 0.04187979482458952 -0.068130820215468291
leaf_count=3778 4813 389 472 388 5184 224 422 317
internal_value=0 0.0326533 0.199775 0.062745 0.00140711 0.0786613 0.232063 -0.119359
internal_count=15987 11892 1671 1282 10221 5037 810 4095
shrinkage=0.0870857


Tree=45
num_leaves=9
num_cat=0
split_feature=52 6 16 25 36 39 37 18
split_gain=9.74784 11.3459 12.1123 13.2965 12.9453 12.7844 12.8685 12.1357
threshold=2.2579223969808919 -0.54592346937963299 0.051588126965286543 -0.0088829804387435384 -0.51649966904126055 0.24183877662774575 -0.29840316383513438 -0.32663198003723742
decision_type=2 2 2 2 2 2 2 2
left_child=1 -1 5 -4 -5 7 -7 -3
right_child=-2 2 3 4 -6 6 -8 -9
leaf_value=0.019053848081282698 0.040290956836387642 -0.010417963185907207 0.040456984855506979 -0.040453375443923537 0.010741177543571919 0.005700958764974391 -0.021736206996416794 0.0063200338133532199
leaf_count=1212 186 3677 557 280 1213 985 3156 4721
internal_value=0 -0.00880224 -0.0281221 0.139312 0.0230354 -0.0581984 -0.170453 -0.00210854
internal_count=15987 15801 14589 2050 1493 12539 4141 8398
shrinkage=0.0870857


Tree=46
num_leaves=9
num_cat=0
split_feature=24 52 23 51 57 15 18 24
split_gain=9.63062 10.6241 9.95777 11.3373 11.8159 9.04758 14.0942 8.07735
threshold=2.9053805598167313 1.7224186563429746 1.0000000180025095e-35 -0.53230016421543325 -0.2877288819800366 0.56313832572211275 0.3497243582189033 -0.11799441683185904
decision_type=2 2 2 2 2 2 2 2
left_child=1 2 5 -4 -5 6 -1 -3
right_child=-2 7 3 4 -6 -7 -8 -9
leaf_value=-0.0073522797077735427 -0.035064757537279674 0.0093809665260080072 -0.035481899432788171 0.015651909526731223 -0.0019997897148604929 -0.028837200381464364 0.025309394841968175 0.050283043752623775
leaf_count=6546 309 707 356 3203 3243 774 644 205
internal_value=0 0.00822689 -0.0107876 0.0536488 0.074904 -0.0754728 -0.0447305 0.218926
internal_count=15987 15678 14766 6802 6446 7964 7190 912
shrinkage=0.0870857


Tree=47
num_leaves=9
num_cat=0
split_feature=17 23 42 46 51 30 51 45
split_gain=9.38329 11.8441 11.9078 8.63775 8.86857 8.32661 8.07821 7.0043
threshold=-1.7929672554544771 -1.2977652690095549 1.9775719502363114 -0.96649349563658771 0.2815315776147414 -0.015966950618430488 -0.35032424438649362 -0.30779755017220328
decision_type=2 2 2 2 2 2 2 2
left_child=5 6 3 -3 -5 7 -2 -1
right_child=1 2 -4 4 -6 -7 -8 -9
leaf_value=0.014264736322146518 -0.041527674361266177 -0.018983307623946295 -0.048485590013442374 0.0054432666491198347 -0.0075792587723021989 -0.008692490578230334 0.0043367862045446525 0.079129768641980305
leaf_count=209 909 1210 222 10092 2695 180 283 187
internal_value=0 -0.0116328 0.00346929 0.0125309 0.0284015 0.324615 -0.309094 0.541267
internal_count=15987 15411 14219 13997 12787 576 1192 396
shrinkage=0.0870857


Tree=48
num_leaves=9
num_cat=0
split_feature=30 26 6 22 54 33 9 14
split_gain=8.52955 11.6576 9.01225 10.4848 9.18454 9.44942 8.47853 13.1866
threshold=-1.2757623632585451 0.075891471153916312 -1.1236928060008926 -0.50042844668640651 0.20820335431740414 -0.53799724611764321 0.71720635265740806 -0.11351339009496737
decision_type=2 2 2 2 2 2 2 2
left_child=1 -1 -2 4 -4 -6 -5 -8
right_child=2 -3 3 6 5 -7 7 -9
leaf_value=-0.0019995875603320275 0.025251684604141806 -0.06633821821016303 -0.026089930024144215 -0.00083608312501144678 0.036125715063313406 -0.026446574053500878 -0.0041715169764721984 0.026244760120208148
leaf_count=534 573 488 1495 9824 233 191 1307 1342
internal_value=0 -0.289464 0.0103323 -0.00189068 -0.187231 0.106517 0.0208724 0.146789
internal_count=15987 1022 14965 14392 1919 424 12473 2649
shrinkage=0.0870857


Tree=49
num_leaves=9
num_cat=0
split_feature=44 24 51 45 18 50 40 32
split_gain=8.33266 8.03274 8.82962 12.1623 16.1121 11.2341 8.32544 8.94013
threshold=-1.7801191626367616 2.9053805598167313 -0.50917731815841782 -0.48469296682734048 0.20940883082780989 0.77018714944377986 -0.75317568843892679 -0.84198346269814572
decision_type=2 2 2 2 2 2 2 2
left_child=-1 2 6 4 -4 -5 -2 -8
right_child=1 -3 3 5 -6 -7 7 -9
leaf_value=-0.058270560322783077 0.015256295378944962 -0.031901091538545312 0.0074696505173331134 -0.0022633237840930381 0.047742942232491453 0.027386078700910407 0.013923464536479292 -0.024400242263338062
leaf_count=448 327 308 2751 8827 490 523 348 1965
internal_value=0 0.00381564 0.012389 0.0369349 0.168817 -0.00441211 -0.128426 -0.200757
internal_count=15987 15539 15231 12591 3241 9350 2640 2313
shrinkage=0.0870857


Tree=50
num_leaves=9
num_cat=0
split_feature=27 42 42 17 56 42 42 52
split_gain=7.62894 8.3738 15.6496 11.4508 9.10252 8.50842 8.11154 7.5738
threshold=-1.8294317206532129 -0.67294112975209319 -0.47573956753960894 -1.7929672554544771 -0.15927157098280939 1.9775719502363114 -0.5047735838755153 -0.63422074378552151
decision_type=2 2 2 2 2 2 2 2
left_child=6 4 -3 -4 -2 -5 -1 -6
right_child=1 2 3 5 7 -7 -8 -9
leaf_value=0.0073088648108706423 0.0050956142829732308 0.025934704510432303 0.035561021132378953 -0 -0.050424445233278166 -0.040340460230667098 -0.062792906858172182 -0.012615261751164153
leaf_count=217 856 1165 455 11233 425 253 350 1033
internal_value=0 0.00644888 0.0306894 0.0037154 -0.127641 -0.00988592 -0.395987 -0.249576
internal_count=15987 15420 13106 11941 2314 11486 567 1458
shrinkage=0.0870857


Tree=51
num_leaves=9
num_cat=0
split_feature=44 34 40 56 10 7 35 54
split_gain=7.39512 13.5809 11.8261 11.3792 15.4512 9.55871 8.25809 22.0368
threshold=-0.25032700220164117 0.10420971075914504 -0.025828792930618186 -0.16003933536424295 0.28448615024344798 -0.10190832081908321 -0.64631797315287709 0.24682020836948595
decision_type=2 2 2 2 2 2 2 2
left_child=1 2 5 4 -3 -1 7 -2
right_child=6 3 -4 -5 -6 -7 -8 -9
leaf_value=0.035552275227621333 -0.015258525263280816 0.079475117452066646 -0.042498058029826341 -0.0068679401372022776 0.0065929776741249406 -0.014051501227203849 0.0069133867106129223 0.018412779926880968
leaf_count=180 2709 188 1371 1365 471 1646 7021 1036
internal_value=0 -0.0889619 -0.20323 0.0791433 0.330253 -0.0996589 0.0308172 -0.0561339
internal_count=15987 5221 3197 2024 659 1826 10766 3745
shrinkage=0.0870857


Tree=52
num_leaves=9
num_cat=0
split_feature=16 45 54 28 52 33 27 14
split_gain=7.82695 14.5568 12.0025 11.7507 10.8084 13.0197 10.3373 9.12425
threshold=-0.015251873727301999 0.94729918152230097 0.24682020836948595 -0.080815324875675429 -1.0595032328357894 -0.2039585868367447 -1.1390911209852703 -1.6549645445009109
decision_type=2 2 2 2 2 2 2 2
left_child=1 2 4 -3 -1 -6 -2 -8
right_child=6 3 -4 -5 5 -7 7 -9
leaf_value=-0.023907675201693023 -0.041315524820398943 0.019616105092359965 0.019076044113379969 -0.032591631552289231 -0.010237214869323431 0.0093939471481101801 0.063832120554160515 0.0062620899191883749
leaf_count=1513 331 199 1120 1088 3024 3172 180 5360
internal_value=0 -0.0436704 -0.00443988 -0.275079 -0.0433184 -0.00329969 0.0681436 0.0875329
internal_count=15987 10116 8829 1287 7709 6196 5871 5540
shrinkage=0.0870857


Tree=53
num_leaves=9
num_cat=0
split_feature=8 14 30 23 29 13 6 12
split_gain=7.06118 15.7186 13.8749 12.2113 11.9878 11.769 13.6542 11.4891
threshold=-0.24230271028703684 0.76850140932692501 -1.3391834553545821 -0.9429208950196134 0.91619272775405558 -0.08159937926004604 0.88876057826571253 -0.25704717178297626
decision_type=2 2 2 2 2 2 2 2
left_child=5 3 -3 -2 -4 6 -1 -6
right_child=1 2 4 -5 7 -7 -8 -9
leaf_value=-0.0049542210193997249 -0.047569042859144525 -0.082953108477867202 0.020743949418175645 -0.0092812662303240374 -0.02474610422408615 0.014159727171692223 0.054962791263341325 0.0094055522593459364
leaf_count=4200 862 192 1389 4259 859 2976 180 1070
internal_value=0 -0.0518958 0.0659994 -0.151167 0.0896976 0.0514264 -0.0285169 -0.0440277
internal_count=15987 8631 3510 5121 3318 7356 4380 1929
shrinkage=0.0870857


Tree=54
num_leaves=9
num_cat=0
split_feature=52 6 22 47 46 52 46 16
split_gain=7.33218 8.86251 11.6438 8.69993 9.76271 7.44809 12.449 7.98312
threshold=2.2579223969808919 -0.54592346937963299 -0.50042844668640651 -0.74653283104982504 -0.54721630515202502 1.246915448323864 -0.50096431286590504 0.11849025416171012
decision_type=2 2 2 2 2 2 2 2
left_child=1 3 -3 -1 -5 7 -7 -4
right_child=-2 2 5 4 -6 6 -8 -9
leaf_value=-0.027413354643156414 0.035211048863058002 -0.019334098935989325 -0.0041083958860368584 0.072813049554659823 0.014585693394778186 0.047456127627782008 0.0038698508705989625 0.018104785308214168
leaf_count=256 186 2016 10214 185 771 257 1338 764
internal_value=0 -0.00764185 -0.0249134 0.193311 0.278236 -0 0.127861 -0.0275352
internal_count=15987 15801 14589 1212 956 12573 1595 10978
shrinkage=0.0870857


Tree=55
num_leaves=9
num_cat=0
split_feature=51 23 18 54 58 22 48 54
split_gain=6.81928 14.4238 10.7036 19.7061 12.2384 15.7096 12.8816 10.9521
threshold=1.1562392507380617 1.2332116514087288 -0.040875982860413565 0.19649541933858325 -0.038882570455743885 -0.21524729753379421 -0.24877112934772491 0.082160154741785382
decision_type=2 2 2 2 2 2 2 2
left_child=2 -2 3 7 5 -4 -6 -1
right_child=1 -3 4 -5 6 -7 -8 -9
leaf_value=-0.005964210850060536 -0.020962848413631198 0.032473959072085376 0.0019395304853021857 0.02071511245349374 -0.030463465801289391 0.028100268965508598 0.0067611356657934331 -0.042429396782796357
leaf_count=7216 1323 227 2288 1188 570 1759 1027 389
internal_value=0 -0.144754 0.0172954 -0.0412239 0.0948764 0.167015 -0.070819 -0.0946127
internal_count=15987 1550 14437 8793 5644 4047 1597 7605
shrinkage=0.0870857


Tree=56
num_leaves=9
num_cat=0
split_feature=44 24 52 25 16 52 24 35
split_gain=6.53513 6.6552 7.01577 7.43037 15.4434 10.4774 7.0164 5.77568
threshold=-1.7801191626367616 2.9053805598167313 1.7224186563429746 -0.039976180062514473 -0.066063879395414526 -0.83986793251342984 -0.11799441683185904 -0.79439431919019343
decision_type=2 2 2 2 2 2 2 2
left_child=-1 2 3 4 -2 -5 7 -4
right_child=1 -3 6 5 -6 -7 -8 -9
leaf_value=-0.054252412256460034 -0.0015371696118799416 -0.029335504206714404 -0.019788564702335563 -0.021754503643541971 0.026657833687682674 -0.00085419881989661395 0.04504104114653467 0.016616495694280524
leaf_count=448 2774 308 181 1924 1224 8400 205 523
internal_value=0 0.00337573 0.0111836 -0.00436073 0.0840516 -0.0403608 0.182983 0.0786153
internal_count=15987 15539 15231 14322 3998 10324 909 704
shrinkage=0.0870857


Tree=57
num_leaves=9
num_cat=0
split_feature=17 29 17 12 47 32 13 35
split_gain=6.12076 8.40281 12.1299 11.9009 11.404 9.20205 11.5943 9.1626
threshold=1.9370627906637206 0.91619272775405558 0.65703257054451469 -0.25704717178297626 -1.1203228570119779 -0.77077931090399221 -0.069466981411040837 -1.0759037130598295
decision_type=2 2 2 2 2 2 2 2
left_child=1 2 5 -3 -5 6 -1 -7
right_child=-2 3 -4 4 -6 7 -8 -9
leaf_value=-0.0015458014908756341 0.033972599980119936 -0.031854103895976975 0.013891987878514913 -0.051880254792577005 0.0087880020958292886 -0.033562357160199285 0.023577400733879997 -0.0041963143382227836
leaf_count=2384 184 1360 2275 228 1078 574 1144 6760
internal_value=0 -0.0066345 0.0154596 -0.15105 0.00285369 -0.0216575 0.0755132 -0.0748622
internal_count=15987 15803 13137 2666 1306 10862 3528 7334
shrinkage=0.0870857


Tree=58
num_leaves=9
num_cat=0
split_feature=8 15 14 33 13 13 45 14
split_gain=6.38988 12.6426 10.3454 11.2293 9.87428 12.2367 9.72279 9.9649
threshold=-0.24230271028703684 -0.77792869045305379 0.77921848817978967 0.99009072466340498 -0.0080081235724423338 -0.048277454252985866 2.1173339906762561 0.084658759098928962
decision_type=2 2 2 2 2 2 2 2
left_child=6 -2 4 -4 5 -3 7 -1
right_child=1 2 3 -5 -6 -7 -8 -9
leaf_value=0.0014996573170566593 -0.053867592978925148 -0.0072758799080337401 0.010105099838131345 -0.027656215922603269 -0.022877605948493043 0.03682277185656678 -0.034255828325625591 0.020159242864161642
leaf_count=5750 554 2744 2880 380 1709 364 229 1377
internal_value=0 -0.0496273 -0.0320298 0.0651487 -0.114335 -0.0170338 0.0489598 0.0663181
internal_count=15987 8631 8077 3260 4817 3108 7356 7127
shrinkage=0.0870857


Tree=59
num_leaves=9
num_cat=0
split_feature=24 52 52 6 27 48 54 9
split_gain=5.83765 8.64735 5.93595 9.45978 7.86504 7.76623 7.35689 7.08967
threshold=1.5784306663607215 0.27447057048185458 1.7224186563429746 -0.61245295457531645 -0.65137625095621754 -0.31259273247172803 0.1637992326951673 0.22910899777441981
decision_type=2 2 2 2 2 2 2 2
left_child=2 -2 3 4 -1 -5 -4 -7
right_child=1 -3 6 5 -6 7 -8 -9
leaf_value=-0.012967147835539226 -0.053913151236663799 0 0.0019214260446158247 -0.017309797220460468 0.029169799474052679 -0.004665752825651617 0.036558134886431261 0.0061213677125358775
leaf_count=390 239 256 565 1534 697 6960 318 5028
internal_value=0 -0.248701 0.00820905 -0.00597614 0.215985 -0.0246453 0.168937 -0.00338711
internal_count=15987 495 15492 14609 1087 13522 883 11988
shrinkage=0.0870857


Tree=60
num_leaves=9
num_cat=0
split_feature=17 42 23 0 50 35 22 50
split_gain=5.9955 7.71233 7.72386 8.68944 7.48289 11.6132 6.42101 6.07474
threshold=-1.7929672554544771 1.9775719502363114 -1.2977652690095549 -0.12996320429551925 -0.04543738183724181 -1.2958872586272661 -0.61148329023427517 -0.16232073548786899
decision_type=2 2 2 2 2 2 2 2
left_child=4 2 7 -4 -1 -6 -5 -2
right_child=1 -3 3 6 5 -7 -8 -9
leaf_value=0.068820203113433398 -0.048992969642815035 -0.038865760122488775 0.028642557770133754 -0.032342839383998602 0.044130521738135142 -0.029384461219968981 0.00050989094065316662 -0.0057416694696383426
leaf_count=189 493 257 418 374 180 207 13205 664
internal_value=0 -0.00939012 -0.00206561 0.00973232 0.262116 0.0744839 -0.00126314 -0.255801
internal_count=15987 15411 15154 13997 576 387 13579 1157
shrinkage=0.0870857


Tree=61
num_leaves=9
num_cat=0
split_feature=51 16 57 8 15 18 30 9
split_gain=5.74604 10.9591 8.26379 8.0039 12.3895 10.5343 9.16605 8.64963
threshold=1.1562392507380617 0.0040908743457202705 1.6981065599846941 -0.24230271028703684 -0.77792869045305379 0.68040440930779378 0.47715138340989144 0.75622368539453777
decision_type=2 2 2 2 2 2 2 2
left_child=2 -2 3 5 -5 6 -1 -6
right_child=1 -3 -4 4 7 -7 -8 -9
leaf_value=0.0071333380142638275 -0.025527670025808281 0.0087000135702547405 0.040143388647689876 -0.055902120358734854 -0.0075614178807847619 0.032838527841137992 -0.012491306646969775 0.01048952533675708
leaf_count=4961 955 595 210 538 5050 489 1391 1798
internal_value=0 -0.133716 0.0157481 0.0073744 -0.0540129 0.0641175 0.0350331 -0.0337551
internal_count=15987 1550 14437 14227 7386 6841 6352 6848
shrinkage=0.0870857


Tree=62
num_leaves=9
num_cat=0
split_feature=39 30 28 23 35 3 24 42
split_gain=5.61934 10.5286 12.0017 8.06139 10.4246 9.32836 10.0681 8.71906
threshold=0.67359479548901124 0.53370785938112342 -0.0646666910032795 1.0000000180025095e-35 1.6774610881245182 -1.112770951824821 -0.21487533149247659 -0.67294112975209319
decision_type=2 2 2 2 2 2 2 2
left_child=3 2 -2 7 5 -5 -7 -1
right_child=1 -3 -4 4 -6 6 -8 -9
leaf_value=-0.020695255564297306 0.041969812687947673 -0.049413382290632142 -0.014834764669552178 0.05189391903542654 -0.021423111234618857 -0.0038300514747607014 0.013445577477300278 -0.00049629123196706941
leaf_count=1344 217 327 758 183 631 2239 3733 6555
internal_value=0 -0.153702 -0.0316253 0.013333 0.071001 0.0984398 0.0805048 -0.0446551
internal_count=15987 1302 975 14685 6786 6155 5972 7899
shrinkage=0.0870857


Tree=63
num_leaves=9
num_cat=0
split_feature=15 23 54 18 54 16 47 55
split_gain=5.48348 19.3335 12.9464 16.7359 12.5175 9.13403 9.14219 8.40656
threshold=0.49143135333389226 1.2605654367449661 0.19649541933858325 0.51655864647233429 0.082160154741785382 -0.0085343171303068188 -0.23600562549486767 -0.54912974698032746
decision_type=2 2 2 2 2 2 2 2
left_child=2 5 3 4 -1 -2 -7 -5
right_child=1 -3 -4 7 -6 6 -8 -9
leaf_value=-0.0018936742322025542 -0.024972588673897442 0.027284553357957562 0.017538613800076611 -0.0072823244230727996 -0.034613250658623786 -0.022167701848479236 0.015489409333243269 0.03530420489947049
leaf_count=9400 1632 525 1884 244 547 471 598 686
internal_value=0 -0.0867138 0.0235856 -0.0115602 -0.0458177 -0.170771 -0.0018466 0.279151
internal_count=15987 3226 12761 10877 9947 2701 1069 930
shrinkage=0.0870857


Tree=64
num_leaves=9
num_cat=0
split_feature=25 28 16 37 11 7 7 16
split_gain=5.52863 11.9687 11.6142 13.8736 10.6578 9.60269 9.14758 12.2614
threshold=-0.0088829804387435384 0.018228658069229367 -0.055531155362143057 -0.082265649698696264 -0.43696824804798079 -0.057805992186067266 -0.0054163759359616192 0.010087854584946487
decision_type=2 2 2 2 2 2 2 2
left_child=2 -2 -1 4 5 -4 7 -3
right_child=1 6 3 -5 -6 -7 -8 -9
leaf_value=-0.0024857725478588085 -0.0150360092335921 0.0034174224244322335 0.041107332790219428 0.0035172578463125632 0.051273644304663267 -0.022443407952259319 -0.0041021921877975103 0.046081754022914652
leaf_count=5156 3437 955 184 1977 637 206 3087 348
internal_value=0 -0.0481111 0.0438029 0.161453 0.38884 0.0705379 0.0266754 0.181526
internal_count=15987 7827 8160 3004 1027 390 4390 1303
shrinkage=0.0870857


Tree=65
num_leaves=9
num_cat=0
split_feature=51 39 18 23 33 33 33 54
split_gain=5.00239 14.019 12.139 11.9942 11.062 12.4684 8.60546 7.79558
threshold=0.2815315776147414 -0.22132274773696001 0.65997130952746164 1.2332116514087288 3.2368524928986679 -0.08173662497138319 0.008531165348100193 0.3763801323963592
decision_type=2 2 2 2 2 2 2 2
left_child=1 6 7 -2 5 -4 -1 -3
right_child=3 2 4 -5 -6 -7 -8 -9
leaf_value=0.031176727522603712 -0.013217752232922875 -0.0052108140076267068 -0.003224791394776928 0.02125068652086233 -0.026445343506594624 0.048252319427167359 -0 0.016966574079351957
leaf_count=1155 2574 9483 263 472 182 526 633 699
internal_value=0 0.021895 -0.0104941 -0.0853231 0.234726 0.347665 0.228319 -0.0386788
internal_count=15987 12941 11153 3046 971 789 1788 10182
shrinkage=0.0870857


Tree=66
num_leaves=9
num_cat=0
split_feature=52 17 26 52 17 6 12 49
split_gain=5.32369 5.51042 6.77891 12.265 9.31062 7.05873 6.83578 6.27788
threshold=2.2579223969808919 1.9370627906637206 0.91288334444089303 -0.29266781716572271 0.65703257054451469 -0.41447825573668501 -0.25704717178297626 0.53917012039993273
decision_type=2 2 2 2 2 2 2 2
left_child=1 2 4 -4 5 -1 -5 -6
right_child=-2 -3 3 6 7 -7 -8 -9
leaf_value=0.01563463236541426 0.030299595993759375 0.031734891876264 -0.049051745777473593 -0.021775373217535622 0.0082800185327812185 -0.0039876482706873648 0.0061034339726043756 0.044984261950764576
leaf_count=827 186 183 901 759 2041 9933 964 193
internal_value=0 -0.00650886 -0.0126271 -0.14588 0.0070608 -0.0257538 -0.0531838 0.134466
internal_count=15987 15801 15618 2624 12994 10760 1723 2234
shrinkage=0.0870857


Tree=67
num_leaves=9
num_cat=0
split_feature=42 42 42 27 29 56 9 1
split_gain=4.88164 5.42628 13.0448 10.1202 9.80906 7.96452 7.01496 8.48882
threshold=1.9775719502363114 -0.67294112975209319 -0.47573956753960894 -1.8294317206532129 -0.92949976246218524 -0.15927157098280939 0.31199466022940386 -0.037967847414294577
decision_type=2 2 2 2 2 2 2 2
left_child=1 5 -3 -4 -5 6 7 -1
right_child=-2 2 3 4 -6 -7 -8 -9
leaf_value=0.031374930004874395 -0.02747601133467242 0.023247877516605408 -0.054823284265570406 0.01512515572123605 -0.0018726447283397187 -0.0186874102461724 0.040955805624683275 -0.018823099590114346
leaf_count=206 310 1209 336 1740 9896 1593 215 482
internal_value=0 0.00538839 0.0254529 4.25142e-05 0.00869513 -0.10144 0.0722085 -0.0352895
internal_count=15987 15677 13181 11972 11636 2496 903 688
shrinkage=0.0870857


Tree=68
num_leaves=9
num_cat=0
split_feature=35 29 16 38 53 51 51 8
split_gain=4.80678 9.86227 9.49009 8.63192 8.30232 7.81953 8.14724 7.4234
threshold=-0.73844907167339147 -0.74784425544680089 0.0067531160375376422 0.57790164066122585 -0.072730144931773974 -0.36309186077603944 -0.41940436955603566 -0.24230271028703684
decision_type=2 2 2 2 2 2 2 2
left_child=1 5 3 4 -3 6 -1 -2
right_child=7 2 -4 -5 -6 -7 -8 -9
leaf_value=0.00040351736425065079 0.0087224362156484922 -0.025541593343511512 0.0080789779961548611 -0.058965708128823104 0.026906159378238023 0.016811332651264596 -0.043468201129157225 -0.0021693142493508311
leaf_count=754 4491 943 411 270 191 881 216 7830
internal_value=0 -0.0763533 -0.211435 -0.315439 -0.196168 0.0368787 -0.108084 0.0237109
internal_count=15987 3666 1815 1404 1134 1851 970 12321
shrinkage=0.0870857


Tree=69
num_leaves=9
num_cat=0
split_feature=39 30 18 52 55 34 35 44
split_gain=4.74847 8.85826 10.974 6.60584 12.5317 9.62355 9.91342 7.11733
threshold=0.67359479548901124 0.53370785938112342 0.25772873835969895 0.62650406390875368 -0.52064159578921643 -0.63815403134023907 -0.72714206890944599 -1.4997569483668904
decision_type=2 2 2 2 2 2 2 2
left_child=3 2 -2 7 -5 -6 -7 -1
right_child=1 -3 -4 4 5 6 -8 -9
leaf_value=-0.060681497190824649 0.019863911338205986 -0.046086712820893196 -0.024123604045338313 0.049271064311228678 0.038018701118037672 -0.017381612697411206 0.0070701975486930522 -0.0016093790410019893
leaf_count=519 490 327 485 221 273 731 2692 10249
internal_value=0 -0.142121 -0.03039 0.0123015 0.083787 0.0515019 0.0185705 -0.0259726
internal_count=15987 1302 975 14685 3917 3696 3423 10768
shrinkage=0.0870857


Tree=70
num_leaves=9
num_cat=0
split_feature=24 52 14 26 8 12 53 5
split_gain=4.5796 5.01782 5.08516 9.97558 9.87901 10.0264 9.12682 8.629
threshold=2.9053805598167313 2.2579223969808919 0.25242870135514922 -0.32547022093820382 -0.16290319662998434 -0.23236583589067919 -0.2382158208370124 -0.52896106571679258
decision_type=2 2 2 2 2 2 2 2
left_child=1 2 3 -1 7 -6 -5 -4
right_child=-2 -3 4 6 5 -7 -8 -9
leaf_value=0.0005393867694718353 -0.025111415783672684 0.030403705209553857 0.0060876990476125842 0.007464619760718369 -0.0084429374412004522 0.010418965847985018 -0.024973701332843469 0.040621256379668465
leaf_count=6458 309 182 700 657 3127 2146 1960 448
internal_value=0 0.00553009 -0 -0.0399992 0.0506143 0 -0.19054 0.2291
internal_count=15987 15678 15496 9075 6421 5273 2617 1148
shrinkage=0.0870857


Tree=71
num_leaves=9
num_cat=0
split_feature=30 31 16 38 26 16 52 58
split_gain=4.50023 5.5148 9.98676 12.7097 11.5605 8.53627 6.06773 5.95057
threshold=2.18268512619884 -0.099942436359115663 -0.073697402303308499 -0.17016800291608578 0.34763473078292206 -0.11959495772708657 -1.4609033428533251 0.47535020009620815
decision_type=2 2 2 2 2 2 2 2
left_child=1 2 3 4 -1 -3 -4 -7
right_child=-2 5 6 -5 -6 7 -8 -9
leaf_value=0.069356589974082436 -0.034329913042084222 -0.038280601690302153 0.0059544627127991797 -0.005273613546868363 0.0026146866542310996 0.0012717707386349785 0.056687376926693289 -0.011813742319654794
leaf_count=290 310 347 215 1722 340 10760 249 1754
internal_value=0 0.00393344 0.10191 0.0320523 0.375794 -0.0175847 0.417717 -0.0075057
internal_count=15987 15677 2816 2352 630 12861 464 12514
shrinkage=0.0870857


Tree=72
num_leaves=9
num_cat=0
split_feature=9 20 8 31 16 31 35 27
split_gain=4.77204 13.7651 12.4125 12.5802 9.37155 10.3747 9.23283 9.67682
threshold=0.22910899777441981 0.022293358339853141 -0.22318909563915515 -0.11230861616354942 -0.015251873727301999 0.040726258067602002 -0.64631797315287709 0.68681559828628591
decision_type=2 2 2 2 2 2 2 2
left_child=2 -2 6 -4 -5 -6 7 -1
right_child=1 -3 3 4 5 -7 -8 -9
leaf_value=-0 -0.0067166814471182681 0.014221088278584634 0.030302968171104665 -0.026140487692340449 0.014438226781194425 -0.017866129378033606 0.012886592009493119 -0.037190132492208858
leaf_count=2611 3129 3102 311 2173 726 1192 2376 367
internal_value=0 0.0557503 -0.0330152 -0.138471 -0.177589 -0.0499182 0.0378098 -0.0466687
internal_count=15987 6231 9756 4402 4091 1918 5354 2978
shrinkage=0.0870857


Tree=73
num_leaves=9
num_cat=0
split_feature=25 28 30 16 27 14 7 16
split_gain=4.4036 12.5396 9.78649 8.37108 7.71476 8.24283 6.9112 10.8287
threshold=-0.0047510726607189408 0.018228658069229367 1.9907627476810832 0.093748523587868685 0.081170454317894034 -1.121658161444729 -0.0054163759359616192 -0.024790395097784322
decision_type=2 2 2 2 2 2 2 2
left_child=2 4 3 -1 -2 -6 -3 -8
right_child=1 6 -4 -5 5 -7 7 -9
leaf_value=0.0026029703286109054 -0.027845360342121532 0.013805863352594977 -0.057164497245185956 0.035990132423430826 -0.048579633616619863 0.0061777892499504973 -0.039431527054500599 0.00067465898186243474
leaf_count=8187 1629 1303 211 392 192 986 372 2715
internal_value=0 -0.0463535 0.0363851 0.0467172 -0.197494 -0.0214271 0.0242815 -0.0401181
internal_count=15987 7197 8790 8579 2807 1178 4390 3087
shrinkage=0.0870857


Tree=74
num_leaves=9
num_cat=0
split_feature=15 23 39 18 34 12 8 34
split_gain=4.34884 14.0152 9.07142 10.6048 9.1413 9.16854 7.79573 7.0159
threshold=0.49143135333389226 1.2605654367449661 -0.22132274773696001 0.82398084298300678 -0.34374876587519293 -0.23139620436665101 0.58472998248251806 0.22622901831258249
decision_type=2 2 2 2 2 2 2 2
left_child=2 7 4 -4 -1 -6 -7 -2
right_child=1 -3 3 -5 5 6 -8 -9
leaf_value=0.034025855712544628 -0.018849521245976976 0.022679064526039374 -0.002381182781339928 0.031120430173805006 -0.01129222980472319 0.0077151788596058367 0.060877152018700621 0.0060728856174533264
leaf_count=704 2097 525 10154 382 865 470 186 604
internal_value=0 -0.0774711 0.0212595 -0.00948742 0.164277 0.048435 0.255872 -0.150451
internal_count=15987 3226 12761 10536 2225 1521 656 2701
shrinkage=0.0870857


Tree=75
num_leaves=9
num_cat=0
split_feature=9 52 8 31 51 53 27 42
split_gain=4.30508 11.5538 10.2645 10.238 10.7131 8.55099 9.95121 11.3892
threshold=0.22910899777441981 -1.0898775511823799 -0.22318909563915515 -0.11230861616354942 -0.50402947889122129 -0.25379632293173243 0.37469939919057416 -0.10325184744214475
decision_type=2 2 2 2 2 2 2 2
left_child=2 -2 -1 -4 -5 -3 7 -7
right_child=1 5 3 4 -6 6 -8 -9
leaf_value=0.002862462152290632 -0.022606671869838741 0.036971910437276642 0.026760254837129373 -0.047172376765386922 -0.009990662826714786 0.012849334154981547 0.022081644242546123 -0.011577648924817139
leaf_count=5354 1007 406 311 617 3474 1571 1315 1932
internal_value=0 0.0530361 -0.0313469 -0.127697 -0.163549 0.0921755 0.0603541 -0.00400103
internal_count=15987 6231 9756 4402 4091 5224 4818 3503
shrinkage=0.0870857


end of trees

feature importances:
Column_52=61
Column_44=39
Column_23=25
Column_16=24
Column_18=22
Column_22=22
Column_30=21
Column_17=18
Column_8=16
Column_20=16
Column_32=16
Column_54=16
Column_40=15
Column_14=13
Column_43=13
Column_51=13
Column_27=12
Column_41=12
Column_42=12
Column_6=11
Column_12=11
Column_29=11
Column_9=10
Column_24=10
Column_25=10
Column_26=10
Column_33=9
Column_35=9
Column_13=8
Column_34=8
Column_39=8
Column_46=8
Column_56=7
Column_0=6
Column_2=6
Column_53=6
Column_7=5
Column_15=5
Column_28=5
Column_31=5
Column_38=5
Column_45=5
Column_55=5
Column_58=5
Column_3=4
Column_37=4
Column_50=4
Column_57=4
Column_47=3
Column_1=2
Column_5=2
Column_10=2
Column_36=2
Column_48=2
Column_49=2
Column_4=1
Column_11=1
Column_19=1

parameters:
[boosting: gbdt]
[objective: binary]
[metric: auc]
[tree_learner: serial]
[device_type: cpu]
[data: ]
[valid: ]
[num_iterations: 100]
[learning_rate: 0.0870857]
[num_leaves: 9]
[num_threads: 0]
[max_depth: 5]
[min_data_in_leaf: 180]
[min_sum_hessian_in_leaf: 0.001]
[bagging_fraction: 0.500984]
[bagging_freq: 0]
[bagging_seed: 3]
[feature_fraction: 0.671546]
[feature_fraction_seed: 2]
[early_stopping_round: 0]
[max_delta_step: 0]
[lambda_l1: 0.939537]
[lambda_l2: 0.500222]
[min_gain_to_split: 0]
[drop_rate: 0.1]
[max_drop: 50]
[skip_drop: 0.5]
[xgboost_dart_mode: 0]
[uniform_drop: 0]
[drop_seed: 4]
[top_rate: 0.2]
[other_rate: 0.1]
[min_data_per_group: 100]
[max_cat_threshold: 32]
[cat_l2: 10]
[cat_smooth: 10]
[max_cat_to_onehot: 4]
[top_k: 20]
[monotone_constraints: ]
[feature_contri: ]
[forcedsplits_filename: ]
[refit_decay_rate: 0.9]
[verbosity: 1]
[max_bin: 255]
[min_data_in_bin: 3]
[bin_construct_sample_cnt: 20000]
[histogram_pool_size: -1]
[data_random_seed: 1]
[output_model: LightGBM_model.txt]
[snapshot_freq: -1]
[input_model: ]
[output_result: LightGBM_predict_result.txt]
[initscore_filename: ]
[valid_data_initscores: ]
[pre_partition: 0]
[enable_bundle: 1]
[max_conflict_rate: 0]
[is_enable_sparse: 1]
[sparse_threshold: 0.8]
[use_missing: 1]
[zero_as_missing: 0]
[two_round: 0]
[save_binary: 0]
[enable_load_from_binary_file: 1]
[header: 0]
[label_column: ]
[weight_column: ]
[group_column: ]
[ignore_column: ]
[categorical_feature: ]
[predict_raw_score: 0]
[predict_leaf_index: 0]
[predict_contrib: 0]
[num_iteration_predict: -1]
[pred_early_stop: 0]
[pred_early_stop_freq: 10]
[pred_early_stop_margin: 10]
[convert_model_language: ]
[convert_model: gbdt_prediction.cpp]
[num_class: 1]
[is_unbalance: 0]
[scale_pos_weight: 1]
[sigmoid: 1]
[boost_from_average: 1]
[reg_sqrt: 0]
[alpha: 0.9]
[fair_c: 1]
[poisson_max_delta_step: 0.7]
[tweedie_variance_power: 1.5]
[max_position: 20]
[label_gain: ]
[metric_freq: 1]
[is_provide_training_metric: 0]
[eval_at: ]
[num_machines: 1]
[local_listen_port: 12400]
[time_out: 120]
[machine_list_filename: ]
[machines: ]
[gpu_platform_id: -1]
[gpu_device_id: -1]
[gpu_use_dp: 0]

end of parameters

pandas_categorical:null
